-1.2658088,-0.70196,0.075029664,-0.5461294,0.11519039,0.2811748,-0.06957147,0.22173028,0.092293024,0.25468948,-0.041980784,0.35424423,-0.2286541,0.33814755,0.48211023,-0.5113664,0.06041877,-0.0017552515,0.14255852,-0.4086629,-0.30790332,0.25525546,0.058123536,0.27669373,-0.27464455,-0.51464236,0.33525875,0.66104597,0.26322237,-0.43742767,-0.09441323,1.395543,-0.2679091,-0.11115471,-0.640085,0.070220776,0.20315425,-0.28964302,-0.24042207,0.54849136,0.18401022,0.029164204,-0.35556853,0.48468974,0.14245991,0.24205765,0.17176086,0.72723466,-0.06317087,0.6111277,0.16373266,-0.11701002,-0.46308053,-0.14028683,-0.6126707,0.12228331,0.13085149,-0.3431012,0.52443606,0.13819627,-0.2899969,0.15864925,0.18931907,0.2942866,0.40908438,0.1300608,-0.016217705,0.11981163,0.37835714,-0.09503384,-0.21016306,-0.31536046,-0.10100737,0.36987254,0.31589556,0.006538897,0.037870757,0.286387,-1.1331658,0.14769882,-0.12812804,-0.71832937,0.3916407,0.27189958,-0.033163715,0.58760047,-0.17565778,0.035994895,0.2730897,0.30434594,-0.1508895,-0.11115283,-0.08709346,0.8821081,-0.38932395,-0.069100186,0.7226007,0.28743577,-0.015294348,0.047103107,0.3123063,-0.114588685,0.18636766,-0.066025555,0.4957452,-0.00842457,-0.3175848,-0.09799075,0.30291632,0.005943687,-0.66031456,0.0071914014,-0.40673378,-0.68255496,-0.6941566,0.7010749,-0.015721444,-0.002951596,0.7359523,-0.082166314,0.029536502,0.15418492,0.057534654,-0.27018967,-0.038828738,-0.2066965,0.26651442,0.48016897,-0.6402939,0.045267392,-0.24077213,0.14299917,-0.3218024,0.005749088,-0.27257326,0.61888134,0.46714512,-0.54744804,-0.6892447,-0.3898826,0.42569062,-0.17472033,0.6314433,-0.6167602,0.24918492,-0.410164,0.32082084,-0.58982414,-0.007754783,-0.22165962,0.043290667,-0.07068658,-0.07187349,0.18949422,0.3035616,0.35234147,0.07566891,0.41190004,-1.1308645,-0.042230498,0.08156582,-0.6699341,0.3734416,0.22118552,0.12606466,0.04591959,-0.25637347,-0.11504924,0.0962575,0.2070958,-0.0712634,0.20211557,-0.17792284,-0.49461582,0.15847181,-0.36960384,0.120397076,0.80651367,-0.2389222,-0.2385599,-0.21858612,-0.09124392,0.34196472,0.56228405,0.31796256,0.1641314,-0.21894073,-0.40422845,0.72937375,-0.2847363,-0.08854418,0.28854746,-0.37898013,0.63334215,0.30773115,-0.009722718,-0.060985595,0.010772306,0.46057332,-0.063802436,0.6534546,-0.1491362,-0.61824995,-0.20089984,-0.59281397,0.15569575,0.2566531,-0.086563155,0.31679767,0.7790223,-0.4055185,0.66628075,0.042847443,0.08521171,-0.20023198,0.18261446,-0.24138507,0.0023101775,0.34571606,0.337619,0.14103965,-0.5638403,-0.18924324,-0.1965704,0.3214645,0.645715,-0.009130642,0.21242476,0.6568446,0.53112483,-0.15941739,0.03229478,-0.336159,-0.26965323,-0.28294158,-0.038103767,0.008517013,-0.26675048,0.14265937,0.15949078,0.24612416,0.8451211,0.046206612,0.78470427,0.4392937,0.2292567,0.09702028,-0.004905992,0.114661634,0.155484,0.27868935,-0.1316313,-0.720371,-0.13680708,-0.3916193,-0.110146046,-0.13133973,0.38604802,-0.18916075,-0.6554276,-0.012049688,-0.13082048,0.167045,0.42963398,-0.5483216,-0.2598196,-0.21519186,0.12720494,0.31174362,-0.008165358,0.19753915,0.2840615,-0.112806134,0.12094261,-0.01988572,-0.19069596,-0.14449492,0.55323005,-0.12616903,0.016930692,-0.15165423,-0.250053,-0.06475373,-0.26916707,0.0053673727,0.20622101,0.20363967,0.5146482,0.28436896,0.13197611,0.83605635,0.0075372197,-0.09592478,0.0004680784,0.21390831,0.07889223,-0.2492879,0.09008647,-0.03189256,0.6463372,0.112748206,0.13166034,0.30369055,0.28500894,-0.19396149,0.08815265,-0.5398778,-0.38014594,0.687538,0.19398952,-0.1185836,-0.6074185,-0.5668432,0.6497417,0.15307564,-0.31236994,0.09770414,0.03494636,-0.13534464,-0.42356855,0.45470068,-0.0037224097,0.029198615,-0.14114659,0.12647809,0.031428408,-0.21969894,0.077225894,-0.2735978,-0.93479264,-0.0059673637,0.28160822,-0.19362916,-0.25268814,0.14004351,0.068437845,0.43055055,-0.08981524,0.14324398,0.16985369,0.4002744,0.50190383,-0.2233931,0.24292995,0.16384853,-0.01831857,-0.6777205,0.09582337,-0.3537022,-0.22059464,-0.2667246,0.5944753,-0.36026636,0.27983925,-0.06940387,0.7709761,0.12866607,0.55738664,0.3598731,-0.07623138,-0.1889073,0.5448408,0.13659602,-0.08670507,0.06419526,-0.012458499,-0.2283661,0.0027110798,-0.12069058,-0.28260434,0.27059945,0.1257391,0.034758657,0.029598994,-0.013591876,0.035338536,-0.6370863,0.34451193,0.28574705,0.3056254,0.116365604,-0.03608309,-0.056073364,0.47734365,-0.68170357,0.232998,0.38419715,-0.4492609,0.032859694,-0.28144154,-0.30451047,0.24900043,0.1796437,-0.026653364,0.1406058,0.09127308,0.10275776,-0.07239535,-0.28074327,0.8714092,-0.555593,-0.018325323,0.058061317,0.20763195,0.40407458,-0.33718228,-0.06680356,0.028528783,0.6697947,-0.067869455,0.7210082,-0.56387925,-0.10648056,-0.27661884,-0.05188442,-0.28813112,-0.06079388,0.23833568,0.06904415,0.48594582,-0.3336723,-0.57358456,1.2763591,0.34395942,-0.2730954,-0.29324496,-0.60790145,0.10734486,0.5128376,0.40443546,0.16640429,-0.09531861,-0.022081148,0.22882186,-0.20820607,0.18721259,0.20831251,0.3898094,-0.11913208,-0.046761576,-0.37294516,0.06572034,-0.52458555,-0.13576186,0.097095184,0.0055496697,0.3411816,0.229046,0.46645698,-0.43166584,-0.08138845,-0.29735658,-0.60645103,-0.06889219,0.18201704,-0.88715726,-0.418521,-0.2184391,-0.1294125,-0.29371756,0.1347382,-0.02676536,0.14262374,-0.09591964,0.123682894,-0.056721948,0.03175079,-0.078966685,-0.41950879,-0.25621495,0.2615899,-0.16622925,-0.85624415,0.2190272,0.009439809,0.3955651,0.019095004,0.31143418,0.4348199,0.27240032,0.5669703,0.4161638,0.020587752,-0.40301344,0.9424876,-0.18945079,-0.10118661,-0.06920341,0.27108145,0.22222798,0.18529843,0.117022485,-0.6419922,0.35478413,0.39984596,0.23134279,-0.24292317,0.82644165,0.42980266,0.2788192,-0.024154909,-0.37047574,-0.3047484,0.3144062,-0.34258044,0.32372236,-0.72412646,-0.09612784,0.1086701,-0.27262336,0.4586115,-0.21866283,0.056792025,0.027272467,-0.018137261,0.03175179,-0.09087589,-0.062344186,-0.0655433,-0.039570943,0.05451841,-0.13714842,0.023687935,-0.019662598,-0.055457935,0.05869795,-0.09802618,0.0068774787,-0.04807977,0.027637783,-0.0041911616,0.048472706,0.00083567936,0.07253266,0.05896347,-0.019300934,0.006195026,0.03786078,-0.112115555,-0.0049357484,0.021529488,-0.029633079,-0.074016914,0.007939617,0.053696938,-0.106164694,0.058912486,0.013006012,-0.0010824737,-0.064479195,-0.063613996,-0.057491045,-0.059281945,0.019358344,-0.05833678,0.014636792,-0.039871376,0.041405026,0.012744389,-0.035345394,0.07672536,0.023290226,-0.05455338,-0.02961469,0.04050927,0.023768961,0.03331925,0.09988309,-0.0017480328,-0.05370897,0.04222969,-0.052799273,-0.055582397,-0.023207743,0.038166814,-0.01907353,-0.056011535,-0.06054643,0.044428658,0.014632321,-0.065828554,0.034765236,-0.021098686,0.06261076,0.013607791,-0.050145276,-0.0023751298,0.08916219,-0.036252666,0.045446754,-0.03731427,-0.104193546,-0.060782477,-0.0017691606,-0.06750841,-0.01981382,-0.037088063,-0.06551124,0.010682253,-0.08957533,0.02814739,0.03284242,-0.05052175,0.026696118,-0.11535107,-0.040428467,0.03117204,0.08584189,0.047390565,-0.019826619,-0.023252102,0.025766656,-0.061558608,0.05784813,0.09497254,-0.05356854,0.030828344,0.021044623,0.07691059,0.010129531,0.0022789438,-0.04101039,0.04394572,-0.049399164,-0.06665555,0.06815567,0.034307912,-0.009635504,-0.07772846,-0.06332025,-0.036750328,0.07038287,-0.01752952,-0.046636745,0.013980083,0.053192563,-0.02367335,-0.033772312,-0.033043843,0.0017548945,-0.09235159,0.014438686,-0.02619144,-0.023236526,-0.049404465,-0.018463576,0.055667866,0.022841768,-0.09118564,0.062599994,-0.028547373,0.043497536,-0.03476019,-0.040094946,0.003505087,-0.05604608,-0.13221703,-0.019220816,-0.044291224,-0.052226666,-0.062168166,0.028931897,0.050610796,-0.02569538,-0.07006203,-0.08328934,0.00080467755,-0.06465255,0.0745495,0.08730548,-0.05316832,0.10744634,-0.06629324,-0.055814497,0.03058201,0.0877668,0.030576268,-0.0078117657,0.058339477,-0.014661758,-0.009809051,-0.15678607,0.082261115,-0.121668145,-0.0214341,-0.0930876,-0.004241117,0.008094879,0.028409759,0.08153708,-0.06983444,-0.027873656,-0.03374897,0.05982289,0.039104678,-0.05870288,0.0751416,0.083236724,0.07146349,-0.019570725,-0.068171315,0.039810415,0.0219189,0.041269366,-0.041198403,0.0029985101,0.063445576,0.036641713,0.08583022,-0.026281515,-0.028407153,0.067104176,0.09513945,-0.05921046,0.046705082,0.07019607,0.07007136,-0.03753105,-0.006169687,0.12550618,-0.007847848,-0.020544585,0.038592637,-0.09033402,-0.012367777,0.0014224668,-0.050684225,0.08109033,-0.020701954,0.04140091,-0.053066924,-0.049026884,0.03415555,-0.1165099,0.11348931,-0.05671853,-0.13159156,-0.030159464,-0.028972663,-0.047773264,0.03516589,-0.015919652,-0.043741275,0.058987692,-0.049286634,-0.10825262,0.0435952,-0.033987217,-0.023806266,0.0711799,0.054619983,0.028078368,-0.07989291,-0.07561545,-0.00039115868,-0.035418134,-0.042199925,0.07641997,0.09275158,0.14259347,0.07128942,-0.0053954707,-0.07632304,0.001045783,0.12933968,-0.041971337,0.015786074,0.03952292,-0.15254582,-0.036322538,-0.09539229,0.10058345,-0.04730875,0.004938637,0.056973323,0.009846268,-0.06378163,0.08533984,0.09640834,-0.004238364,-0.0266849,0.034861445,-0.025999196,0.07810212,-0.014702965,0.027370283,0.10696873,-0.015801262,-0.07169695,-0.0007852955,-0.07595251,-0.017192684,-0.08901731,-0.039768945,0.06660119,-0.03173341,-0.056881577,0.008142005,-0.012524874,0.057210896,-0.031950723,-0.070530295,0.0025883352,0.043712083,0.045187842,0.013827888,-0.067830846,0.02555393,-0.021581687,0.042674046,0.032429915,-0.096199885,0.09693043,-0.029119603,-0.08902204,-0.025307382,-0.081584506,0.11200111,-0.005287953,0.09157077,0.11981919,-0.019125078,-0.013405614,-0.07671869,-0.055322748,0.0017738275,-0.019860335,-0.09962495,-0.024511667,0.016046578,-0.008231585,-0.047741465,0.018196663,0.017451309,-0.013189749,-0.0467878,0.05038267,-0.062234502,0.013177186,0.085593484,0.029555365,-0.029928315,-0.05590638,-0.024747463,0.051914245,0.09136995,0.0034858258,0.04638035,0.0037601849,0.024444837,0.04201627,-0.017446948,0.010852601,-0.025636805,-0.061580706,-0.05675865,-0.07857712,-0.035644893,-0.0011236503,-0.018300025,0.07587855,0.004880328,0.0026753657,-0.0069666198,0.052979957,0.06596019,-0.088468134,-0.022874886,0.06399734,-0.0586267,0.094434865,0.006893906,0.00022475977,-0.0541529,-0.020347385,0.0725231,0.046258297,-0.053901255,0.09734447,0.0996606,0.047760997,-0.01352552,-0.09146448,0.077709034,-0.035104852,-0.05980116,-0.07127534,-0.019486936,-0.06399793,-0.041628722,0.014792697,0.02648185,-0.011527191,0.015390151,-0.03147489,0.055452503,0.0139190825,-0.0036764967,-0.042630635,0.012822064,0.03807188,-0.10322221,0.09415227,-0.07599279,0.07145417,-0.007796977,-0.012889432,0.056709364,-0.0092797065,0.031005375,0.04408732,-0.044935223,-0.048102904,0.035477396,-0.015130196,0.017141268,0.10321594,0.027070066,-0.025218628,-0.018051583,-0.057746835,0.06698308,-0.047378547,0.047706615,0.059227727,0.052725654,0.05248642,0.079350255,0.031260394,0.074487455,-0.02219358,0.013862717,0.08943817,0.028504563,-0.011835115,0.05315304,0.00081474247,0.041188546,-0.03246447,-0.038260985,-0.019855171,0.05074421,-0.047944166,-0.022493443,-0.079766355,-0.03290479,-0.03597346,0.05331526,0.048684213,-0.012859207,-0.079054065,-0.011003098,-0.019066064,-0.058454547,-0.03810427,-0.051480852,0.016617982,0.08293199,0.00782635,0.06201646,-0.061908886,0.0053310157,-0.028899752,0.07211916,-0.040315643,0.08358373,0.030351408,0.12169071,-0.024053408,0.08758129,-0.06030854,-0.009742486,0.065957405,-0.01848866,-0.06671951,-0.07542582,-0.012307401,0.020675508,0.003025624,-0.010782454,0.054058194,-0.12350678,0.07566874,-0.065076195,-0.030742534,0.07334358,0.05869687,-0.010061215,0.07620269,-0.07789448,-0.044524156,-0.016621945,-0.113049515,-0.05685259,-0.10338049,-0.09303152,0.061157227,-0.08254288,0.05384922,-0.115767404,0.07409348,0.052296862,0.088332936,0.059682284,-0.010827187,0.09250189,-0.035935853,-0.004895704,0.049656626,0.02294309,0.0040829605,0.062095087,-0.07711865,-0.0023445142,-0.01715797,-0.015306267,0.11912562,0.0040759384,0.055184953,-0.057727464,-0.041672677,-0.119121395,0.01768636,0.034097422,
-0.36197656,0.87284577,-0.11612614,-0.12733558,0.057775863,0.42377964,0.17890422,0.14713833,-0.4117707,0.34067878,0.08072147,-0.21336047,1.136432,-0.4073807,-0.47301075,-0.09717577,-0.14050637,0.32483897,-0.8060459,0.0073988936,0.03056442,0.16644481,0.32378387,0.10545345,0.576785,-0.5159324,-0.23945865,-0.4385973,-0.21271636,-0.29991886,0.68094075,-0.78799534,0.1678043,0.16965494,-0.118209206,-0.08616458,-0.28613296,0.13597614,0.13708696,-0.1606261,-0.07956489,0.1941272,-0.09089058,-0.24317849,0.06888725,0.729981,0.04439506,-0.25376987,-0.033588547,0.14903966,0.2541509,0.65576047,0.47128046,-0.068838164,0.579109,-0.16533825,0.008115475,0.26226696,-0.38213676,-0.10044264,-0.19558321,-0.015536886,0.2243485,-0.8455305,-0.39553046,-0.3548278,-0.05164299,-0.5995075,-0.14254007,-0.25938255,-0.09922854,-0.4411515,-0.12805153,0.17158183,0.28073305,0.4728501,-0.25589266,0.28234902,1.3864052,0.24728224,0.2277982,0.3690321,-0.87862086,0.04913631,-0.1584836,0.365756,0.1262019,0.38806707,-0.47708505,-0.25690433,-0.45246005,-0.12732281,0.22640514,-1.2010434,0.31180543,0.09731397,0.038181584,0.27192926,-0.11579239,0.885914,-0.5093655,0.5554729,0.18447216,0.08289803,0.008267853,-0.008502547,-0.7421077,0.61736023,-0.09204073,0.0071476474,0.39818177,-0.007142482,0.73071146,-0.3476322,1.162798,-0.44246957,-0.0021831526,0.046109885,-0.52089,-0.3780215,-0.18288726,-0.22191316,-0.115528025,-0.38166213,-0.12390146,-0.11980382,-0.15481324,0.5699998,0.5919186,-0.16684175,-0.04950129,-0.12884052,0.2823968,-0.046643235,-0.14738782,-0.4584651,-0.01773974,-0.12813643,0.257149,0.34472236,-0.29918453,0.013203194,-0.545451,0.5748574,-0.29987532,0.7303371,-0.2823326,0.1342772,0.00405188,-0.24903794,-0.5725131,0.37532133,0.011741946,0.34575212,0.15915865,0.025384003,-0.0020161262,-0.0988975,0.13164343,0.031187912,-0.6541827,0.15852934,0.7749152,-0.064741366,-0.029903078,0.2384979,-0.34591463,0.27359328,-0.2744333,0.13406801,-0.4773652,-0.1601649,0.16642727,0.20530859,0.096622236,0.0052993293,-0.15746625,-0.5397906,0.21546611,0.33581278,-0.66908497,-0.18104693,-0.12332002,0.30294868,-1.1120065,-0.27367228,0.6263925,-0.1973797,-0.74741125,-0.03349449,0.07600717,-0.04568047,-0.014914664,0.29377416,0.4377696,0.091433086,-0.22553506,0.25342175,-0.27555203,-0.25230142,-0.23073179,0.26009852,-0.46580362,-0.17875819,0.39213714,0.63319194,-0.22935335,-0.124533385,0.5158927,0.052816167,-0.048099894,-0.4712301,-0.0252992,-0.1557749,0.08710818,0.48035347,0.6102805,0.058357332,-0.2562423,0.41708037,0.06423752,-0.6234453,-0.3037239,0.03435755,0.30657962,0.051050767,-0.44797203,0.4927015,-0.34551188,-0.44731492,0.045593906,0.6004809,-0.22071643,0.023246685,-0.17734653,0.08012945,-0.1797598,-0.022338556,-0.31236434,0.123599485,-0.3307626,-0.61124355,-0.16846393,0.26093137,-0.37936452,-0.65282845,0.079793856,-0.74027324,-0.42702562,0.033733755,-0.021420987,0.056754664,-0.071835205,0.08242606,0.03165539,1.0781386,-0.60217035,-0.17001145,0.011485444,0.4239242,0.4102874,-0.037871983,0.2601385,-0.7486017,-0.047313917,-0.19417436,-0.59392387,0.61642736,-0.9405467,0.07863003,-0.13585766,-0.08616393,0.13676794,-0.73044884,0.026392812,0.05522281,0.10937926,-0.074277386,-0.03003112,0.16222325,-0.025365433,0.11459936,0.024303783,0.4041094,0.010461821,-0.23110974,-0.601992,0.11463079,0.51984286,-0.23276372,-0.013988234,0.011627316,-0.37098122,0.00042900158,-0.139778,-0.18357585,0.06808429,0.005088242,0.5935773,0.18535174,0.08229629,0.08327162,-0.3544383,0.021361275,0.11831312,0.50542206,-0.36937913,-0.11384042,-0.21010727,-0.30936766,0.03502087,0.35657355,0.09685149,0.0459102,0.74260956,0.23608181,0.58957064,-0.42230096,-0.020875338,0.3762694,-0.5265954,0.14212684,-0.2134261,1.480557,0.1664712,-0.045597658,0.14194238,-0.018043889,0.33649433,0.45767424,-0.11939076,0.29672137,0.13779168,-0.007524857,0.23457055,-0.22051044,-0.29399058,-0.29379946,-0.07480261,0.33286744,0.3082422,-0.10264163,0.48463085,0.049190257,-0.015723104,-0.0721279,0.5999172,0.114310086,1.0642465,-0.15950575,-0.31524092,0.45904264,-0.114673264,-0.06462414,-0.21578124,-0.34554538,0.48126274,0.3906659,0.057159305,0.1784147,0.31716946,-0.33072492,-0.25475875,-0.18438952,-0.030212417,0.1116939,0.12140345,-0.0049810275,-0.51631767,-0.09661764,-0.03089594,-0.33114567,0.12339086,0.27917418,0.14483954,0.0033042894,0.03553812,-0.35824662,-0.09495865,0.23579721,0.14610808,0.008393923,0.2066658,-0.61442864,0.030107891,-0.49019578,0.04847376,0.3016746,-0.16835085,-0.01154974,0.6602835,-0.31725445,0.14467947,0.01970912,-0.029619971,-0.0044769235,0.008001412,0.5131575,-0.1630977,-0.43567014,0.719151,0.26629636,-0.52293766,-0.17962229,-1.2236704,-0.33420566,0.14505692,-0.32467115,-0.24314581,1.0557642,-1.0213668,-0.13829602,0.71552026,0.59053236,-0.15609318,-0.5886849,-0.28523043,0.5030888,-0.33349082,-0.41774416,0.053947262,-0.242795,-0.34768575,-0.14530513,-0.32569194,0.21570408,0.7436144,-0.7250395,0.1770495,-0.4217201,-0.29976565,-0.30530503,-0.1851816,-0.076572575,0.4938189,0.09509198,-0.050197817,0.014747105,0.08296914,-0.015755003,-0.32734874,0.5291346,0.65522766,-0.4186555,-0.4495562,-0.032861963,0.12446255,0.43177903,-0.037286457,-0.36189118,-0.3500112,-0.074578285,0.24969481,-0.066093944,-0.40348017,-0.13483623,0.5592936,-0.14687535,-0.0022154162,0.094815694,-0.1351029,0.03741171,0.5230872,0.2215897,-0.114351176,-0.20090583,0.09798903,0.12278361,0.075552106,0.17152616,-0.20934616,-0.21464948,0.75241905,-0.04015943,-0.0032017762,0.2645163,-0.013235157,0.24284902,-0.37307093,0.07859577,0.28503048,0.49836168,-0.22840363,0.30442438,-0.6328501,0.059638977,-0.22385907,0.28090423,0.28716308,-0.6297655,0.71410674,-0.17759515,-0.14557818,0.22186483,-0.21920305,0.38007805,0.14201719,-0.08040875,0.29714224,-0.22829264,0.07669111,0.29255494,0.030600559,0.3325136,-0.090523474,-0.19442135,0.0039055732,1.4507215,-0.28432205,0.1559306,-0.17192724,-0.22382158,-0.018297227,0.09116288,-0.011791858,0.014621641,0.16039951,0.04787084,0.05350519,-0.11789553,0.10050136,0.050068498,0.021257676,0.10281433,0.012035529,-0.12631665,0.11119182,-0.041013207,0.10221538,0.012842957,0.038185164,-0.08987539,0.068454355,0.029812824,-0.0792181,-0.05249699,-0.08946004,0.059275836,0.11340839,0.019228917,-0.07022504,0.045767106,0.037248876,-0.033458397,-0.03399145,0.10596887,0.0040010433,0.10032598,0.01455944,0.048758097,0.05880483,0.08764153,0.022803422,0.023584608,0.03212103,0.08398953,0.047678307,-0.120462716,0.052158356,0.032299623,-0.07798485,-0.0045943772,0.12208854,-0.0811486,-0.07373167,-0.0935666,-0.08865005,-0.04014758,-0.022678133,0.06229856,-0.06979529,0.09117777,-0.04606966,-0.09228879,0.044396862,0.018502068,-0.017468462,0.13701667,-0.042929918,-0.08744133,0.051748734,-0.05389138,0.03626833,-0.051001936,0.06464985,0.038305778,0.03802459,-0.0472753,0.09601499,0.018579246,-0.0041035884,0.12228791,0.14570577,-0.0011091157,0.014084103,0.056341972,0.057302773,0.05926744,-0.049869332,0.040648874,-0.053224154,-0.0810384,0.022715928,-0.046264376,0.11241546,0.08189191,-0.03660857,-0.03009375,0.0038726255,-0.07844016,0.050889544,-0.0784055,0.035106976,-0.037146177,-0.092997074,0.04668431,-0.05042721,-0.08010981,-0.06263348,-0.061999675,-0.037644982,0.041322026,0.0040870016,0.03169816,0.09878653,0.050980106,0.050738987,0.02730954,0.11277602,0.041470796,-0.05162042,-0.05395621,-0.039923936,-0.0326396,0.016487014,-0.0738813,-0.07126184,-0.027058845,-0.02270708,0.039188877,0.035276834,-0.08816214,0.07183301,-0.053419333,0.08169115,-0.06056232,-0.04311566,0.04187946,0.086268954,-0.106135264,0.049513165,-0.087459266,0.061815552,0.08674124,0.05200307,0.083327025,0.113486834,-0.05991588,0.056900617,-0.029639727,0.026691169,-0.009456125,-0.0101178745,-0.011527752,0.101730995,0.04461924,-0.046584427,0.06205843,-0.13706858,-0.05304427,0.0023638513,-0.046346992,0.11320333,0.041445524,-0.016768327,-0.14125822,-0.0074475184,-0.02353928,-0.026775377,-0.010816782,-0.00067674834,0.07655051,-0.06985362,0.08076044,0.03713009,0.13628952,-0.012646476,-0.0020540894,0.016436594,-0.055037115,0.01057329,-0.010610306,0.08409685,-0.09442719,-0.0850102,-0.040050544,-0.05904893,-0.016846862,-0.02653134,-0.08464604,0.036354825,-0.011256656,0.070451945,0.0066748383,0.07396342,-0.05860615,0.054619554,-0.07363072,-0.08693865,-0.038522996,0.025878098,-0.05120245,-0.095227085,-0.059279427,0.018782552,-0.088807836,-0.032965705,0.039056566,0.07637611,-0.09407216,-0.043971676,-0.004176568,-0.04457132,0.09486309,-0.02461325,0.0204823,-0.03700263,-0.08992197,-0.016906675,-0.073374815,-0.067318454,0.03959032,-0.07574946,0.087273866,-0.08630274,0.0039644684,0.1424524,0.054810498,0.094928116,0.055563312,-0.092845924,-0.055911306,-0.0435554,-0.04511954,0.054387324,0.07818558,0.030690813,0.070441976,0.004777755,-0.042129632,-0.052544612,0.07083752,0.07717546,0.037814863,0.040719125,0.046019886,0.09724115,-0.11095929,-0.050310742,-0.030960215,-0.16064021,-0.03981626,0.05193862,0.035568137,-0.06418095,-0.01438562,0.06618692,-0.016808923,0.09266896,0.0285476,0.06530621,0.0069544045,-0.06254,0.031916093,0.054338716,-0.03118872,0.12943211,-0.04367135,0.02975304,0.06147914,-0.06375019,0.0046567735,0.012949506,-0.019289281,0.031838417,0.002435204,-0.092936195,-0.013200114,0.022933653,0.05693299,0.08664932,0.041210923,0.09427047,0.13674155,-0.06276283,0.08528491,0.05316574,-0.115771435,0.00026044203,-0.07253496,-0.0035641603,-0.035514217,0.03757477,0.03742068,-0.04560669,-0.029120702,0.028591536,-0.032738555,-0.062230695,-0.115991846,-0.052698053,0.0023906701,-0.04933631,0.0029823647,0.080394775,0.026111541,-0.016861357,-0.083784446,0.063726716,0.0543688,-0.09648284,0.024718245,0.03655826,0.06072657,-0.07250758,0.05928671,-0.02090333,0.077564955,0.08647238,0.015061263,-0.0023058467,0.084749915,0.051905878,0.029726492,-0.051330745,0.025687544,-0.08519753,0.08147638,-0.07603773,-0.105546564,0.0358958,-0.0118779605,-0.02633289,-0.020056061,0.027284065,-0.0819055,0.060334273,-0.056714598,0.04441557,-0.035868928,0.059384536,-0.06772886,-0.006851109,-0.033882063,0.070095174,0.086870484,0.010070915,0.057962555,-0.094325505,0.06268767,-0.02566865,-0.0018703484,0.09676666,-0.0003223638,-0.05323573,0.09941118,0.044017006,-0.052827895,-0.0485925,0.05825083,-0.0786359,-0.08084147,0.03019951,0.085300885,0.040993743,-0.031555023,-0.018000674,-0.07328481,-0.07061983,-0.11430721,-0.065759756,0.01918284,0.09695351,-0.0147728035,-0.0049627023,0.047650397,-0.013026253,-0.020382823,0.07737836,0.057573326,-0.023307089,-0.030794058,-0.013445395,-0.031073166,0.113500506,-0.11810905,-0.06041142,0.0651767,0.04346169,-0.08287261,-0.032007743,0.1400041,-0.074726835,0.08303467,-0.07601503,-0.03800946,-0.0981941,-0.0064388523,0.07332549,-0.08055538,0.025643667,0.12456296,0.11480015,-0.046070185,-0.051284686,0.028453633,-0.049698245,0.08038127,-0.07458548,0.06279285,0.06796293,-0.08561941,-0.005066698,-0.047465216,-0.06119245,0.051724043,-0.121499926,-0.0021387597,-0.037797492,-0.08774427,0.014389947,0.005141971,-0.13635166,-0.009837247,-0.021888986,-0.08982899,0.025902934,0.034077708,0.031279344,-0.0001016523,-0.00012207466,-0.09039593,-0.007896877,0.039793592,0.09714078,0.05856953,0.016765019,-0.012008532,-0.03893469,-0.012794515,0.053671155,0.06870455,0.07939348,0.01184289,-0.06380876,0.016015612,0.00038689925,-0.026058186,0.048743658,0.01904157,0.115382895,0.09276197,0.037062593,-0.10540436,0.11025054,-0.011145579,-0.036893245,-0.0068980404,-0.04262546,-0.08339363,0.10738433,-0.024562463,0.036594324,-0.023957945,0.052699357,0.043214202,0.056166768,-0.031946443,-0.012518714,-0.07082841,-0.018832333,0.06753029,0.024193982,0.09587812,-0.0758425,-0.025441032,-0.115886174,-0.022729326,-0.047849916,-0.014194752,0.031472508,-0.016722301,0.11071425,0.10796882,0.041534394,0.09905311,-0.0024074516,-0.0004079255,-0.08450485,0.12066347,-0.07722355,0.03186308,-0.07977503,-0.051868346,0.03407762,-0.046617024,0.031000677,-0.018763088,-0.081655875,-0.079579346,0.017300049,-0.06756477,0.020296052,0.06366499,-0.057564292,-0.08871971,-0.075434014,-0.0060160165,0.016450327,0.05879153,0.007557125,0.09915817,0.031065168,0.06714326,
0.23251027,0.16541205,0.1716124,0.76408154,0.024293385,0.24616529,-0.13651273,-0.28740454,-0.3472224,1.1645588,-0.16534182,0.035274357,-0.71659315,-0.069235556,-0.02800154,-0.3009872,-0.04224424,-0.19569227,0.019625317,0.060729988,0.26281887,0.21208523,-0.5056921,0.2971968,-0.03145646,-0.043685947,0.09703661,-0.270429,0.032311946,0.031631265,-0.12731563,-0.37889877,-0.13665769,-0.17140731,0.24539752,0.21771885,0.37862754,-0.07781433,-0.26957545,0.10351311,-0.5956181,-0.09126883,-0.2193456,-0.27889737,0.10274157,-0.32409665,-0.2535718,0.16958517,-0.14507395,0.0016639996,-0.018766407,-0.23762591,-0.36868313,0.34386316,1.011894,-0.1641231,-0.34591618,-0.12031163,0.2057764,0.09006186,0.53717816,-0.13167258,-0.12576887,0.33298197,-0.34607077,0.034816235,0.0046333917,0.68860304,-0.2245001,0.065533094,0.26538858,-0.033288456,-0.263029,0.020758193,-0.029583802,0.049263973,-0.56199193,0.09843946,0.83575344,0.08689429,-0.117775954,-0.53468883,0.05860288,0.06336933,-0.29992843,0.009024746,-0.42852047,-0.4271239,-0.15398403,-0.2336669,0.124815784,-0.26494116,-0.1430111,0.9954551,0.63737226,0.43898013,-0.24814135,0.17477074,0.10094366,0.54089224,0.06985005,-0.18943687,-0.022494452,-0.11585242,-0.11143473,-0.0046950523,0.051629525,0.16498588,0.06771117,0.2423968,0.099155925,-0.0017402823,-0.4009678,0.6589907,-0.36871606,0.44543144,-0.035630405,0.013070188,0.30821306,0.20198014,0.38400128,-0.28629094,0.1610008,0.13147423,0.11854625,0.3023776,0.22603224,-0.20481178,-0.5090488,0.2659656,0.072445616,-0.40271056,-0.4239238,0.45352212,0.32626846,-0.20556633,-0.077487886,0.1922115,0.43589252,0.2891128,0.4361981,-0.32659137,-0.11749095,0.059232228,0.5480527,-0.31198972,-0.31553072,0.77934194,-1.37997695e-05,0.20206074,0.45306915,-0.08684567,0.027758656,0.12707907,-0.53640175,0.1373877,0.019545214,0.3664671,0.47771996,0.49604458,-0.047123633,-0.19521046,0.07303842,-0.09358794,0.01570642,-0.03045327,-0.21584749,0.024965879,0.012678638,0.27986914,0.2011424,-0.33994174,0.031691942,0.041073456,-0.09015766,0.65252215,-0.12139356,0.553787,-0.41604528,-0.38881522,-0.050141294,0.25379804,0.27134237,-0.075266436,-0.111068666,0.370501,0.583154,-0.1868567,0.07958209,0.262947,0.017017871,-0.10476697,0.5898522,-0.017679557,-0.31602776,-0.0018860261,-0.08873176,-0.086557664,0.039956234,0.34966952,-0.17757528,-0.07394982,0.7699676,0.03464041,-0.18985617,-0.56808615,0.19395241,0.029546753,-0.3226444,0.37080142,0.010778642,-0.7351505,-0.31206948,0.34010038,-0.28166607,-0.5239424,-0.38781103,0.10497525,-0.077681944,0.19970779,0.32586652,-0.08443398,0.5032143,-0.18647422,-0.033887282,-0.03666794,0.52826595,-0.266483,-0.10136335,0.314121,0.49437594,0.22961134,-0.21391632,0.08931625,0.41993177,0.060245674,0.32014573,-0.03950558,-0.22754829,0.03946182,-0.3619486,0.13772751,0.30733046,0.20495464,-0.09981828,0.07267637,-0.049564674,-0.10926963,0.69061625,-0.036310025,-0.22702754,0.34500697,0.0036595615,-0.03483255,-0.028457232,-0.0046109,0.39470673,-0.18010233,0.1338125,-0.048044045,-0.5448995,0.015109111,-0.4293223,-0.12049621,-0.05255274,-0.11820784,-0.29697198,0.13337398,-0.055282094,-0.0796124,-0.11052354,-0.16345282,0.45928752,0.60993683,0.005327061,0.042954575,0.050643463,-0.18374573,0.57674706,-0.27594423,-0.40773654,0.12633176,-0.2967406,-0.3887513,-0.016245916,0.3713774,0.5288528,-0.009545865,-0.74529034,0.04490719,-0.0146804275,-0.004914973,0.40186173,0.0077986293,-0.11254511,-0.34138176,-0.19786493,-0.06339221,-0.4433436,-0.21292134,0.17385128,-0.094740935,0.1342652,0.07495139,0.56327873,0.53316486,-0.51212335,-0.5544025,-0.07601702,-0.058446035,-0.06552169,0.97573656,-0.27413368,0.26511824,1.1270896,0.08810676,-0.24098212,-0.3168731,-0.00877067,-0.78905797,-0.02512849,0.038022924,0.0388135,-0.10902936,-0.0809798,0.0242687,0.043777976,-0.021324417,0.0016728148,0.057603333,0.49623716,-0.17380309,0.031619474,0.03864952,-0.04298265,0.21126732,-0.19286169,-0.31105775,0.09612904,-0.09796129,-0.27184418,-0.30193397,0.17453983,0.010566578,-0.3567687,0.30891904,0.25969648,0.46586734,-0.84241945,0.06664988,0.21952513,-0.143218,0.12485007,-0.081475206,0.3525599,0.49757186,-0.09684919,0.35266155,-0.27308652,0.3486257,-0.13588434,0.1647475,0.28206196,0.0035508203,0.047863964,0.050114308,-0.041289274,1.1730964,0.20502709,0.033025194,-0.1923921,0.034384783,-0.49485108,-0.3188797,0.09495535,-0.041838545,0.19636892,0.14039089,-0.32388863,-0.11617651,-0.16617443,0.028970644,0.09847708,1.2016622,0.32841232,0.1436417,0.2321972,-0.30673218,0.14622636,-0.020508982,0.06511479,0.49188486,0.11006123,-0.117026456,-0.022468762,-0.10978855,0.25009346,-0.40393078,-0.14102398,-0.31579292,-0.21022378,-0.43925044,-0.17334029,-0.04177827,0.1700287,0.09612083,0.21224748,0.111085206,-0.119417526,-0.49808058,0.11183614,-0.29651707,0.08675463,-0.16238192,0.44788653,-0.32109267,-0.18660423,-0.46398634,0.26920792,-0.105298094,0.42045256,-0.062038828,0.17622237,0.026674734,0.34939587,-0.53429496,-0.07793799,0.5086378,-0.4527725,-0.23495618,0.4010913,0.213538,-0.38656625,-0.0080598155,0.28401798,-0.31034473,0.032949574,0.06595783,0.02151523,0.044689093,0.3114943,0.15247282,0.44352296,-0.12914565,0.16606627,0.044343416,0.19086468,0.19300845,0.26038718,0.2563176,0.35535663,0.021876624,-0.23372789,0.06339266,0.32370663,0.032876138,0.33090767,0.41027272,-0.084855944,-0.08047785,0.24695687,0.07639667,-1.1781666,-0.34544605,-0.098079644,0.07777863,0.0056407102,-0.17128974,0.077984914,0.026602695,0.2854631,0.4111367,-0.002682926,-0.011241234,0.012088563,-0.22767153,0.22834739,0.2019384,-0.21856304,-0.030964045,0.6982405,0.16398157,0.60062903,-0.068562865,0.31616244,0.101348594,0.009779004,0.44078606,0.10293264,0.88285446,-0.49279493,0.53285474,0.19100687,-0.4424176,0.091053724,-0.106741145,0.15159261,0.40736714,-0.02001203,-0.33004576,-0.11959128,0.115065455,0.08223816,-0.40945712,0.77390146,0.3429123,-0.09414163,0.37614223,-0.14023194,0.11897594,0.38023418,0.16436614,0.14307216,0.09098726,-0.10205131,-0.05338393,-0.016986879,0.02043797,-0.069591634,-0.03287909,-0.0032963306,0.039425254,0.05958014,0.0610391,0.025390023,0.052681334,0.045831278,0.10600309,-0.08683175,0.09258316,0.018360227,0.06544751,-0.007931898,0.0100078955,0.0022313062,-0.06967375,0.0016906523,0.056135766,0.03547859,-0.028762095,-0.14358182,0.030642759,0.05693108,0.08764206,-0.096147075,0.06137954,-0.03948948,-0.023521706,-0.008627998,0.08433286,-0.0019821285,-0.060748536,0.024594136,0.055965506,0.026006201,-0.074950516,-0.030570997,0.005577189,-0.06489724,-0.011312182,-0.033819817,-0.10111974,-0.037692845,-0.023740992,-0.0130131245,0.010007983,-0.042201973,0.05415312,-0.007485825,-0.03127281,0.011624182,0.016077045,-0.042463873,-0.072798856,-0.055979807,-0.003971454,-0.0089807995,0.09794696,0.0045904205,-0.05266843,-0.008548345,0.039646745,0.042033028,-0.083314106,0.08597221,0.049025822,-0.042798553,-0.011637468,0.07695521,-0.069934376,0.0031203183,0.02252202,0.010371208,-0.0019308405,-0.050255585,0.0068069967,-0.011389621,0.077954926,0.0020016439,-0.011286848,0.012502625,0.10407577,0.021002607,0.018004745,0.013771306,0.05288362,0.003320417,-0.047132112,-0.060558647,-0.016600333,-0.037616864,0.015362613,0.03685855,0.0019181425,0.06407534,0.037457127,-0.01671187,0.036874287,-0.014324791,-0.09902515,-0.092153236,-0.060487922,0.021711973,0.06362521,0.01801339,-0.058994684,0.018515998,-0.069325216,0.070895426,-0.026151339,0.10883758,-0.018748667,0.021259012,0.0001130805,0.039073575,-0.036727905,0.011566182,-0.052047502,0.044614073,0.07738479,0.15264961,0.048348248,-0.0124201365,-0.012116618,0.0024734968,0.13850635,0.045079883,0.03517801,0.008505378,0.060410015,0.030732278,-0.04176196,0.008707906,0.050348673,0.060333252,-0.12644197,0.012220151,0.04012642,0.062215194,0.08626519,0.091561586,-0.0038918348,-0.026191594,-0.008138182,0.009016613,0.037583,-0.12539329,0.029264905,-0.009560604,0.005521102,0.0074191904,0.045819085,0.0050408673,0.059038945,0.010773169,-0.060158923,0.099495456,0.044893302,0.03427073,-0.0045450586,0.06335894,-0.012962698,0.024718396,-0.010852344,-0.043147657,0.023717476,-0.08401985,-0.0034925402,-0.04593527,-0.015173641,0.03468085,0.060248036,0.010561329,-0.031732257,-0.011895154,-0.10507884,0.008906954,0.097008884,-0.036290314,0.07319206,-0.013923458,-0.025895447,-0.010051095,-0.04833596,0.12470427,-0.043191534,0.009348112,0.08745494,-0.022716613,0.090596475,0.011950402,-0.07145769,-0.019436432,-0.07312267,-0.0014252262,0.07133444,-0.11267084,-0.091419935,-0.020469682,-0.079293355,0.047899447,-0.021979192,0.06002847,0.068852425,-0.020960452,-0.03163815,0.035309233,0.016999979,0.0065488433,-0.01851586,-0.090003744,0.010024357,-0.04499284,0.06329749,-0.04161764,-0.016709168,0.11028329,-0.045959566,-0.014681225,-0.055307,-0.040282447,0.08186651,0.065628454,0.06787337,0.11492406,-0.00562344,-0.010591614,0.03039626,0.0011595312,-0.0013284683,0.0969716,0.07233404,-0.08494942,-0.06432305,-0.025693405,0.09804347,0.038917683,-0.11108588,-0.018207403,0.030770492,0.004811586,0.1401729,0.052034117,0.11842705,-0.0058651753,-0.052553322,0.033669636,0.039114438,0.0009767392,0.066779085,0.0009766306,0.05544695,-0.095068835,-0.085032724,-0.039267752,0.050008412,0.015100436,-0.053148557,-0.14786716,-0.02911906,-0.012093034,0.0038230978,0.099715985,-0.017289348,0.0016342392,-0.049628433,-0.0247863,0.014469241,0.05927832,-0.002376269,-0.06725324,-0.085047096,-0.03934974,0.050339945,-0.016139135,0.027262878,-0.0052498993,-0.1033388,-0.020545214,0.038899153,0.11801935,0.10003029,0.026106393,0.10227558,0.07299418,-0.051037155,-0.04391403,0.1566118,-0.05327532,0.03032313,-0.03347316,0.020289095,-0.030550016,-0.07415251,-0.08273035,0.03540586,0.038040493,-0.00015156224,0.05139259,-0.033588734,0.028419973,-0.066293314,-0.067143485,-0.008531219,0.08679801,0.041880995,0.009607692,0.088782795,0.00051586627,0.06722657,-0.06590822,-0.059054755,-0.018389931,0.010830894,0.042417604,0.055947885,-0.093805686,-0.005948686,0.009519954,0.00033192986,-0.009290976,-0.053609803,-0.07611956,0.10008994,-0.0021787467,-0.025214428,-0.027696721,-0.046816524,-0.0018631117,-0.05723454,0.08166973,0.010771415,-0.13438205,-0.03606121,-0.018373026,0.030538598,-0.02130491,0.1157276,0.08406848,0.013450155,-0.10312769,-0.021264482,-0.032611933,-0.08570317,-0.04792205,-0.07655024,0.006408938,0.007023703,-0.06539006,0.060918726,-0.016129581,-0.025831593,0.04915701,-0.016927317,0.0006004852,-0.06996112,0.0045124125,0.025294915,0.036487773,-0.07468257,0.0015804246,0.006890067,0.06464274,0.044285122,0.07785447,-0.043208744,-0.046328332,-0.008693685,0.0067933826,0.08432005,0.050276887,0.042530406,-0.031666704,-0.010850253,-0.042517148,-0.0041832877,0.041988805,-0.0018868507,0.011391365,0.098585024,-0.042890396,-0.019006664,-0.029850755,0.00033516053,-0.028159566,-0.0065873642,-0.023232052,-0.016502684,0.027361188,0.0092284065,0.025593095,-0.09931535,0.019023817,-0.00079645735,0.0110394275,0.034418304,0.05622007,-0.024249772,0.1006184,-0.02875615,0.04820842,-0.13688633,0.044645548,0.10194358,-0.007885311,0.05740778,0.01908318,-0.03629952,-0.024020134,-0.026912427,-0.118202575,0.00951017,-0.05087,0.065380104,-0.0120369475,0.03275026,-0.11154935,0.085189626,-0.0357849,0.04720508,0.052637473,0.012662575,0.064221084,-0.011851055,-0.06977049,-0.050207462,-0.025761193,0.0016695585,-0.028158644,-0.030372087,0.14709155,0.04057555,-0.04108847,0.08511525,-0.03336884,0.023516297,0.058375537,-0.0019067465,0.035173208,-0.01292331,-0.041648634,-0.0026617246,0.04971022,0.056522336,-0.03494394,-0.037342135,-0.07253558,0.008042118,0.09728494,-0.0733509,0.06697854,0.023763686,-0.014873238,0.101864584,-0.026924318,0.085523605,-0.020553153,0.034786172,0.019581707,0.03562121,-0.071093306,0.061299294,-0.059891287,0.02749698,-0.020946989,-0.059523825,-0.016584946,-0.014794617,0.0818603,0.103704356,0.064293854,0.0018130796,0.07733551,-0.019281918,0.008620208,0.05690876,-0.04727857,0.002648989,-0.11534108,0.14829797,-0.021972626,0.07906993,-0.123474665,-0.008955412,0.094963156,0.03788816,0.009304048,-0.03973935,0.054592274,-0.08734762,-0.06777214,-0.042930067,0.024638114,-0.004541274,0.061850406,0.06929332,0.008356125,0.04394916,-0.03379038,-0.050993506,-0.0920451,0.003191621,-0.15356156,-0.096293025,
1.4457413,-0.47315913,0.085465,0.48935848,-0.22603068,-0.7014278,-0.15899041,-0.053683832,0.6704403,-1.2101226,-0.18996933,-0.22603291,-0.6039635,0.28259006,-0.19037719,0.6736919,-0.099081896,-0.24071886,0.8703284,0.7068308,0.18891451,-0.39367694,-0.3705886,-0.28150105,-0.50839907,1.6386453,0.09563812,0.76660484,0.25613564,-0.21208389,-0.28751326,0.07767772,0.24288782,-0.1784309,0.54733133,-0.15238301,-0.2325586,0.12150035,0.3401503,-0.28602982,0.020392938,-0.11182792,0.45382988,-0.26794383,-0.01628949,-0.76508063,0.0046627,0.008855983,0.23169029,-0.3598039,-0.3824806,0.12781642,0.4855606,0.24555743,-1.1503905,-0.3646552,0.08658538,-0.15785085,-0.28378132,-0.21896484,-0.10656992,-0.03695707,-0.5757964,0.5874023,-0.10622039,-0.09063136,0.03156775,0.32298478,-0.27276662,0.21702397,0.17056735,0.59840775,0.21705775,-0.34856594,-0.43528402,-0.93388546,0.12396666,-0.2797702,-1.6101065,-0.13814653,0.45627668,0.59858924,0.06089328,-0.592279,0.25050113,-0.7919703,0.061179772,0.3220108,0.11078413,0.31962743,0.008935264,0.142414,-0.37130606,-0.5494998,-0.23920293,-0.31608057,-0.08926387,-0.6545638,0.07011436,-1.0757822,0.55399287,-0.49999297,-0.095350415,0.09380815,-0.46709892,0.004950781,0.8033791,-0.50884765,0.21834472,-0.21337666,0.12439319,0.011919811,-0.16948439,0.7268554,-0.06491531,-0.6280645,0.1999036,-0.023558889,-0.54075223,0.16001642,-0.4711926,0.2152214,-0.10185992,0.07905405,0.20978767,-0.11172972,-0.10209232,-0.43054128,0.012673108,-0.10881562,0.1708843,0.2051694,0.31424084,-0.4388528,0.0078445375,0.02379309,-0.344885,0.31957868,-0.19522698,0.0311023,-0.40144593,0.50261784,0.15665628,-0.27648428,0.044374052,-0.19481038,-0.19408047,-0.80962217,0.00656917,0.30453777,0.22088139,-0.49992025,0.025652371,-0.26579446,0.017527562,-0.59283936,-0.21113022,-0.20349032,-0.22012535,0.11613108,0.46053627,1.1164621,-0.36870033,-0.06815559,-0.10900045,-0.19792604,0.41237253,-0.43035457,0.8724085,-0.7216429,0.29874647,0.22859512,-0.13699213,0.19145194,-0.34401003,-0.31273642,0.1791366,-0.41634646,0.2827669,-0.3212814,0.5637468,0.6686163,-0.17483023,-0.5609679,0.5491094,-0.19870225,-0.70893586,0.5778428,0.13282035,-0.27660754,0.049845282,-0.337957,-0.5351093,-0.79786164,-0.1697947,-0.13985701,0.099259384,-0.106634706,-0.552342,0.27907956,-0.21311955,-0.15042505,0.43685967,0.17840514,0.3810062,-0.29301193,-0.11328304,0.14429396,-0.9431141,-0.6131733,0.43803093,0.48263016,0.14785063,-0.13357374,0.48345593,-0.3592135,-0.28067192,-0.11736589,-0.32309213,-0.745464,-0.26698545,1.191241,0.36577642,0.3508856,-0.1851175,-0.88449794,-0.26376885,-0.6395694,-0.27025667,0.20794013,-0.52838343,-0.6133661,0.9976794,0.17495269,0.17453727,-0.028784662,-0.16760649,0.16179036,0.67155343,0.13115363,0.32970867,0.07834782,0.28272966,-0.52214855,-0.06758143,0.8160727,-0.41986963,0.5737076,-0.10939526,-0.10438738,-0.06625679,-0.29374206,0.4618529,0.1245791,0.33977857,-0.90115577,1.0897555,-0.21861519,0.0088039795,0.07608883,0.0006443004,0.20849282,-0.068949655,0.70373154,0.29738513,0.8050838,0.6599841,-1.0385696,1.006733,0.07495179,0.0932463,-0.16070333,-0.47102842,0.12370955,-0.0024150524,0.29777548,-0.1853436,-0.43572918,-0.43731123,0.17825927,0.39660907,-0.030868556,0.49163815,0.64527804,0.0108347,-0.22803737,-0.40428472,-0.5762982,-0.15194465,0.10706912,-0.6075535,-0.0141225485,0.53381854,-0.008190098,0.15733866,-0.23619984,0.32308814,-0.02799188,-0.027085004,-0.059843548,-0.3065982,-0.09787405,0.076750636,-0.3782666,-0.30789453,-1.1881803,1.7380704,0.14935598,-0.03329438,0.33430377,0.19549751,-0.5803049,0.88406503,-0.4114586,-1.2458382,-0.33124906,-0.26234487,0.7975136,0.44245425,-0.25587887,0.07408205,0.09477548,0.0969532,-0.7636421,-0.306237,-0.050017197,0.13169697,-0.036454026,0.049895525,0.68694735,0.19944775,-0.44206873,0.110447824,0.15733689,-0.16784316,0.2508201,-0.064021796,0.43624234,0.3669339,-0.5772755,-0.5085615,0.005463106,-0.6602682,-0.18084212,0.61428726,-0.080672115,-0.455324,-0.5316514,-0.09949516,0.2363387,0.070484675,-0.99026936,0.8656173,-0.25383526,-0.24534482,-0.6531737,-0.3950433,-1.1658278,-0.020176515,-0.46825874,-0.123670325,-0.16309315,-0.20983091,-0.0010800321,-0.13600458,0.062984675,0.21062101,-0.89913315,0.22286516,0.25914088,-0.20413019,0.13218026,0.093975715,-0.06139096,-0.10295768,0.11528851,-0.008723796,0.16596739,0.1085559,-0.45613053,-0.07980927,0.12868822,-0.16246934,-1.2102984,0.29614452,0.4003993,-0.71693045,-0.17255008,-0.09335629,0.29350665,-0.30659035,0.121572755,-0.47329533,0.1457489,-0.13910933,0.40452695,-0.33617535,0.027019683,0.5752848,-0.06085787,-0.3518706,0.39832973,0.123981714,0.18324403,0.5558421,0.8060121,-0.32673612,0.5067064,-0.38878578,-0.8715997,-0.44623014,0.32898086,-0.686304,0.11911948,-0.34438366,1.4222671,0.47978118,-0.163789,-0.5647121,-0.026788685,-0.63898873,0.6160597,-0.3989866,-0.5852654,0.75911665,0.2706517,0.055567104,0.55144495,0.5747551,0.46008518,-0.22755207,0.8582213,0.38473457,-0.07611165,-0.26494107,0.21404395,0.056272212,-0.118007034,-0.14065018,-0.059449986,0.36410317,-0.49652687,-0.6263201,0.6328958,0.08718467,-0.013580052,-0.79680026,-0.61554,-0.45706108,0.5104888,0.07705489,0.14547981,0.6264629,0.27005357,-0.25551137,0.44545412,0.16341242,-0.09790773,0.025412802,-0.08726693,-0.31400248,-0.10821961,0.038578812,0.23612617,0.023387332,0.30402124,-0.26334924,0.36745828,0.08284416,-0.11647072,0.09099771,0.18894856,0.10617001,-0.22398601,-0.0021067571,-0.1902928,-0.2682318,-0.57817394,0.32294556,-0.36323044,-1.0655146,-0.88126355,-0.33972046,0.18505721,0.04104844,-0.08425536,0.2824378,-1.0108608,-0.6314686,-0.6319273,-0.6230185,0.22070749,0.57732415,0.10231385,-0.054392148,-0.56430954,0.07283266,-0.44334042,-0.85181093,0.24553439,-0.2253496,-0.25475615,0.058761265,-0.40871072,0.12436112,-0.11604375,0.58448195,-1.0663867,-0.058360934,0.043591835,0.08507537,-0.071443684,0.0008499005,-0.039490987,-0.021123806,0.030208321,0.04173635,-0.009753803,0.12091248,0.014603198,-0.03696367,-0.031587664,-0.0038337512,0.0036993686,0.048948985,0.012757625,0.04164127,-0.00224831,0.055163737,-0.017601158,-0.015126238,-0.01963218,0.06258611,0.018740423,-0.05848624,0.027629333,-0.027812373,0.008681422,0.055459537,0.013951379,0.008013282,-0.06094176,-0.00230588,-0.07949545,-0.030445946,0.03515536,0.038283646,-0.04086091,-0.027562361,-0.008146124,-0.04089976,0.02541897,0.031605735,-0.022579543,-0.043216683,0.09109749,0.009814941,0.013707117,0.041337024,0.0011105454,0.025520615,0.0349991,0.045058474,0.033658076,-0.06938781,0.09244743,0.017491566,-0.0010644179,-0.006274943,0.036510725,-0.041169927,0.05050698,-0.009222016,-0.0020795693,0.03161783,-0.027453827,-0.041057624,-0.003605732,-0.0057239747,0.00219816,0.04387238,-0.028332893,-0.05044114,0.07475724,-0.022998182,-0.024031546,0.035519965,0.008668221,-0.032671332,0.052143715,-0.004946331,0.040183224,0.0754174,-0.0394642,0.0037858384,-0.012691804,0.06231206,-0.0027354532,0.029050633,-0.039413642,0.06737596,-0.096285604,0.025473163,-0.013291067,0.058988005,-0.06363323,0.0009948354,0.041285407,0.044345208,-0.012747752,0.058303952,-0.07102153,0.06713941,-0.03403452,-0.012185776,0.0031131078,0.012637183,-0.029872991,-0.030095682,-0.03759422,-0.0024387215,0.019473005,-0.00042625764,-0.051761672,-0.070457004,0.016777309,0.014988175,-0.021669477,-0.016999612,0.030634236,-0.0021521104,0.0043534366,0.04926002,-0.057460222,0.051675018,0.08354613,0.035250098,0.0103409225,-0.033950295,-0.010482902,-0.07502435,-0.042258576,-0.051953293,-0.0034551958,0.05817241,-0.0793017,-0.051557202,0.0018689933,0.019207224,-0.026220188,0.0032261778,-0.024094632,0.035237737,0.001823813,-0.05110667,0.06305001,-0.034737725,-0.053171985,0.024563527,-0.057948183,-0.05790431,-0.025727617,0.038303923,0.079512596,0.04139751,-0.01801917,0.010482879,0.046380054,-0.01722651,-0.010230198,-0.022110611,0.001959978,0.013544006,-0.061959706,-0.034701824,-0.02305949,-0.014746049,-0.023844447,-0.04365672,-0.0078018666,0.0057820906,-0.0016889584,-0.051006287,0.019649893,0.0061981874,-0.0051136664,0.0920852,-0.06278722,0.054859407,0.020837476,0.03162715,0.020819614,0.0135899335,-0.0044005252,0.0032065837,0.035950586,-0.05162249,-0.03523929,-0.004532004,-0.05557108,-0.036432493,-0.016071578,0.04602426,-0.063185565,0.01493871,-0.004447545,-0.0015699717,-0.03624727,-0.05140763,-0.056035195,0.010567455,-0.029015709,-0.040666334,-0.024891274,0.054562047,-0.042809617,0.024854427,0.029784698,0.016645253,0.02561282,0.04432927,0.10318543,-0.016695864,-0.06946786,0.0010442992,0.014903234,0.021057677,0.018826123,-0.048637133,0.003087089,0.013683832,-0.06309234,0.015106555,-0.038803827,-0.009165605,0.034127213,0.014513082,-0.039474867,0.030455168,-0.026834825,-0.04163073,0.0020769625,0.03592234,-0.021246927,-0.018441169,-0.004452125,0.0022993267,-0.016548313,0.0670693,-0.03358048,-0.06443747,0.011442345,0.012643024,0.071481206,-0.048726674,-0.009534154,-0.032001667,0.026989166,-0.043597195,-0.027303949,-0.054632492,-0.05939278,0.00074242573,-0.034478437,-0.05092119,0.06489443,-0.0057814396,0.010516468,-0.021779742,-0.06592082,-0.02239987,-0.017685862,0.036901347,-0.0126414625,-0.009200748,-0.068216555,0.016099654,-0.044617537,0.058321264,0.017535752,0.013528138,0.018642835,0.009813092,0.009032778,-0.019515637,0.06960146,0.013038818,-0.003533942,0.008557577,-0.043852784,0.048661944,0.044774998,0.012636025,-0.006614455,-0.072478786,0.021273004,-0.019798882,0.01794871,-0.050802015,0.048308685,-0.072520055,-0.06754755,-0.0046801586,-0.0066605182,-0.0041024466,0.05963941,-0.028619112,-0.061595142,0.014373603,-0.04278913,0.039946936,-0.023164636,0.058340773,2.6671301e-05,-0.008055241,-0.07823328,0.027207637,-0.050788473,0.005041401,-0.0023586045,-0.017494189,-0.02328731,0.0756136,-0.00433876,-0.026864499,0.022195974,0.01887399,-0.056225665,0.013135643,0.008440096,0.005117213,0.0133037865,0.024652753,-0.012114257,-0.008288795,0.029749945,-0.013818872,0.06175133,-0.054916855,-0.039092544,0.0057849814,-0.01561138,0.0039981646,-0.058799807,5.853035e-05,0.032560624,0.044130348,-0.0008207366,-0.045961834,-0.0024773418,0.003508684,-0.02865251,0.0045241117,-0.00068485487,0.029094815,0.049781755,-0.021455433,-0.010941585,-0.05289351,-0.049839143,0.054722168,0.016734546,0.033845812,0.012057714,-0.0026145934,-0.015569587,-0.025906818,0.005344452,0.033870067,-0.05544419,0.041633952,0.0234206,-0.04912567,0.004164236,0.004510684,-0.037112057,-0.061262913,-0.007158469,0.037154816,-0.01299279,0.06692168,-0.063306004,-0.036124475,0.007173298,0.0019305425,-0.004919841,0.032503977,-0.013329291,0.010938762,-0.021588994,-0.09617139,-0.06068204,-0.008184344,0.030530903,0.020625839,-0.00025091186,-0.05231757,-0.0047706896,-0.02800804,0.0010958564,-0.040778983,-0.014709363,-0.036631156,-0.028055903,0.06531983,0.008808115,-0.024975214,0.01856263,-0.0036952952,-0.042004213,0.013747839,0.06834571,-0.010708702,-0.02275118,-0.00882843,0.010240591,-0.030977955,-0.035885703,-0.000500939,0.0017742619,-0.0031753993,0.035227824,-0.05366587,-0.013783902,-0.034789834,-0.034899306,-0.056120142,-0.014546091,0.014558877,-0.05113648,0.013474793,-0.027452035,0.008233967,0.04064011,0.030082606,-0.04933951,0.03916343,-0.07562017,-0.017444631,-0.062664725,-0.026817383,0.0039836224,-0.07515092,0.05101926,-0.0505862,0.043507516,0.017318001,-0.02192377,-0.059004884,0.032127485,-0.018429743,-0.025603829,0.051700506,0.029110929,-0.0037500863,-0.043990254,0.010435514,-0.038648102,-0.06285178,-0.021694455,0.058596164,-0.024047555,-0.075204805,-0.027701668,-0.048080046,-0.04297033,0.081123695,-0.018322159,0.04506223,0.0826777,-0.025683254,-0.012481679,0.019959701,-0.05296791,0.031910177,-0.07840342,0.024833223,0.0463204,-0.043256648,0.049927413,-0.011508764,-0.056757823,-0.019430893,0.00631717,-0.0009586742,0.036268957,0.0071499683,0.05497913,-0.028564526,0.005129564,-0.061991155,0.0623993,0.03522731,0.00437788,-0.040825598,-0.032459058,-0.021594737,0.0009157843,-0.009809052,-0.027614499,-0.013455196,-0.030761657,-0.011402317,-0.007509629,-0.0149732875,-0.063425146,-0.010287761,-0.011433307,-0.013336077,0.03703312,0.09048693,0.015733106,0.05722963,0.0035030455,-0.07423941,-0.076886944,-0.0005043263,0.049776524,-0.0006033469,-0.017148858,0.0062163007,0.080466196,0.00023014178,0.056126345,
-0.052582305,0.12701026,-0.2196649,-0.5699412,0.016468208,-0.24241003,0.19148035,-0.028743185,0.0030904354,-0.56242263,0.3138808,0.020756455,0.41810083,-0.14441377,0.21709841,0.23644865,0.22471294,0.109357245,-0.22696564,-0.36088866,-0.16766296,-0.25333568,0.49442464,-0.3827345,0.23903085,-0.5784578,-0.27626228,-0.7062758,-0.31601012,0.90632284,-0.18037468,-0.32014802,0.018602915,0.29681587,-0.028903937,-0.032079335,-0.07491377,0.105856486,0.045242388,-0.2085083,0.47783622,-0.005100317,0.21278507,0.28744012,-0.3027945,0.10880507,0.05275608,-0.68634874,0.02919206,-0.3858551,-0.019123003,-0.43838754,-0.14523478,-0.39132103,0.15725313,0.58066756,0.12342081,0.36377186,-0.06734404,0.07449577,0.052575205,0.004247242,0.28520077,-0.37981713,0.44662482,0.2926131,0.03760485,-0.53545386,0.2630703,0.06608551,-0.13065499,0.1983544,0.24824205,-0.20788503,-0.13250972,0.40504327,0.6617439,-0.3881291,0.5209361,-0.32403287,-0.44708198,0.27858523,0.35459238,0.20410542,0.23368679,-0.157509,0.43131766,-0.32068583,0.24261546,-0.14348643,0.4632678,0.35188532,0.37803125,-0.14466685,-0.32257572,-0.16189997,-0.43096024,-0.054362047,-0.056139074,-0.3843059,-0.4181537,0.23664558,-0.27212927,0.015746761,0.06426547,-0.0063592754,0.18191826,-0.16230813,-0.50062364,-0.059163343,0.04079567,-0.002471724,0.24750471,-0.35744944,-0.035250325,-0.08315454,-0.14153956,-0.012451478,0.016617434,0.111067355,0.23649561,0.12921736,-0.015107288,0.42937052,-0.16542031,0.13271742,-0.23394635,-0.41291288,0.5280735,-0.028562479,0.041943643,0.17356443,0.16505481,0.012091588,0.10680992,0.041393764,-0.030089488,0.17339145,0.19967028,-0.2693772,-0.16951245,-0.02416543,-0.11809589,0.26354924,-0.5338912,0.19165578,0.45993456,0.50244147,0.000784032,-0.033106066,-0.14487885,0.2605827,0.017761532,-0.386822,0.057930507,0.074311584,0.11121618,-0.48821315,0.75879437,-0.58426577,0.16721515,-0.39938655,-0.8584513,0.0013699755,-0.02034323,-0.042124994,0.40159258,0.24318941,-0.69235367,0.09748077,0.025546955,0.07536254,0.11308887,0.0733911,0.16962153,0.014814732,-0.009155256,-0.43501142,0.17681542,0.58568424,0.3819055,-0.63782394,-0.31396088,-0.20043437,0.36465478,-0.07622966,-0.29234698,0.21046236,-0.20538136,0.31360587,-0.06812299,0.20518398,0.343622,-0.12241217,-0.26633963,0.08990891,0.26838467,-0.08890598,0.34683532,-0.29499376,-0.034083698,0.13512842,-0.13361351,0.16316007,0.024183638,0.06798079,-0.10355555,0.025608324,0.4454516,-0.58801097,0.0046614264,0.059664562,0.14634232,-0.11982337,-0.10430084,0.23693861,0.33007994,-0.035053086,0.32160565,-0.21761678,-0.28836805,0.08917677,-0.35841632,0.0053950604,-0.38780463,0.23227476,0.19898354,0.19407514,0.052447755,-0.60965014,0.16138147,-0.24861763,-0.22825846,-0.030775655,-0.14150178,-0.07491196,0.041398976,0.15979291,-0.255312,-0.44742635,0.13486527,-0.454745,-0.48186278,-0.73409396,0.105867535,-0.46308923,0.28425407,0.27296057,-0.26665625,-0.025292689,0.03554066,0.032273743,0.34321997,-0.022870732,0.020425448,-0.07622609,-0.7406653,0.19752583,0.036979537,0.21261938,0.1624266,-0.06897557,0.08048518,-0.2705068,0.37277684,-0.23921634,0.44768104,0.16872114,-0.29953188,-0.035282355,-0.050520506,0.13091254,-0.00535629,-0.13071126,-0.00062269537,-0.21779335,0.16185176,0.11751837,0.0004922842,-0.08911775,0.17579357,0.057909954,-0.1736973,-0.37741774,-0.007771191,-0.120450884,0.26696673,-0.021332381,0.07419574,-0.037460506,-0.19813679,-0.0019177299,-0.46871164,0.0026004685,-0.105011106,0.6708247,0.050310705,0.009419079,-0.0784249,-0.5599373,-0.07087954,-0.00596716,-0.1801387,-0.008921915,-0.18280998,0.06376387,-0.30297017,0.8956581,-0.37661067,-0.15265206,-0.0436649,-0.16551323,-0.12748185,-0.5482105,-0.7877737,0.32543027,-0.18579453,-0.08613307,-0.27561662,1.0907298,0.021426087,-0.29019472,0.05832973,-0.4674261,0.08296523,0.033958465,-0.111312725,-0.016847227,-0.12926437,-0.2840995,-0.5802114,0.037034452,-0.10904704,0.07616609,-0.15319653,-0.31684092,0.1017625,0.24627009,-0.5125993,0.16355371,0.07771229,-0.10589482,0.23430242,-0.1086275,-0.39158404,-0.13577178,0.26887682,-0.14233042,0.22830908,0.06726695,0.30890593,0.064864494,-0.52806765,0.1349102,0.19530037,-0.26749068,-0.11205927,-0.13313371,-0.12661013,-0.0073319124,0.13822618,-0.22995152,0.061501943,0.26766944,0.049238976,-0.18200953,-0.07521042,-0.27846014,0.20758261,0.10803006,0.15773568,0.04998221,0.25157017,0.06257216,-0.09798391,-0.121492185,0.41093382,-0.29655343,0.023833048,0.03431874,-0.024771567,-0.11623708,-0.0970139,0.16280435,0.018161725,-0.27967742,0.045542732,0.63266397,0.07457115,0.004296841,-0.12405626,-0.54351,0.02200382,-0.012734522,0.040693067,-0.3871246,-0.0051886984,-0.05286598,0.024362547,-0.03960131,0.40049037,-0.21848498,0.50783134,-0.1580444,0.099843614,-0.23271963,0.03830669,-0.32596648,0.07023149,0.36344215,0.64196056,0.6612335,-0.0111943595,-0.2797772,0.11160221,-0.2235253,0.07120315,-0.1298807,0.57377934,0.07295939,0.5063604,0.24509427,-0.70009357,0.3569664,-0.5155343,0.35014483,-0.12603061,-0.4523981,-0.790645,-0.20816015,-0.06533937,-0.6686852,0.22733353,-0.04253446,-0.28375828,-0.2037994,-0.25637648,-0.3480746,0.152538,0.054583684,0.016453639,-0.2438103,0.045133974,0.03708582,0.10080302,7.2385534e-05,0.15293145,-0.25727123,-0.21816099,0.02011924,0.015803209,0.19585794,-0.011216777,-0.18813159,0.15779993,0.5102134,-0.6322485,0.059388876,0.17466241,0.3893356,0.0732019,-0.0060013556,0.45942596,-0.0009369255,0.047445282,-0.13863043,0.1290389,-0.22609769,0.16723628,0.1514688,-0.44686684,-0.23475686,0.013430893,0.044427298,-0.004570198,-0.23010159,0.043321207,-0.17024137,-0.16437313,0.043716665,-0.48121914,-0.19819996,-0.054591395,-0.017526245,-0.65799,0.10518937,0.0273505,0.35833827,-0.021760361,0.15303797,0.2209254,-0.6923387,0.041171767,-0.23384203,-0.22193997,0.06704938,-0.09529493,-0.7289624,0.14723468,0.01587232,0.27284595,0.24219348,0.11331729,0.15412045,-0.47649506,-0.33613744,0.24194343,-0.64378196,0.3901894,-0.053124435,-0.75641805,0.3239104,-0.19702873,-0.14690559,0.12619467,-0.009483633,-0.09514456,-0.005344261,-0.02315931,0.15954043,-0.12451385,0.068421386,-0.11218482,-0.13828486,-0.024956843,-0.003200617,-0.111445114,-0.06513172,-0.013211197,-0.10263426,-0.04512195,-0.02247366,-0.1351117,-0.14461079,0.06674528,0.12060049,0.12276057,-0.15920272,-0.0959653,-0.022941776,0.17535624,0.025491899,-0.0020501255,0.022891274,0.0986167,-0.108388506,-0.06898209,-0.03551866,-0.006330589,-0.06796847,0.048007496,-0.015240971,-0.0136725,-0.06567633,0.06578579,-0.10771635,0.028343061,0.06515587,-0.041095972,0.019886687,0.012812322,0.04167377,-0.06904691,0.12036087,0.108652994,-0.02975216,0.065930754,-0.10726351,0.037036985,-0.005986227,0.04720393,-0.09248188,0.146985,0.19604841,-0.079246126,0.029392278,0.12809175,-0.18022458,-0.023615727,0.13803767,-0.01573522,-0.009061357,0.0013491776,-0.0019240245,-0.13209501,-0.0043416843,-0.045504738,-0.046648774,-0.097899355,-0.03312007,0.059655946,-0.06689111,-0.16244379,0.05142308,0.09363309,-0.037391923,-0.06573491,-0.08669343,0.011401023,0.08877069,-0.048761457,0.030739222,-0.017373387,0.021521522,-0.043568656,-0.017123269,-0.0022856132,-0.06975607,-0.04993897,0.15370323,-0.063752055,0.103471756,-0.08111294,0.014193001,-0.065200105,-0.016440565,0.045748994,0.06884611,0.044236396,0.1786384,0.12661411,0.06055382,-0.060971767,0.020463634,0.017421259,-0.07923185,-0.10599796,0.047779605,-0.08975998,-0.0052752136,-0.004436437,-0.0056514773,-0.020001246,0.12333993,-0.123652175,-0.03755222,0.037294123,0.122541286,0.046336066,-0.11131547,-0.00434877,0.055047642,0.026173653,0.08366252,-0.09606072,0.011146976,-0.0033059483,-0.10916754,-0.057330236,0.011324781,-0.034667935,0.10703011,-0.07149734,-0.089932024,-0.06161956,0.02402053,0.023862865,0.08845339,-0.09934186,0.04931691,0.0077528106,0.005990557,-0.05429791,-0.020649603,-0.052067664,0.032176897,0.1673432,-0.062200997,0.09248863,-0.024321403,0.058276072,-0.111196846,-0.062274452,0.0324924,0.0025244146,0.12575677,-0.12302985,0.027997334,-0.018280853,0.04747324,-0.07327762,0.09027793,0.0138703305,0.035202324,0.028967977,-0.07249459,0.0203883,0.07149432,-0.061393384,-0.03908812,0.001974394,-0.04546144,-0.08639529,0.04310558,0.07468049,0.1747318,0.013361021,-0.14281678,0.0008950405,0.09075847,0.076242454,0.011989974,-0.13348897,0.06852586,-0.16814794,0.10846908,-0.108714186,-0.00932637,0.07306943,0.035237294,0.009356941,0.078888565,0.07694945,0.20518062,-0.10854341,0.011322538,0.04768916,0.04425751,-0.06818698,0.024753878,-0.043011636,-0.05630306,-0.037695583,0.010849977,0.068971135,-0.0011875246,0.024433713,-0.029694293,0.09122394,0.043197166,0.17757353,0.055773932,0.08585164,0.003923718,0.006619518,0.034079134,-0.1347232,0.077639475,-0.07144274,0.08041508,0.13041529,-2.2455966e-05,-0.026007943,-0.05890946,-0.107235335,0.015748769,-0.06379087,-0.049899425,-0.04193406,0.027330497,-0.045738388,-0.18174364,0.08078303,0.037252948,0.046913866,-0.078372456,-0.059526082,0.13691808,0.02061655,-0.11321465,0.14186229,-0.045747865,-0.035328858,-0.104419045,-0.0031548815,0.04895788,-0.11762865,-0.071785,0.07567641,0.006465001,0.03969671,-0.13521379,0.17827797,0.0752313,-0.06893119,0.0542978,-0.09833497,0.035793576,-0.045370404,-0.05310488,0.085029066,-0.057571836,-0.086738594,-0.048942618,-0.009620937,-0.03525044,-0.0030708371,0.011326546,-0.020249726,-0.022525966,0.011174888,0.019593999,0.0058507365,-0.14342086,0.08467986,-0.08938501,0.02111652,0.19395809,0.09743806,-0.058141097,-0.00086586043,0.08065152,-0.05927373,-0.19158678,-0.08010417,-0.0024904786,0.11628017,-0.08983357,0.11082677,0.09288073,0.00014487415,0.08888715,-0.08717921,0.08804921,0.081815526,0.026508171,0.032612547,0.028533844,-0.12265262,-0.11186205,-0.05247713,0.09151608,-0.014553264,0.019102076,0.080089666,-0.12229203,-0.003664158,-0.008573095,-0.07167669,-0.10283094,0.07104458,0.011373118,-0.08849477,-0.023816194,0.023835927,-0.06663873,0.12151967,-0.07182605,0.087960385,0.04972543,-0.04960127,0.11045657,0.13939634,0.0065004425,-0.07700834,-0.025932154,-0.076350905,0.05779493,-0.009221409,0.046558097,-0.16802455,0.09648882,0.12025156,0.089579344,-0.029791016,-0.098875396,0.10262325,-0.12536415,0.06662348,-0.017024077,-0.012604472,-0.022839557,-0.09378176,0.10403882,0.06310926,-0.06611455,0.07034288,0.071862586,0.00564368,-0.015349967,-0.013240387,0.07488831,-0.036995597,-0.018262539,-0.020632513,0.06408417,0.026526038,0.0927387,-0.09729457,0.09964387,-0.0637805,0.04698699,-0.03380011,-0.12645207,-0.03202996,0.058642983,0.090567164,0.058271974,-0.026706567,-0.051237494,0.04704754,0.031543713,0.0756172,0.0007439055,-0.05447563,0.067805454,0.05180906,-0.06658001,0.003693529,-0.038197845,0.085799985,-0.00063322176,0.03889361,0.017887974,-0.038239736,0.048673593,0.15000224,-0.045541678,-0.102316126,0.090115845,-0.11337569,-0.034685396,-0.07086934,0.023724113,0.058537405,-0.07432426,-0.08380643,-0.047985844,0.0015482946,-0.029195622,-0.08667492,0.12538521,0.06816895,-0.10796947,0.050589092,-0.11116428,0.09191397,-0.014764764,0.03477272,0.10883086,0.09657147,0.0022665085,0.07441765,-0.11607132,0.02937305,0.042917036,0.058620147,-0.09100974,0.061943494,0.04916576,0.015257186,0.015526742,0.069224164,-0.05591537,0.09887496,-0.010278753,0.026453167,-0.03996333,0.08778654,0.025803342,-0.09857383,-0.0813287,-0.068241805,-0.045089696,0.1332894,0.06679162,-0.080356985,-0.004589811,-0.037437327,-0.03367878,-0.061241116,-0.07327638,0.011516864,-0.0028361077,-0.0030301402,0.00965311,-0.029403474,-0.11897635,-0.09300355,-0.023988226,-0.08466282,0.031563483,-0.09204121,-0.0048826328,0.0005551137,0.017999496,-0.053770136,-0.06808085,0.026506096,-0.017162044,0.052942973,0.050045162,0.0011086563,-0.046305332,0.10823388,-0.020735864,0.08021819,-0.011048616,-0.07489189,-0.025658015,0.022953477,-0.021446329,-0.09001842,-0.038971018,0.07110309,-0.019438092,0.012038361,0.0845632,0.15943556,-0.1324703,0.014867786,-0.1369335,0.118731454,0.001665914,-0.11074959,-0.014901164,0.006912274,0.05926582,1.9090028e-05,0.1234443,-0.028409123,0.0068436144,-0.006835627,-0.063465066,0.06671199,0.11425201,-0.038150083,-0.0880545,-0.031603325,0.06694855,0.096160695,-0.05813153,0.09954448,-0.062213656