[ 0.0913379  -0.01007192  0.05734254  0.01103887 -0.11264956  0.03580588
  0.02044471  0.20627789  0.1201373  -0.30593565  0.18920802  0.0498978
  0.05004708]
[ 0.07918672  0.03493807  0.0442515  -0.14636557  0.13745868  0.00882519
 -0.00568302  0.13375701  0.03902159 -0.18184775  0.10370714  0.03681979
 -0.04401073]
[-0.02396066  0.01465863 -0.01043615 -0.02552097  0.0490404  -0.02223383
 -0.01668596 -0.14022098 -0.07263388  0.22088732 -0.12807806 -0.00817938
  0.02457541]
[ 0.03909678  0.0274499   0.01748706  0.04191776  0.04757278 -0.01470819
 -0.01162063 -0.08690448 -0.03765423 -0.06182801 -0.05992861  0.02019427
 -0.05096248]
[-0.13896869 -0.00657831  0.00363325  0.08544891  0.25757188 -0.01150451
  0.0052535  -0.03464542 -0.01006    -0.1633656   0.01537153  0.07751408
 -0.03985039]
[-0.09528121 -0.02477882 -0.00562061  0.00786125  0.06383564  0.00319221
  0.01989407  0.03395862  0.01669814  0.02350565  0.03329986  0.0449658
 -0.0081523 ]
[-0.1604957  -0.03357679 -0.03095673  0.29607275  0.04814716 -0.00653025
  0.02156311 -0.13424018 -0.01274786 -0.15530486 -0.04411282  0.01715806
  0.06125057]
[-0.08682498 -0.05082358 -0.06778271  0.09115943 -0.20337385  0.00522506
  0.01976585 -0.0371187  -0.0100492   0.23368526 -0.04993713 -0.09309576
  0.01542218]
[ 0.12642786  0.07208708  0.07598636 -0.14457802  0.21638376 -0.01484631
 -0.0336009  -0.00138479 -0.0216529  -0.16268796  0.0002821   0.08148544
 -0.05948385]
[-0.21138081 -0.06924397 -0.05728208 -0.00584048  0.05021249  0.01045703
  0.02666252  0.06284358  0.03210609  0.18269774  0.05137668  0.02323718
  0.08358821]
[ 0.05197713  0.01260181  0.03180558 -0.02668124  0.01246759  0.01248614
  0.00439551  0.09094061  0.04228845 -0.17153318  0.07638738  0.00130929
 -0.01252026]
[-0.02449395  0.0048693   0.04502061 -0.0040459   0.13317741  0.00956701
  0.00761005  0.07876509  0.04710424 -0.20018479  0.08891039  0.06092746
  0.04037684]
[-0.11223263 -0.04410734 -0.02372872  0.13733333 -0.0360197   0.01292864
  0.02480269  0.02589525  0.03659301 -0.07298934  0.04735475 -0.02459648
  0.06239881]
[ 0.07357837 -0.01715951 -0.01535565  0.04962245 -0.2535474   0.02474303
  0.02074878  0.07791638  0.0534172  -0.03684084  0.05364614 -0.07223724
  0.0540002 ]
[-0.15976793 -0.03943581 -0.00928424  0.11666547  0.12545022  0.01239335
  0.02712004  0.0565563   0.04857563 -0.18222116  0.09050924  0.03302903
  0.06594956]
[ 0.00890762 -0.0283433  -0.00610526 -0.00078098 -0.13364552  0.02912787
  0.03379421  0.15992503  0.0732272  -0.1032045   0.12169018 -0.04147584
 -0.01400083]
[-0.09030291  0.01237375  0.01098197  0.10347097  0.19248469 -0.02358258
 -0.00666325 -0.14146142 -0.0588222  -0.07513715 -0.08299669  0.03061933
 -0.03557585]
[ 0.05648507  0.0053044   0.03577434 -0.07016125 -0.01722711  0.01805696
  0.01393513  0.13876441  0.05217789 -0.14685075  0.1028397  -0.0128441
 -0.03946639]
[ 0.00893125  0.00842874  0.01894848 -0.04881338  0.06700862 -0.00045439
 -0.00156565  0.0311109   0.00438863 -0.05379323  0.02458182  0.02191333
 -0.03014725]
[ 0.0805198  -0.00852179 -0.00659284 -0.02714938 -0.17641896  0.02122926
  0.01149719  0.10550078  0.05220103 -0.02535611  0.07129603 -0.02676688
  0.01879383]
[-0.005829    0.01309448  0.02562598  0.1246798   0.09622903 -0.00201661
  0.00401706 -0.02292522  0.00831083 -0.27243522  0.02603144  0.03489031
 -0.01892253]
[ 0.13626577  0.05087897  0.05400186 -0.01333873  0.06443524 -0.00393194
 -0.02507858  0.01715847  0.00236141 -0.2554731   0.02673307  0.00420421
 -0.07326625]
[ 0.11117236  0.02113088  0.00715744 -0.13771737 -0.09543015 -0.0007501
 -0.01060105  0.01959148 -0.01498159  0.14561261 -0.02382395 -0.02390858
 -0.03334802]
[-0.05240209 -0.01662278 -0.04408612  0.07943185 -0.07023907 -0.00968181
 -0.00315365 -0.10522266 -0.04265036  0.15639454 -0.08947259 -0.06379971
  0.02623677]
[-0.00391759 -0.02448577 -0.04416693 -0.0289989  -0.15171492  0.00618227
  0.00371777  0.00235483  0.00404579  0.21344957 -0.01968347 -0.01746932
  0.06217618]
[ 0.06621026  0.02606487  0.06241045 -0.00672459  0.07256053  0.00820761
  0.01058014  0.07724033  0.04011743 -0.259674    0.08128871  0.06290594
 -0.04589999]
[-0.18995558 -0.04686382 -0.00337491  0.14957288  0.12510487  0.00971478
  0.02920798  0.04074267  0.04446666 -0.16918671  0.07670236  0.01999419
  0.03840666]
[ 0.00465264  0.01177514  0.0067468   0.02041906  0.05389613 -0.00881482
 -0.01379831 -0.03496777 -0.02026536 -0.04648178 -0.02260374 -0.01507092
 -0.04262869]
[ 0.02956193  0.02458441 -0.03869774  0.01689077 -0.02895403 -0.0316369
 -0.03408044 -0.20234634 -0.10569303  0.24993959 -0.18465677 -0.05731664
 -0.04192703]
[-0.02371888  0.00127205  0.01117832 -0.1431478   0.08817351 -0.0014227
  0.00260757  0.05445477 -0.00066147  0.11332472  0.01793026  0.03149268
 -0.03920113]
[-0.12547314 -0.04654386 -0.02540318  0.02089128  0.01014966  0.01497425
  0.02806935  0.07722651  0.04230294  0.01980743  0.07018584  0.00776133
  0.05572567]
[ 0.03500203 -0.01451777  0.00082983 -0.16822028 -0.07180297  0.01740374
  0.00097215  0.13909224  0.04640433  0.12507953  0.08040282  0.00771713
  0.04784077]
[ 0.09807442  0.04915928 -0.00922358 -0.08582397  0.02982524 -0.02597681
 -0.03407568 -0.13266897 -0.08151759  0.16212542 -0.12973076  0.01964499
 -0.05356652]
[-0.17623228 -0.05033163 -0.00332288  0.12305445  0.10631321  0.0157023
  0.03843721  0.08162999  0.0651674  -0.16413735  0.10983868  0.06492386
  0.04628533]
[ 0.08232397  0.03696965  0.03635059  0.06271883  0.02149978 -0.00805622
 -0.00377646 -0.0657777  -0.01982352 -0.17021702 -0.03339846  0.02557174
 -0.0351621 ]
[ 0.05293635  0.04858118  0.03652153 -0.14030029  0.21977021 -0.02080397
 -0.03148747 -0.03500292 -0.04194495 -0.01027758 -0.03075442  0.07806551
 -0.05532939]
[ 0.01955823  0.01759745  0.01384538 -0.0616582   0.05097156 -0.00307673
 -0.00394267 -0.00039141 -0.01058547  0.02225365 -0.01199038 -0.00728383
 -0.00270798]
[-0.08914576 -0.03822353 -0.00172009 -0.00239096  0.03065967  0.01730514
  0.01856056  0.12932806  0.06021854 -0.06895802  0.11087574  0.00640944
  0.00222377]
[-0.08178174 -0.00903663 -0.02172556 -0.08200069  0.11420584 -0.00509124
 -0.00673164  0.00219783 -0.01205352  0.13815533 -0.00951946  0.02335596
  0.03033442]
[-0.09398817  0.00390887  0.01538652  0.07137252  0.16532423 -0.01531879
  0.00018901 -0.09249876 -0.03086181 -0.03386069 -0.05108989  0.04860695
  0.00514368]
[-0.12253241 -0.04404905 -0.00644488  0.11304232 -0.01604199  0.01190861
  0.03272142  0.02395998  0.038297   -0.0390232   0.04318419  0.02818233
  0.06436843]
[ 0.04456631  0.01065557  0.02670274 -0.07612632  0.02430244  0.0079079
  0.00107214  0.08367285  0.02812622 -0.08263697  0.0600031   0.01439944
 -0.03147268]
[-0.08313265 -0.02310044 -0.0152974  -0.08885498  0.04861582  0.0015503
  0.00670523  0.04209876  0.00097096  0.16636889  0.0135158  -0.00081793
  0.00991601]
[ 0.00308493  0.03339731  0.04876737  0.16436167  0.14970747 -0.02021028
 -0.01830936 -0.12972479 -0.03658022 -0.26681527 -0.05717242  0.02637048
 -0.04294183]
[-0.06797408 -0.00718163 -0.00484868  0.0228694   0.08651519 -0.01013478
 -0.0120571  -0.05263912 -0.02110128  0.04929695 -0.03183676  0.01911983
  0.02636537]
[ 0.03817779 -0.01773935 -0.0232409   0.05847825 -0.22139971  0.01214236
  0.01610744  0.00775106  0.01732964  0.07014965 -0.00664744 -0.05366933
  0.02851379]
[ 0.01342096  0.02773883  0.02490227  0.06446178  0.11312912 -0.01862269
 -0.01785085 -0.10527459 -0.0431     -0.11677067 -0.05952004  0.03607783
 -0.03878135]
[-0.05709538 -0.0112355   0.00786773  0.00823892  0.05622941 -0.00685268
 -0.0009962  -0.01565924 -0.00970735  0.04246504 -0.011636    0.02323876
 -0.03704542]
[ 9.69586298e-02  2.05315556e-02  1.52577553e-02  5.84896654e-02
 -1.21881478e-01 -1.54286111e-03  1.13814458e-04 -5.57294600e-02
 -1.13975145e-02 -3.38038392e-02 -4.33150083e-02 -2.32001930e-03
 -2.61407509e-03]
[ 0.02338425  0.02575911  0.01029311  0.06776802  0.03884733 -0.02291875
 -0.02599962 -0.1548912  -0.06213067  0.01497915 -0.11397842  0.00416947
 -0.00818473]
[-0.09298019  0.00362108  0.02711982  0.09017774  0.20307928 -0.01487002
  0.00183787 -0.06716923 -0.02106391 -0.13731721 -0.01836149  0.06393509
 -0.03903336]
[-0.08648995 -0.04938787 -0.04817977  0.11555208 -0.1624714   0.00448445
  0.01403218 -0.04363471 -0.00166649  0.15173738 -0.03462132 -0.05314047
  0.05737335]
[ 0.08737911  0.01818059 -0.00673465 -0.16208138 -0.07362349 -0.00495931
 -0.02601636 -0.00201191 -0.02775234  0.23045695 -0.0484724  -0.04306126
  0.00702117]
[-0.01573542 -0.0354547  -0.02960246  0.23872551 -0.2231917   0.01907561
  0.03410462 -0.00193235  0.04424262 -0.16073611  0.02923009 -0.05173274
  0.04167954]
[ 0.03572236 -0.00254545 -0.00756405  0.06043779 -0.13335645 -0.00306181
  0.00337251 -0.05753776 -0.01930986  0.07112503 -0.05272985 -0.03706626
 -0.01297595]
[ 0.16161188  0.0352712   0.0430302  -0.04080068 -0.08279403  0.01252134
  0.00220497  0.07803842  0.03397845 -0.19537424  0.05973311 -0.00499028
 -0.04006306]
[-0.00258916 -0.0031573  -0.00664279 -0.00622396 -0.02975193 -0.00170115
  0.00734897 -0.00373222 -0.0103251   0.06469728 -0.01406146 -0.01280191
 -0.04731211]
[-9.4501145e-02 -1.2715862e-02  9.3715957e-05  7.1645781e-02
  9.7058743e-02 -7.4417102e-03 -5.4332218e-03 -5.6571152e-02
 -1.8560482e-02 -3.6213670e-02 -2.6076246e-02 -2.3686782e-02
  3.9852753e-02]
[ 0.0767471   0.00624552  0.01369152 -0.08271582 -0.09832335  0.00204162
 -0.00810994  0.03056039  0.00212657  0.11127987 -0.00191358 -0.00612682
 -0.01849966]
[-0.09914304 -0.0169344   0.00233097  0.11789465  0.10860724  0.00427952
  0.01651856  0.00558064  0.02585485 -0.1773486   0.04669521  0.04044577
  0.03946425]
[-0.10210142 -0.03379447 -0.03717219  0.02045289 -0.0670967  -0.00300592
  0.00889397 -0.05610895 -0.02438791  0.2445178  -0.06644197 -0.05659264
  0.04462522]
[-0.0567098  -0.0281128  -0.065429    0.03076893 -0.12618591 -0.00937264
 -0.0084906  -0.10529661 -0.04717562  0.304334   -0.10591244 -0.06569999
  0.05868863]
[ 0.06531782  0.04491051  0.02885632  0.04302946  0.10852659 -0.01538578
 -0.01644615 -0.08642618 -0.03428091 -0.17078088 -0.04520787  0.0430498
 -0.0423281 ]
[-2.1947244e-02  9.8204500e-06 -5.1145367e-03 -4.7712043e-02
  4.3502823e-02 -2.3839930e-03 -6.1254390e-04 -3.9181169e-03
 -5.1450580e-03  8.5442893e-02 -8.3959103e-03  2.2923272e-02
  3.4071282e-02]
[-0.08036976 -0.02696318 -0.05101709 -0.06811884 -0.01499787 -0.00161571
 -0.00433065 -0.00520666 -0.01584926  0.25650516 -0.03008966 -0.03437096
  0.0438248 ]
[-0.07432505 -0.01810826  0.04506623 -0.00743582  0.1736028   0.01418639
  0.00973046  0.13922049  0.07362819 -0.2378506   0.14815877  0.08992322
  0.02849992]
[ 0.07863677  0.01384323  0.0085511  -0.01592608 -0.06193708  0.00316391
 -0.00977517  0.01307852  0.00618469 -0.04149624  0.00767044 -0.01186462
  0.00830135]
[-0.00344795 -0.01346533 -0.02799052  0.03039006 -0.13084078 -0.00564149
 -0.00681826 -0.08207714 -0.02932869  0.20085447 -0.07926203 -0.0266197
  0.05165134]
[-0.12072604 -0.03333286 -0.00152865  0.1166942   0.05665995 -0.00076005
  0.00096493 -0.02485338  0.01133705 -0.04256249  0.00970779 -0.00169771
  0.06758141]
[ 0.06139487  0.0002758   0.00367731 -0.04890567 -0.09651858  0.01129877
  0.01646702  0.06873353  0.02589795  0.00390731  0.04147473  0.01365636
 -0.02880571]
[-0.01409179 -0.00013467  0.02087142 -0.11566653  0.06066795  0.00312281
  0.00793161  0.07115208  0.01145995  0.06724889  0.03670939  0.02286568
 -0.03555123]
[ 0.06405552  0.0222088   0.011061    0.15413749 -0.07070668 -0.0121075
 -0.01420509 -0.13793498 -0.03761081 -0.10987355 -0.08626983 -0.0222858
  0.00755246]
[ 0.0506639   0.01539841  0.03461423 -0.09364241  0.08475487  0.01051506
 -0.00032066  0.12955292  0.0421251  -0.17556249  0.10457653  0.02134931
 -0.0547795 ]
[-0.07573409 -0.02577291 -0.00048452 -0.02816828  0.03475758  0.010169
  0.01036179  0.07082891  0.03716292  0.04651054  0.05773506  0.02737176
  0.06225121]
[-0.0060379   0.01466434  0.02838236  0.07578731  0.07741028 -0.0104155
 -0.00899233 -0.06571221 -0.01923648 -0.0990978  -0.03051398  0.00604544
 -0.00251767]
[ 0.14723544  0.04409841  0.0152734  -0.01880208 -0.05642135 -0.00151975
 -0.01200408 -0.01397096 -0.01355734 -0.11340144 -0.01777828 -0.03029415
 -0.05090902]
[-0.03325729 -0.00454375  0.03444098 -0.08309165  0.13212931  0.00949564
 -0.00346385  0.11153778  0.04794288 -0.08970849  0.09749318  0.05108832
  0.04168941]
[ 0.05257504  0.03865598  0.03020444  0.08444117  0.05477994 -0.0166714
 -0.00586906 -0.11453383 -0.04449828 -0.12841369 -0.07568356  0.0127354
 -0.06558461]
[-0.06697661 -0.022188   -0.02838005  0.0021369  -0.01898516  0.00359474
  0.00715536  0.00086018  0.00260143  0.10707335 -0.00775478 -0.0362914
  0.05712879]
[-0.16722263 -0.0382063  -0.00308906  0.09247447  0.1628963  -0.00088126
  0.00894193  0.0232293   0.0192534  -0.10779998  0.05408921  0.03182841
 -0.01253325]
[-0.1064253  -0.00513533  0.0229621   0.15291205  0.20065564 -0.00181272
  0.01630888 -0.0020212   0.02031272 -0.31059867  0.05324371  0.06226859
 -0.04421032]
[ 0.00474764  0.00627965 -0.01682723 -0.07499857  0.01600681 -0.00158014
  0.00085437 -0.00052021 -0.00754769  0.12599015 -0.0153014   0.02932801
  0.02745256]
[-0.10750025 -0.02404813 -0.03115891  0.02774768  0.04353419 -0.01206949
 -0.00498488 -0.06893866 -0.03622523  0.15887928 -0.06022847 -0.02773169
  0.00063542]
[-0.0154081   0.00604182  0.02198884 -0.03725609  0.10184462 -0.00460333
 -0.00596233  0.01302416 -0.00126145 -0.03235779  0.01490987  0.02986426
 -0.02028906]
[-0.07760718 -0.01628595 -0.00358108  0.1438468   0.06591507 -0.00127195
  0.00696313 -0.03295173  0.00833911 -0.1544171   0.01613427  0.02414069
  0.02321509]
[-0.10364221 -0.03916153  0.01432986  0.03692661  0.0396135   0.02000903
  0.03234259  0.11293271  0.07039665 -0.10088261  0.11422577  0.0551584
  0.06811706]
[-0.00527036 -0.01794073 -0.00862013  0.08177508 -0.10708167  0.00690885
  0.00929389 -0.00294493  0.01597296 -0.01805788  0.00476091 -0.02332523
  0.02983178]
[-0.12538372 -0.03100122 -0.02577215 -0.06066127  0.08501268 -0.00773072
  0.00191193 -0.0038408  -0.01959431  0.20481959 -0.01784069  0.01831877
 -0.01810214]
[ 0.0089603  -0.02094793 -0.01159462  0.16666304 -0.13716881  0.01195127
  0.0127589   0.00211954  0.0360272  -0.15634955  0.0340608  -0.00589278
  0.0396087 ]
[ 0.07967217 -0.01228644  0.01026036 -0.20002107 -0.14817758  0.02210551
  0.01003025  0.17588758  0.05553752  0.14414848  0.09150816 -0.00471796
 -0.01338606]
[-0.09586155 -0.0354075  -0.00583466  0.08207342 -0.0025914   0.0087922
  0.01672541  0.02189514  0.02980878 -0.03758587  0.03736507 -0.00142207
  0.06597496]
[ 0.03604754 -0.0013575   0.00721042 -0.02832191 -0.08557611  0.00707062
  0.00443718  0.02704791  0.01177788  0.03585416  0.00814517 -0.02144023
  0.0168804 ]
[-0.20530419 -0.05019714 -0.02714089  0.15170193  0.12910746  0.00360189
  0.02036182 -0.00173719  0.02601803 -0.09240551  0.04303567  0.02340916
  0.06697538]
[-0.03518222  0.00353903  0.01070175 -0.15133071  0.13654636  0.00331496
  0.00188121  0.08311658  0.01599041  0.05905202  0.05062961  0.04816196
  0.00162229]
[ 0.04249823  0.0054927  -0.01115194  0.00563444 -0.06486287  0.00557325
  0.00686761  0.00154073  0.00587168 -0.02066339  0.00274487 -0.00056143
  0.03177415]
[ 0.13252814  0.04865299  0.03871354  0.06081663 -0.02217283 -0.00900864
 -0.01434319 -0.06930299 -0.0245581  -0.17802553 -0.04511916 -0.01955415
 -0.05913433]
[ 0.07236268  0.03710178  0.024386    0.07223497  0.03764806 -0.0149785
 -0.01494097 -0.09011332 -0.03835915 -0.13985078 -0.05488414  0.00212083
 -0.07556994]
[-0.04882408 -0.02816365 -0.05777956 -0.00934198 -0.13102092  0.00232429
  0.01094335 -0.02258213 -0.01747087  0.24543543 -0.05014272 -0.07656583
  0.02047436]
[-0.04443768  0.00104131  0.00770503  0.12686887  0.08166316 -0.00741803
 -0.00678824 -0.06397586 -0.00963659 -0.14886338 -0.01649872 -0.00491182
  0.02165124]
[ 0.06006061  0.00362647 -0.02144052 -0.15279941 -0.1040828   0.00464165
 -0.01205277  0.03833757 -0.0039093   0.22703317 -0.01571633 -0.04745518
  0.03356076]
[-0.11539488 -0.04631909 -0.01343242  0.16970941 -0.00604647  0.01309953
  0.01812215  0.04346218  0.04906954 -0.1712764   0.07413866 -0.02506437
  0.04142759]
[ 0.10241292  0.03102905  0.02960667 -0.10103659 -0.03624531 -0.00179217
 -0.00512116  0.01208227 -0.01400823  0.03726644 -0.01972763 -0.02098093
 -0.05192967]
[ 0.14474812  0.0124353   0.03404408 -0.01864617 -0.1817537   0.02038041
  0.01526088  0.09763017  0.05470494 -0.1107633   0.07216023  0.01092797
  0.00285483]
[-0.09112726 -0.02744721 -0.00466602  0.02192194  0.04229076  0.00777636
  0.02166798  0.04973972  0.02665967 -0.00877031  0.04890361  0.01887599
  0.01472535]
[ 0.02843762  0.00366904 -0.0060253   0.02231665 -0.08613537  0.00046318
  0.00699888 -0.0304319  -0.01102144  0.03797842 -0.03523459 -0.03482542
 -0.00650883]
[ 0.02102126 -0.02107283 -0.02425468 -0.03771765 -0.15378444  0.01322789
  0.01064939  0.05286752  0.02910022  0.13210845  0.02526254  0.00404307
  0.05144428]
[ 0.12529448  0.03448459  0.00299931 -0.08268067 -0.07243022 -0.00354252
 -0.0182062  -0.01924435 -0.01685769  0.08079143 -0.03998921 -0.00486724
  0.00117657]
[ 0.01830423  0.01907111 -0.01945431 -0.07699392 -0.02940984 -0.01987798
 -0.02113584 -0.13484997 -0.07994588  0.30351397 -0.14686815 -0.05874958
  0.02993471]
[-0.00290033  0.011466   -0.01685231 -0.0022383  -0.00789917 -0.02076156
 -0.01493706 -0.12925924 -0.06957725  0.18622589 -0.1232207  -0.0205815
 -0.04442039]
[-0.07628716 -0.00334376 -0.02145473  0.03488787  0.08654035 -0.01472214
 -0.01120033 -0.10040866 -0.04426033  0.07625572 -0.07343341 -0.01029298
  0.03542677]
[ 7.13507012e-02  2.34114863e-02  1.16053866e-02 -2.60662138e-02
  8.66027622e-05  5.72300609e-03 -2.08430481e-03  2.47756802e-02
  1.32276621e-02 -1.10324405e-01  2.39744466e-02  5.53538045e-03
  2.53300034e-02]
[-0.05906962 -0.0207429  -0.02514547 -0.11082026  0.03375719  0.01183575
  0.00889324  0.09815555  0.02999309  0.10429509  0.05878402 -0.00939549
  0.04326262]
[-0.06844392  0.00226815 -0.00044321 -0.15599807  0.19101042 -0.00754408
 -0.00204733  0.03854692 -0.01055428  0.12573524  0.01424647  0.07128115
 -0.0357782 ]
[ 0.12421122  0.06819471  0.03924553 -0.02603632  0.13830608 -0.02090031
 -0.03990818 -0.09259268 -0.0490607  -0.1606678  -0.06155023  0.02182367
 -0.04377007]
[ 0.05973648  0.02914438  0.03649954 -0.00833762  0.0781451  -0.00039587
 -0.00595222  0.01880565  0.00739789 -0.18942082  0.03011613  0.02264478
 -0.02917626]
[ 0.0101955   0.02637987 -0.01325333 -0.05835475  0.10992468 -0.02045884
 -0.03358187 -0.09257961 -0.05733816  0.10222013 -0.08077466  0.00120963
  0.00273098]
[-0.10815391 -0.02289269  0.0142293  -0.02898481  0.14762047  0.0111972
  0.02340197  0.10284227  0.04651685 -0.09235821  0.09757876  0.05742293
  0.01749166]
[-0.10694266 -0.02464207 -0.00727542  0.09342234  0.06064791 -0.00356621
  0.00374373 -0.04106906 -0.00280246 -0.02224581 -0.00998613  0.00405475
  0.0408255 ]
[-0.08230992 -0.06785161 -0.01238545  0.05034222 -0.17592688  0.03319911
  0.04427458  0.15622619  0.09233784  0.01246746  0.12749173 -0.00518924
  0.07092685]
[ 0.10466255  0.02808004  0.01765931 -0.00785207 -0.07536866 -0.00041963
 -0.00734709 -0.03003931 -0.01133695 -0.04210261 -0.02920563 -0.02104823
  0.01050041]
[-0.05404193 -0.03695168 -0.02164839  0.13970283 -0.11577163  0.0143645
  0.0257176   0.02477589  0.03683113 -0.08204778  0.03988821 -0.03284049
  0.03151812]
[-6.0135029e-02 -2.6870515e-02 -2.9109860e-02 -9.6747234e-02
 -3.6511827e-02  6.8871166e-05 -1.1239704e-03  1.5853005e-02
 -9.6341213e-03  2.6325440e-01 -1.9809518e-02 -2.1751361e-02
  2.6047572e-02]
[ 0.0113228  -0.0041325   0.01961121  0.10484134 -0.01642809  0.01110571
  0.01777108  0.04982426  0.03882219 -0.24892275  0.0693973  -0.00027035
 -0.03128415]
[ 0.04575225  0.00249788  0.00526214  0.1928786  -0.14409176  0.0036969
  0.0105557  -0.06438956  0.0037229  -0.17058519 -0.02728638 -0.04783465
  0.00376013]
[-0.06686573 -0.0494719  -0.02434694  0.12753753 -0.16219956  0.01348245
  0.01742942  0.0131804   0.03420332  0.02688179  0.02200847 -0.03715159
  0.07124258]
[-0.07708119 -0.02146363 -0.03242934  0.0396225  -0.03715441 -0.00767169
  0.00419362 -0.08293013 -0.03478547  0.17636295 -0.0759703  -0.03606899
  0.03505095]
[-0.04324706 -0.03139867 -0.03469151 -0.0566396  -0.05480383  0.01032158
  0.00595378  0.072638    0.02406881  0.11746886  0.04370145 -0.01038344
  0.02102358]
[ 0.02102657  0.00166162  0.01990123 -0.04573582  0.0328256   0.01511312
  0.01197153  0.11594418  0.04598572 -0.15915987  0.09727979 -0.00573438
 -0.01101524]
[-0.12428948 -0.06635847 -0.03610321 -0.13088459 -0.01386472  0.03239655
  0.03036022  0.2305199   0.09421324  0.1105658   0.16937289  0.02232344
  0.0808707 ]
[ 0.02683151 -0.02066937 -0.00267036 -0.06389697 -0.16188912  0.01664724
  0.00762737  0.08439779  0.03549102  0.13301526  0.0385537  -0.04916759
  0.05028374]
[-0.01307418  0.01921486  0.00146098 -0.1351288   0.15956555 -0.01355497
 -0.01605177 -0.01239451 -0.03232594  0.10369108 -0.02455755  0.05178889
 -0.03485563]
[-0.04830853 -0.0261587  -0.01275426  0.02705034 -0.09320703  0.00366321
  0.00756459 -0.01239617  0.00099134  0.14284998 -0.02429073 -0.05383166
  0.05357181]
[-0.09392975 -0.01603403  0.00757568  0.1422417   0.09897367  0.00223067
  0.01253795 -0.01127487  0.0229079  -0.19085675  0.03605598  0.04298906
  0.03583134]
[-0.01256599 -0.04478681 -0.02107331 -0.13330437 -0.157692    0.03658553
  0.0334103   0.21846594  0.09294942  0.11303639  0.14261606 -0.01553662
  0.0785395 ]
[ 0.10955989  0.02343988  0.00581111 -0.13567725 -0.06061917  0.00763118
  0.00046842  0.07932562  0.01151137  0.03194249  0.03183424 -0.00918687
 -0.05882198]
[ 0.05311266  0.02188235  0.0314065  -0.02604246  0.06347071  0.00320317
 -0.00057007  0.05452374  0.01799446 -0.17513311  0.05166212  0.01892018
 -0.06042997]
[-0.13577251 -0.03020731 -0.00441566  0.07283129  0.12375076  0.00162977
  0.00958259  0.01488501  0.01952642 -0.07523632  0.04060153  0.03079676
  0.03538767]
[ 0.09706101 -0.00696992 -0.00557264 -0.04680882 -0.19964686  0.0187995
  0.00514934  0.09425437  0.04517479  0.03097607  0.05496761 -0.02544766
  0.02258249]
[-0.04264269 -0.00679843 -0.01149449 -0.00995584  0.06115973  0.00420772
  0.0084408   0.03972695  0.01438789 -0.05515206  0.03493814  0.00484547
 -0.0188901 ]
[ 0.067281    0.01380322 -0.01994277 -0.04559957 -0.10646079 -0.0071674
 -0.0066829  -0.05113465 -0.03497663  0.17276208 -0.07081277 -0.02381611
 -0.03881757]
[-0.06162428 -0.00979896  0.00731805  0.0861482   0.07681943  0.00254591
  0.00184285  0.0024788   0.02109732 -0.12736149  0.03271236  0.02398526
  0.04877894]
[-0.05775592 -0.00827446  0.01768291 -0.00026582  0.11056603  0.00798024
  0.01207162  0.06674836  0.03571069 -0.12329203  0.0723732   0.04207107
  0.02202165]
[ 0.03981975  0.01758301  0.01550764 -0.13549888  0.08841764  0.00593393
 -0.00854077  0.09504899  0.02629315 -0.02869615  0.06510533  0.0247436
  0.001409  ]
[-0.0972309   0.01185946 -0.00342422  0.1295472   0.18433398 -0.0305862
 -0.02914982 -0.19509871 -0.07863501 -0.01543729 -0.12596369 -0.01193708
  0.01284842]
[-0.18718958 -0.03886026 -0.02612362 -0.04252687  0.1860191  -0.00273473
  0.00726588  0.02378799  0.00295519  0.11756099  0.02767499  0.05432979
  0.04702012]
[-0.02483478 -0.0305119  -0.02599045 -0.0837976  -0.10789965  0.01042838
  0.01470775  0.07348533  0.02116667  0.19539048  0.02685156  0.00145396
 -0.01320481]
[-0.0705499  -0.029481    0.01668868  0.05636473  0.04224993  0.01216168
  0.01311817  0.08701161  0.0492337  -0.16092142  0.09507667  0.01868415
 -0.00362019]
[-0.07914826 -0.05140624 -0.0268102  -0.07546691 -0.09251096  0.02317162
  0.03579115  0.13642016  0.05883347  0.1530866   0.08907888  0.02024993
  0.05007669]
[-0.08337404 -0.0371655  -0.01500426 -0.1022104   0.0047609   0.01979386
  0.02399439  0.1414287   0.05632738  0.09513664  0.09553063  0.01657693
  0.04559135]
[ 0.0592639   0.01997402  0.02593081 -0.07425306  0.00743227 -0.00440839
 -0.01834037  0.001132   -0.01076995  0.03123069 -0.0153074  -0.00583104
 -0.01406748]
[ 0.06690757  0.02396304  0.02538284  0.06724519 -0.0136604  -0.00383563
 -0.00410889 -0.04728151 -0.00997504 -0.14284162 -0.01943802  0.0043708
 -0.01124183]
[-0.08668423 -0.03675453 -0.01874462  0.20828359 -0.0733771   0.00818704
  0.02685611 -0.03311048  0.02417295 -0.11249856  0.01225446 -0.00563255
  0.05955528]
[-0.12563765 -0.02130551  0.0094903   0.08693443  0.1323763  -0.00052195
  0.01283906 -0.00410869  0.01112769 -0.09915053  0.02588779  0.01066921
  0.02677582]
[-0.12497061 -0.03958361 -0.03949238 -0.02664378  0.04900164  0.00655864
  0.01404079  0.05597919  0.01734107  0.0912142   0.04100263 -0.00870048
  0.0205325 ]
[-0.0107085   0.01305839 -0.04339226  0.02426106 -0.01146498 -0.02585748
 -0.03089458 -0.1860548  -0.0889044   0.24030454 -0.16402194 -0.05686921
  0.03080951]
[-0.1265253  -0.03724656 -0.006185    0.13142574  0.04506357  0.01082375
  0.02951092  0.02659     0.03944424 -0.1233962   0.05895952  0.03475423
  0.06101804]
[ 1.0056320e-01 -1.4160629e-04 -2.8948293e-03 -1.7890912e-02
 -2.1898837e-01  4.3085138e-03 -3.9076800e-03 -1.0751480e-02
 -3.7341229e-05  1.3894701e-01 -3.3217583e-02 -2.4692878e-02
  2.4269177e-02]
[ 0.1431575   0.03453374  0.03009824 -0.06036153 -0.07281072  0.00029625
 -0.01721077  0.00885641 -0.00368466 -0.05588504 -0.00723712 -0.02588845
 -0.02407482]
[-0.07748394 -0.02535318 -0.0259952  -0.02370143  0.00223119  0.00236834
  0.00714685  0.01896561  0.00389149  0.13136631  0.00223813 -0.01832403
  0.01982027]
[ 0.17031574  0.03809291  0.05289261 -0.02312573 -0.0904393   0.01197576
  0.00269349  0.06568575  0.03437815 -0.20221135  0.05466727  0.00953016
 -0.02493611]
[-0.09628517 -0.00606259  0.00725163  0.02073881  0.17784953 -0.00429788
 -0.00133465  0.00123178  0.00194399 -0.08757371  0.02332647  0.03533559
  0.00908776]
[-0.06524017 -0.02174697 -0.01394224 -0.1309647   0.05720906  0.00817462
 -0.00308974  0.09223155  0.02528392  0.14267959  0.054539    0.00647044
  0.05547968]
[ 0.06325018  0.01888083  0.00488961 -0.08834343 -0.00918144  0.0001352
 -0.00083082  0.02527164 -0.0046205   0.02481976  0.00146467  0.01777823
 -0.04917738]
[ 0.12835886  0.02731026 -0.0028175  -0.04466085 -0.18611847 -0.00646491
 -0.00737924 -0.0773909  -0.04292138  0.18136585 -0.10174939 -0.05413358
 -0.01788916]
[ 0.05889289 -0.00491833  0.02942449 -0.03381371 -0.05953692  0.02367893
  0.01834377  0.14946152  0.07179937 -0.18025161  0.12711716  0.02632923
  0.00392767]
[-0.01227167 -0.01740066 -0.0079368  -0.05194034 -0.06045221  0.01028996
  0.01274668  0.06924433  0.02267153  0.06738918  0.03559258 -0.02529917
 -0.01083666]
[ 0.10727718  0.02482754  0.03360267 -0.11312805 -0.03494507  0.00495303
 -0.01238451  0.05520334  0.0150375   0.00997214  0.02529338  0.00943066
  0.01315962]
[-0.02916511 -0.01143904 -0.00564441 -0.01113578 -0.0205072   0.00035799
 -0.00414184 -0.00942237 -0.00208455  0.0844143  -0.01503896 -0.02028606
  0.04661005]
[-0.01256391 -0.01875582 -0.00017641  0.02241953 -0.04310132  0.01794242
  0.01794907  0.09462399  0.05170629 -0.11582468  0.08570192 -0.01003433
  0.02127016]
[-0.24454018 -0.06142176 -0.05305637  0.04008313  0.11628858 -0.00459486
  0.01454125 -0.01191071 -0.01059378  0.18927582 -0.00911103 -0.01532887
  0.01248742]
[ 0.14658369  0.029529    0.01356852 -0.1315111  -0.09316832  0.00350845
 -0.01359384  0.0464686   0.00335916  0.05201067  0.00751985  0.00590126
 -0.02980151]
[-0.20054473 -0.04765004 -0.03953234  0.07418156  0.11204336 -0.00232995
  0.0155643  -0.02095751 -0.00304104  0.06534094  0.00103457  0.01214183
  0.03511164]
[-0.03492447  0.00508275 -0.0167801   0.01358106  0.08300808 -0.01243825
 -0.01412298 -0.07024161 -0.03023533  0.04562403 -0.04523709  0.03154541
  0.01972025]
[-0.12758617 -0.01687339  0.00784649 -0.01068736  0.2144574  -0.00319881
  0.00944673  0.0357494   0.00924731 -0.07834096  0.05110068  0.07069215
 -0.02947457]
[-0.04792233 -0.00937059 -0.02493499  0.20941253 -0.02438536 -0.01297555
 -0.00557586 -0.14356546 -0.0355145  -0.07391718 -0.07857826 -0.01477754
  0.0127102 ]
[ 0.0365986   0.01863899 -0.00219001 -0.1568814   0.0337844  -0.00569523
 -0.02254938  0.00273826 -0.0240444   0.17988731 -0.03083296 -0.0223573
  0.03103028]
[ 0.03469884  0.02398546  0.018468    0.10271768  0.03715846 -0.00895669
 -0.0080201  -0.07605122 -0.020552   -0.16111669 -0.0359262  -0.01118539
 -0.0135122 ]
[ 0.13192137  0.03248864  0.01383735  0.01340462 -0.07363924 -0.003033
 -0.01801721 -0.01991236 -0.01221784 -0.1061284  -0.01668567 -0.03718717
 -0.05074514]
[-0.13120465 -0.05254997 -0.04378355  0.10579238 -0.03647795  0.01273262
  0.03826774  0.0445956   0.03516081 -0.0170483   0.05283116  0.00294896
 -0.00113457]
[-0.06192365 -0.04041812 -0.01435362  0.08472496 -0.07911225  0.02095945
  0.02898088  0.08081634  0.0627686  -0.0809821   0.08513522  0.0148236
  0.07213763]
[-0.04096628  0.00636537  0.0158214   0.01489835  0.1324707  -0.000568
 -0.0016405   0.01385927  0.00837756 -0.13723148  0.02861654  0.01484417
  0.00138326]
[ 0.09321152  0.01640623 -0.00570439  0.00403425 -0.12907599 -0.00187607
 -0.00541308 -0.03576228 -0.01457033  0.05144316 -0.04330814 -0.02107284
 -0.02328195]
[ 0.04014484 -0.00529901 -0.00739226  0.02203334 -0.14348632  0.00180278
  0.00204147 -0.02001704 -0.00318977  0.10263938 -0.02911416 -0.02234021
  0.00462287]
[-0.12511182 -0.03049403 -0.05751011  0.11634143 -0.04150438 -0.01780368
  0.00577638 -0.15633465 -0.06573494  0.23420198 -0.13021263 -0.04149798
 -0.01279204]
[ 0.13944189  0.03604803  0.03168361 -0.13145454 -0.06288131 -0.00079671
 -0.00827842  0.02969296 -0.00860627  0.05414127 -0.0103212  -0.00483316
 -0.06547322]
[ 0.15725327  0.02955818  0.04496306 -0.10398233 -0.04888326  0.01945081
  0.0028763   0.14958069  0.06175996 -0.20021461  0.11640669  0.03365764
 -0.02521233]
[ 0.12276547  0.04714907  0.00753519 -0.05479531 -0.0027883  -0.01003602
 -0.02280847 -0.05221829 -0.03816412 -0.02028843 -0.05562398 -0.03482228
 -0.03348566]
[-0.03043923 -0.04217231 -0.04529072 -0.08177175 -0.17434913  0.0237462
  0.02492389  0.11831292  0.04883558  0.20340061  0.05839166 -0.04433991
  0.06458432]
[-0.08614772 -0.01612373 -0.02515026 -0.07648519  0.08567858 -0.00906924
 -0.00674375 -0.00756942 -0.02688627  0.17518659 -0.02577128 -0.01347144
 -0.03041988]
[ 0.06945296  0.02855332  0.00888649 -0.04603419  0.01361148 -0.00841394
 -0.00553484 -0.03458525 -0.02664404  0.02359641 -0.03526872  0.02720405
 -0.04242482]
[ 0.03872722  0.0308158   0.03177258  0.07036413  0.11804793 -0.00687832
 -0.00709671 -0.02195306 -0.0022084  -0.25643983  0.01522606  0.04208522
 -0.06203733]
[ 0.09156372  0.05154808  0.02373027 -0.17065589  0.08444574 -0.01899955
 -0.02924283 -0.0607888  -0.05856531  0.16314268 -0.08401122  0.01122173
 -0.0319594 ]
[-0.05906009 -0.0327345   0.01673594  0.03227131  0.03940902  0.02666019
  0.02713251  0.17649631  0.09390313 -0.25547788  0.17050627  0.03186448
  0.01424512]
[-0.00379292 -0.00323002 -0.03279346 -0.0018581  -0.07344194 -0.00687272
  0.0042975  -0.05736929 -0.03618525  0.16084851 -0.06900325 -0.04428855
 -0.03885742]
[ 0.12077767  0.0526636   0.04401438 -0.06783586  0.11151071 -0.00827601
 -0.02222028  0.00944822 -0.01048488 -0.17942026  0.01368306  0.03194456
 -0.07465852]
[ 0.06467731 -0.01151617 -0.01284358 -0.07757669 -0.1568603   0.02384068
  0.01851274  0.13638729  0.05398123  0.01212793  0.08528723 -0.03701956
  0.00500491]
[ 0.15285242  0.03891035 -0.00213969 -0.13816984 -0.09125094 -0.00679657
 -0.02413199 -0.02134394 -0.0333162   0.1374809  -0.05688344 -0.02658946
 -0.03052695]
[-0.03554529 -0.04236651 -0.01226358 -0.09222435 -0.10476072  0.02150741
  0.02025673  0.14124534  0.05791862  0.1238561   0.09133763  0.00950519
  0.03534759]
[-0.06158764 -0.01590113 -0.00499673  0.02757797  0.01761663  0.00340792
  0.01470255  0.00640493  0.00957774  0.0078411   0.01056186  0.00989363
  0.02045787]
[ 0.1177147   0.04564447  0.01579895 -0.09192517 -0.01477197 -0.0189865
 -0.03263104 -0.09643869 -0.06433123  0.12956092 -0.10561051 -0.0278797
 -0.02810181]
[ 0.15622048  0.03749752  0.01213618 -0.119822   -0.11634915 -0.00560306
 -0.02505381 -0.02178941 -0.03047548  0.13216095 -0.05672099 -0.03957391
 -0.02715692]
[-0.10009149 -0.02834864 -0.07184203 -0.01470745 -0.0597791  -0.01108872
  0.004407   -0.09516346 -0.05554575  0.3428942  -0.10913625 -0.05167146
  0.00907085]
[ 0.060245    0.02285591  0.04043087  0.09185164  0.01503975 -0.00064618
 -0.00190359 -0.01385062  0.00760898 -0.23585027  0.01581751  0.00702907
 -0.03813423]
[ 0.11198042  0.00315211  0.00836527 -0.1051734  -0.16870269  0.0180313
  0.00844001  0.1088343   0.0382122   0.04067528  0.05709735 -0.02415651
 -0.00370914]
[ 0.10810474  0.05257083  0.02256101  0.0168766   0.01705733 -0.02768277
 -0.03849559 -0.1656712  -0.08330943  0.02406052 -0.13839851 -0.038215
 -0.04889806]
[-0.06078915  0.00773864 -0.00528247  0.07204732  0.10668223 -0.02215817
 -0.02009212 -0.1339332  -0.05781617  0.05227026 -0.09395283 -0.00572353
 -0.00530718]
[ 0.00093415  0.02614266  0.01084439  0.00813579  0.14289787 -0.00966442
 -0.00377623 -0.03303484 -0.02136114 -0.12400804 -0.01073902  0.02828313
 -0.05067733]
[ 0.19034113  0.06092707  0.0027613   0.00832837 -0.10101633 -0.01528652
 -0.0239292  -0.11761551 -0.06135166 -0.04139679 -0.10721421 -0.05226098
 -0.07356171]
[-0.04006248 -0.04284888 -0.00259639  0.12807968 -0.13846147  0.02005939
  0.02074851  0.0603094   0.05811561 -0.10965088  0.0723154  -0.02577041
  0.07239737]
[-0.07807209 -0.02843915 -0.01539322  0.2539343  -0.05754873  0.00524053
  0.02733117 -0.05082373  0.01856712 -0.19839215  0.00560699 -0.00755659
  0.00557085]
[ 0.05367624 -0.00561576  0.01906268 -0.02095453 -0.10763249  0.01821715
  0.01700583  0.08615557  0.05062259 -0.04977197  0.06666607  0.02205496
  0.04648174]
[-0.10996194 -0.02550199 -0.01007841 -0.15108944  0.14543474  0.00577516
  0.00330502  0.10887486  0.02593808  0.12696388  0.06986798  0.03128255
  0.01960436]
[-0.02944258 -0.01032322 -0.03818239  0.00648927 -0.03758631 -0.00118936
  0.00226228 -0.03487084 -0.01735445  0.0978291  -0.03476103 -0.02818265
  0.03081634]
[-9.1010756e-05  1.2142451e-02  9.3816267e-03  2.6267542e-02
  4.9254213e-02 -9.2151519e-03 -8.4600160e-03 -4.8559431e-02
 -2.0496488e-02 -1.3899143e-02 -3.4146681e-02  7.8857709e-03
 -2.0160984e-02]
[-0.10129098 -0.05673818 -0.02391044  0.09788463 -0.11251841  0.0150862
  0.02531942  0.05186002  0.04316923  0.03179887  0.05154885 -0.00954088
  0.0326977 ]
[ 0.11418049  0.01110973  0.01410749  0.03898649 -0.16395222  0.01013077
  0.00417501  0.02337891  0.0226506  -0.08930687  0.01753084 -0.0295604
 -0.00077165]
[-0.0189637  -0.00915016 -0.01825923 -0.11000648 -0.010337   -0.00237545
 -0.00217758  0.02101676 -0.01682159  0.19525991 -0.01641794 -0.02470056
 -0.03176086]
[ 0.05491067  0.00355789  0.00072956  0.01010705 -0.11404099  0.00065116
 -0.00438688 -0.02620513 -0.00780981  0.04684556 -0.031785   -0.03924211
  0.01846498]
[-0.09832022 -0.03069987 -0.0662751   0.07058517 -0.07918074 -0.01270199
 -0.00694708 -0.12360118 -0.05524101  0.2647965  -0.114675   -0.07569479
  0.02598543]
[-0.04520943 -0.00325986 -0.01866954 -0.13928549  0.0918312  -0.00307613
 -0.01389402  0.02614681 -0.01013054  0.17381072 -0.00353928 -0.01124882
  0.04602855]
[ 0.03548827  0.00174518 -0.02763743  0.0376238  -0.10954258 -0.00626855
 -0.00841495 -0.0691346  -0.02788762  0.10131823 -0.06520917 -0.03043949
 -0.00749149]
[-0.16789311 -0.04977451 -0.02430012 -0.05034541  0.11095909  0.0100911
  0.01701618  0.09690812  0.04104237  0.08945449  0.07998706  0.04779125
  0.04981833]
[ 0.18680988  0.05191906  0.01117796 -0.04831279 -0.09319035 -0.00911
 -0.02278825 -0.05382098 -0.03362145 -0.02219418 -0.05893803 -0.00063409
 -0.0685508 ]
[-0.11186633 -0.03696348 -0.02944584  0.11177777 -0.01715738  0.00137996
  0.01493914 -0.03155613  0.0056779   0.02943121 -0.00789915  0.00084396
  0.03672381]
[-0.20175037 -0.05868141 -0.01523454  0.05930554  0.14877701  0.02384616
  0.03956049  0.15317671  0.08663446 -0.17649637  0.16174285  0.04779117
  0.06388704]
[-0.02926606  0.01639574 -0.00047895 -0.11390254  0.13998207 -0.01911954
 -0.02536979 -0.06536105 -0.05605504  0.16835384 -0.07200705 -0.00167983
 -0.00122982]
[-0.04516257  0.0141745   0.02285536  0.03656202  0.1562627  -0.00819749
  0.00257769 -0.02858644 -0.01547979 -0.14063561 -0.00571332  0.01532474
 -0.05387508]
[-0.06543268  0.00558168 -0.02657125 -0.0555996   0.13477576 -0.01781519
 -0.01720884 -0.08201667 -0.04777597  0.16458753 -0.07132249  0.0418325
  0.0206448 ]
[ 0.05762157  0.00681958 -0.01242157 -0.08044859 -0.11220483 -0.00658133
 -0.01479134 -0.04770477 -0.03522633  0.22980158 -0.07317637 -0.03224922
  0.01293938]
[-0.04848707 -0.05125301 -0.01663584  0.0480279  -0.16421416  0.02703585
  0.03500522  0.11474176  0.07243462  0.00444565  0.09503266 -0.00525213
  0.0703892 ]
[-0.09302437 -0.06044137 -0.01411851  0.12819503 -0.14799286  0.02529223
  0.03561305  0.09622883  0.07044609 -0.06333593  0.09047399 -0.04019734
  0.04244571]
[ 0.09708066  0.0065713   0.00980101 -0.05185198 -0.10046346  0.01683978
  0.00766759  0.09963997  0.04779245 -0.0863392   0.0759139   0.02574615
  0.00317649]
[-6.3935027e-02 -3.1058796e-02  8.0159102e-03 -2.9470528e-02
  2.6839912e-02  2.5179870e-02  3.3980280e-02  1.7313655e-01
  7.8956194e-02 -1.2768514e-01  1.4531079e-01  2.1810886e-02
 -1.4123571e-04]
[-0.15721825 -0.03329194 -0.01292039  0.01973047  0.12672561 -0.00284722
 -0.00365033 -0.00169356  0.00175316  0.07186639  0.00778711 -0.00672357
  0.05914526]
[ 0.07861719  0.03912592  0.03006244 -0.02978608  0.06977771 -0.00559167
 -0.01681673 -0.02008423 -0.01074971 -0.11061559 -0.0110279   0.00962553
  0.00277518]
[-0.03950002  0.00061039  0.01290245 -0.04087686  0.10835908  0.00239234
  0.00483497  0.04551381  0.01662097 -0.04499399  0.04020503  0.03439663
 -0.00215201]
[-0.06785847 -0.0264834  -0.01563695  0.16901414 -0.03596133  0.00645087
  0.02197392 -0.01210361  0.02274092 -0.12984253  0.02351345 -0.00118595
  0.00999724]
[ 0.12242817  0.0384629   0.00911986 -0.11020504 -0.04164884 -0.00242796
 -0.01722084  0.00031624 -0.01631522  0.05631952 -0.02982638 -0.03112694
 -0.01475547]
[ 1.10774845e-01  8.65661260e-03  3.11133564e-02 -1.48640603e-01
 -1.04229555e-01  2.06880774e-02  1.18339946e-02  1.59851611e-01
  5.51989153e-02 -1.44440429e-02  9.56567153e-02 -1.09630666e-04
 -3.85737829e-02]
[ 0.05747974  0.02368166  0.04060214 -0.00089158  0.08345079  0.01281924
  0.0090537   0.10004152  0.05317948 -0.2897601   0.10535536  0.05127902
 -0.01670634]
[-0.12537666 -0.00297257 -0.03485848  0.02637154  0.16645348 -0.02232276
 -0.01643088 -0.1293076  -0.06452234  0.12903686 -0.09789855 -0.00856563
  0.02215066]
[-1.48811623e-01 -3.05673499e-02 -3.76489870e-02  1.79117367e-01
  5.05070500e-02 -9.11134575e-03  4.30107350e-03 -1.09201215e-01
 -2.53562219e-02  1.71197826e-04 -5.77409975e-02 -3.54353189e-02
  5.24837635e-02]
[ 0.02163051  0.02547895 -0.00778596 -0.12684864  0.11318182 -0.01390046
 -0.02985093 -0.0369595  -0.03540624  0.12805873 -0.04355671  0.04396898
  0.01830662]
[-0.05752444 -0.03365     0.00563503 -0.01044094  0.01178397  0.02083245
  0.02039245  0.13416195  0.07040147 -0.09281165  0.12455054  0.04717748
  0.05616266]
[-0.03935104  0.00212157  0.01017894 -0.08516221  0.16125168 -0.00172031
 -0.00365591  0.06038845  0.01308664 -0.04066226  0.05283194  0.07072293
 -0.04202364]
[ 0.09109969  0.02721873 -0.02010402  0.04723388 -0.1331125  -0.01897641
 -0.02375438 -0.17090887 -0.07562697  0.14632498 -0.15182936 -0.06008219
  0.00572267]
[ 0.16078246  0.05076719  0.01585187 -0.12424382 -0.03563536 -0.00734249
 -0.0158088  -0.02028067 -0.02840989  0.04556274 -0.04165052  0.02722978
 -0.05128582]
[ 0.24580696  0.07652615  0.07613166 -0.12487866 -0.02690352  0.00242612
 -0.01610036  0.05029621  0.00701288 -0.18569891  0.02111398  0.00543354
 -0.07558301]
[ 0.11498082  0.00551007 -0.03140439 -0.11328541 -0.24235015  0.00713719
  0.00096072  0.02549751 -0.01095084  0.2490242  -0.03723997 -0.08341352
 -0.02761425]
[ 0.01296837 -0.03638072 -0.01585784 -0.10654446 -0.12309354  0.03284751
  0.02453832  0.21911757  0.09342706  0.0013442   0.15847586  0.01176357
  0.02167519]
[-0.11623561 -0.03712081  0.0004076   0.02540585  0.0462724   0.0114691
  0.02388686  0.08168538  0.03856447 -0.02552409  0.07249069 -0.00108717
 -0.00230473]
[ 0.01890756 -0.00836926  0.01942949 -0.09021965  0.00711199  0.02369084
  0.01098382  0.1725118   0.07562011 -0.11564165  0.13624142  0.01957527
  0.03311478]
[ 0.22770062  0.06696515  0.04074299 -0.16617215 -0.05326454 -0.00670657
 -0.03598716 -0.00028101 -0.02499868  0.01272757 -0.03390097 -0.00369622
 -0.04449693]
[-0.10799477 -0.03220668 -0.03825135  0.1805904  -0.04588021 -0.00212916
  0.019752   -0.09265932 -0.01274407  0.00706984 -0.04740904 -0.00808353
  0.04870312]
[ 0.04744972  0.02873652  0.04275316 -0.04845671  0.10941312  0.00168801
 -0.00277598  0.05253657  0.01363361 -0.17533392  0.04903086  0.01718598
 -0.0456754 ]
[ 0.05986171  0.00819031  0.02600073  0.00769258 -0.05292507  0.01170895
  0.00098985  0.05367273  0.03226142 -0.13237964  0.04762042 -0.02244315
  0.02766795]
[-0.23699433 -0.05619114 -0.04954402  0.00422396  0.13955322 -0.0004011
  0.0198858   0.00264136  0.00257694  0.18563388  0.00689241  0.02850551
  0.07592051]
[-0.034706   -0.0169853   0.00160669 -0.13100976  0.03555233  0.0099894
  0.00888655  0.10824239  0.03447355  0.0956718   0.06755655  0.04734602
  0.00610332]
[-1.4260802e-01 -3.1738885e-02 -1.7643718e-02 -1.9120011e-02
  1.0477729e-01 -8.9960976e-04  7.7947923e-03  4.8559220e-03
  4.7060057e-05  1.1417969e-01  5.3439806e-03  2.0442015e-02
  5.8777593e-02]
[ 0.18524048  0.05397191  0.04470047 -0.10587543  0.01630987  0.0050482
 -0.01952647  0.08203354  0.02095907 -0.21516545  0.06279451  0.01649538
 -0.0682727 ]
[-0.11739335 -0.03612573 -0.05256435  0.13076924 -0.09246014 -0.01180161
  0.01178156 -0.14646369 -0.05153542  0.23822516 -0.1192623  -0.04386201
  0.04323349]
[ 0.01095333  0.03201167 -0.00203614 -0.05046641  0.1142378  -0.02601943
 -0.02331879 -0.12733425 -0.07310718  0.11829444 -0.11170966  0.03754693
 -0.04741559]
[ 0.11080649  0.06033308  0.05813746 -0.06794731  0.1414913  -0.01878156
 -0.03083674 -0.05664639 -0.03831911 -0.10944739 -0.04243305  0.05452247
 -0.06555231]
[ 0.02805849 -0.00444555 -0.00265259 -0.14752863 -0.05259574  0.00906435
  0.01075479  0.0823835   0.01576087  0.15116718  0.03156388  0.01026114
 -0.00536071]
[-0.08834332 -0.00378917  0.01622233  0.02141258  0.19998726 -0.0026989
 -0.00534069  0.01295684  0.01211656 -0.14400831  0.04133843  0.0414734
  0.03564977]
[ 0.15677422  0.06003805  0.01217929 -0.12440872  0.00024841 -0.01429112
 -0.02376779 -0.06697454 -0.05222547  0.07159282 -0.07913519  0.01188549
 -0.03286003]
[ 0.15510869  0.09217133  0.03700176  0.06015529  0.14224273 -0.03958143
 -0.05189272 -0.22494587 -0.10495555 -0.16467871 -0.1597665   0.01229893
 -0.09568477]
[ 0.00635269  0.02331611  0.01344775  0.01244094  0.12455554 -0.01210821
 -0.01930446 -0.04295888 -0.02421469 -0.09584753 -0.02041828  0.01573658
 -0.03911477]
[-0.06602654 -0.03714091 -0.02506437  0.07394422 -0.12338147  0.00500162
  0.01687892 -0.0158257   0.00577703  0.12067079 -0.01890281 -0.02893543
  0.02271673]
[ 4.6266250e-02  1.3479083e-02  2.8766587e-02  2.8243735e-02
  2.3980883e-05 -1.8480732e-04  6.2856236e-03 -6.4458448e-04
  5.8119153e-03 -1.2412751e-01  1.1720170e-02  3.6284190e-02
 -4.2429466e-02]
[-0.04544763 -0.03157546 -0.00589544  0.02528835 -0.05122973  0.02736342
  0.0297475   0.14192073  0.07416219 -0.13780169  0.122205   -0.02952628
  0.04100767]
[ 0.12524584  0.04453353  0.04000998 -0.01933115 -0.0116006  -0.00415942
 -0.01436179 -0.02799871 -0.0146341  -0.10918172 -0.02633463 -0.02585826
 -0.01490976]
[-0.00431375  0.00708381 -0.01080115 -0.04955037  0.0695269  -0.0040082
 -0.00092399  0.00912138 -0.00918459  0.00922352  0.0046189   0.0218783
 -0.03890168]
[ 0.01518907  0.01352255  0.00227047  0.143141   -0.0008851  -0.00707605
 -0.00763155 -0.09211381 -0.01628731 -0.13696995 -0.04256244 -0.00662211
  0.02535617]
[ 1.5669769e-01  3.5977513e-02  9.9168988e-03  6.4990260e-03
 -1.3714950e-01 -3.0200768e-05 -8.4024388e-03 -4.0606212e-02
 -1.4650023e-02 -6.1165266e-02 -3.7541248e-02 -2.5073566e-02
 -5.1329224e-03]
[-0.02625189 -0.01497537 -0.01274727  0.01267704 -0.03357292  0.00572837
  0.00846582  0.02412251  0.0151619   0.02926049  0.01909092 -0.00188599
  0.01609631]
[-0.12075083 -0.04684562 -0.01590957  0.05590913 -0.01810728  0.01857013
  0.02658775  0.08557666  0.05501658 -0.0109563   0.07766825 -0.02221395
  0.07087085]
[ 0.03072602  0.02802684  0.03044419 -0.12322376  0.1311995  -0.0097429
 -0.01833213  0.00720952 -0.02067675  0.01427163 -0.00652139  0.03299586
 -0.0430079 ]
[-0.13052002 -0.00787559 -0.01455151  0.10947655  0.1552054  -0.01708569
 -0.0006121  -0.10574913 -0.04211966 -0.01575731 -0.06184923  0.00526299
 -0.02605146]
[-0.03698222  0.0138525  -0.00242478  0.08735805  0.1013318  -0.02241476
 -0.01583469 -0.13063161 -0.05654937 -0.01568597 -0.08812965  0.01186988
 -0.05683864]
[-1.3619846e-01 -1.3514475e-02  9.6195110e-04  3.9554246e-02
  1.6714925e-01 -1.1447963e-02  2.0790429e-05 -5.7749562e-02
 -2.3720328e-02  2.0630928e-02 -3.2810543e-02  1.0594914e-02
  1.7037939e-02]
[-0.04098753  0.00832291  0.03335503 -0.03362795  0.20814393  0.00244645
  0.00580961  0.06865313  0.02987565 -0.19663005  0.08218791  0.08880446
 -0.01071121]
[ 0.13219027  0.03685049 -0.00970204 -0.1836327  -0.04451647 -0.00889546
 -0.02648931 -0.00865425 -0.03704796  0.18392318 -0.04978783  0.00445257
 -0.04533164]
[-0.04399162 -0.00141859  0.00639236  0.02618733  0.11863026  0.00184715
 -0.00471584  0.02984062  0.01952801 -0.14526203  0.04797358  0.01726485
  0.01675171]
[-0.06757349 -0.00876514 -0.01313682 -0.05168027  0.10503703 -0.00728057
 -0.01098451  0.00099094 -0.01737392  0.07184348 -0.00602229 -0.01285815
 -0.02171913]
[-0.01231599 -0.00978931 -0.05857627  0.06492537 -0.1490098  -0.01557035
 -0.00419753 -0.14633437 -0.06990506  0.264911   -0.14112152 -0.07853017
 -0.02412895]
[-0.00792639  0.00739841 -0.0164838  -0.11661033  0.0356209  -0.00916572
 -0.00577534 -0.02231561 -0.03533892  0.20164146 -0.04840509  0.01010372
 -0.02995843]
[ 0.05861998 -0.00818528 -0.00131181  0.10870723 -0.17276148  0.01864386
  0.02482392  0.0447479   0.04434236 -0.16589122  0.04977237 -0.02828576
  0.01246757]
[-0.03552796 -0.03443814 -0.00681166 -0.13261594 -0.05347138  0.02668795
  0.02847815  0.180922    0.07350268  0.09184346  0.12188663  0.02283339
  0.05562095]
[-0.10273685 -0.06087812 -0.05232275 -0.10176519 -0.10768779  0.0274306
  0.03190424  0.15731254  0.06313261  0.21999072  0.09412774 -0.03678958
  0.09115385]
[ 0.01469598  0.01079603  0.01108264 -0.03022991  0.05456999  0.00395466
 -0.00373262  0.03544227  0.01536212 -0.08627471  0.0325151   0.00060394
  0.01887989]
[ 0.09288     0.01631849  0.06151386 -0.03783843  0.02270881  0.01919797
 -0.00109672  0.1520066   0.07482559 -0.2802712   0.13892713  0.0271344
  0.00788757]
[ 0.07032022 -0.00667922  0.01721326  0.00056461 -0.11586765  0.02047184
  0.01313584  0.10700471  0.06163812 -0.12870552  0.09285299  0.01687559
  0.02562722]
[-0.00699189 -0.00207201 -0.02097129  0.14786483 -0.05268888 -0.00369054
  0.00980633 -0.08620059 -0.01564348 -0.08274936 -0.04181779  0.00559817
  0.00852839]
[-0.09807664 -0.01717982 -0.03739221 -0.04974271  0.08012308 -0.01451938
 -0.01259077 -0.05937557 -0.04156593  0.22783639 -0.0622758   0.00503744
  0.00490822]
[ 0.06383584 -0.01611162  0.00899795 -0.12805504 -0.11523217  0.03706327
  0.02690302  0.24019791  0.10327972 -0.06737068  0.17355564 -0.00451444
  0.04294363]
[-0.05742989 -0.02589176 -0.02621773  0.07504438 -0.09501328 -0.00460924
  0.00783318 -0.07664629 -0.02414939  0.15635727 -0.06499131 -0.0215242
  0.03212808]
[ 0.06328566 -0.0075768  -0.0260019  -0.07834507 -0.19692595  0.01375155
  0.01213062  0.05392967  0.01609056  0.17026713  0.00309455 -0.05399725
  0.01910985]
[ 0.03320315  0.00586923  0.00108313  0.08920611 -0.08685698 -0.00058646
  0.00619543 -0.04995345 -0.01236396 -0.06273171 -0.03487661 -0.04193182
 -0.02140998]
[-0.15856592 -0.05917526 -0.04974069  0.00881388 -0.02210581  0.00897578
  0.0237043   0.03291009  0.02170364  0.1873469   0.0221074   0.01291831
  0.07692541]
[ 0.13777053  0.03760273  0.04203658  0.10158107 -0.07576456 -0.00379106
 -0.00588984 -0.05011286 -0.00800135 -0.22808121 -0.02172173 -0.01387083
 -0.06591775]
[-0.04913783 -0.00322326 -0.00896642  0.02002801  0.04497364 -0.01874528
 -0.01465493 -0.10531562 -0.04895724  0.14368951 -0.08529498  0.02417557
 -0.01421616]
[-0.1249864  -0.00464518 -0.0242468  -0.00484518  0.18642686 -0.02575118
 -0.01882591 -0.11353777 -0.0633832   0.16192384 -0.09093849  0.02571899
 -0.02844519]
[-0.0017289   0.00509748 -0.00556876 -0.17164643  0.06751712  0.0015202
  0.00093775  0.07196034  0.00267563  0.1340579   0.02507596  0.02168356
 -0.03116414]
[-0.15091889 -0.0699312  -0.02890984  0.10936866 -0.08836209  0.01600802
  0.02445098  0.0524544   0.04523652  0.04922562  0.05375765 -0.04705678
  0.07695994]
[ 0.19671887  0.05138715  0.02282734 -0.15679424 -0.09445427 -0.00276009
 -0.02532937  0.01083518 -0.02257078  0.06329237 -0.03171372 -0.03795818
 -0.04246969]
[ 3.9417115e-03  3.2302011e-03  2.0400656e-02  1.6260931e-03
  7.9036593e-02  9.0840943e-03  1.8227554e-05  6.9315791e-02
  4.1395020e-02 -1.8399039e-01  8.0607384e-02  4.2009007e-02
  3.9952312e-02]
[ 0.1727686   0.08026998  0.04899372 -0.07446902  0.14705184 -0.01909921
 -0.03712289 -0.05009804 -0.03975428 -0.19216596 -0.03078302  0.06162708
 -0.09578125]
[ 0.19399825  0.03915683  0.0268757  -0.0507386  -0.15238093  0.01020826
  0.00543492  0.05048146  0.02032419 -0.10069827  0.02522109  0.00753784
 -0.05159714]
[-0.01361568  0.01903535 -0.02574719 -0.07652304  0.09793109 -0.02048239
 -0.03076809 -0.09370048 -0.0650728   0.1666997  -0.09373249 -0.02918718
 -0.00468238]
[-0.04813346  0.00323955  0.00885131  0.1508764   0.0609537  -0.01407161
 -0.00694639 -0.11549731 -0.03585641 -0.10178529 -0.06329123 -0.02693248
 -0.00346855]
[-0.11274876 -0.02346348 -0.01709548  0.01099275  0.10250228 -0.0052703
 -0.00212256 -0.00949031 -0.00378302  0.0616927  -0.00051427  0.02572207
  0.01172183]
[-0.10145187 -0.07001989 -0.04362173 -0.00371879 -0.18512565  0.02775128
  0.03787203  0.13418716  0.06594028  0.16989686  0.08460532 -0.04797568
  0.05130375]
[ 0.00980009  0.00576854  0.02148668  0.02956136  0.0705212   0.0070377
 -0.00589269  0.05209593  0.03485832 -0.20078366  0.06935436  0.01631902
  0.03509313]
[-0.03802846 -0.02301584 -0.01089637  0.06823834 -0.05544181  0.0071893
  0.00288184  0.01493107  0.02250554 -0.0123261   0.02222903 -0.0229741
  0.04767039]
[-0.1388623  -0.04664873 -0.00348652 -0.08732579  0.08841846  0.01516104
  0.02158242  0.13673574  0.05635009  0.08867288  0.10517582  0.05922237
  0.04729363]
[-0.03159633  0.01290313  0.0300644   0.01066434  0.14222418 -0.0049133
 -0.00152227 -0.00281611 -0.00266531 -0.11136997  0.01282793  0.02496153
 -0.02125909]
[ 0.02297557 -0.00553259  0.01530817  0.01553094 -0.01888658  0.01595658
  0.01588164  0.09135988  0.05360395 -0.17148122  0.09078819  0.03582727
  0.01316977]
[-0.018295    0.00931977  0.00024901  0.0106806   0.03065072 -0.01467699
 -0.0114918  -0.09633475 -0.04721302  0.10442111 -0.08502425 -0.02712091
  0.00712417]
[-0.06873089  0.00796788 -0.01386311  0.01759053  0.17266972 -0.020044
 -0.01650907 -0.09192906 -0.04749864  0.01517459 -0.05660712  0.04158222
 -0.021085  ]
[ 0.04091571  0.02924023  0.05356152  0.02122376  0.10301521 -0.01055101
 -0.01943463 -0.02435813 -0.01407498 -0.15903015 -0.00647149  0.00292414
 -0.0679339 ]
[ 0.0322389   0.02059849  0.03233755 -0.05329037  0.05205455 -0.00087888
 -0.0097305   0.01133404 -0.00059137 -0.02173038  0.00270924 -0.01015301
  0.01949455]
[-0.02619622 -0.02935769 -0.03012728  0.00825168 -0.11688834  0.01714534
  0.01936371  0.06578924  0.03540923  0.04761341  0.04421975 -0.04305567
  0.05660433]
[-0.08450367 -0.03527069 -0.01158621  0.08459336 -0.01603502  0.01804945
  0.02612783  0.0756346   0.05322908 -0.1201141   0.08131474 -0.01722061
  0.05021435]
[ 0.08649972  0.02906301 -0.02106891 -0.04063953 -0.06764878 -0.02032348
 -0.02887922 -0.12477585 -0.07535833  0.17769611 -0.12706542 -0.05034227
 -0.04307036]
[-1.13228999e-01 -1.88324284e-02  4.85632289e-03  1.37482658e-01
  1.02118738e-01  1.80786283e-05  1.13345515e-02 -2.09813192e-02
  9.70700476e-03 -1.57096371e-01  1.80537291e-02 -8.49829987e-03
  1.80406924e-02]
[ 0.0330757  -0.00884051 -0.02073818 -0.09381288 -0.10652916  0.00334602
  0.001552    0.03156655  0.00053302  0.18818869 -0.00662022  0.00468096
 -0.01440683]
[ 0.14312424  0.02712414  0.00328041 -0.0974895  -0.14689316  0.00291468
 -0.00206029  0.01301636 -0.01070386  0.08561885 -0.0252558  -0.03981398
 -0.03468644]
[ 0.05104713  0.02903731  0.005146   -0.01710073  0.07286214 -0.00676811
 -0.00639098 -0.02030609 -0.01313552 -0.09813007 -0.00737743  0.04858076
 -0.05149065]
[-0.05387989 -0.00910777 -0.02220085 -0.01252679  0.00833714 -0.01077974
 -0.00268768 -0.07804676 -0.03815437  0.19052559 -0.07369668 -0.00090304
  0.03760843]
[-0.09075494 -0.02055342 -0.05244576  0.03800793 -0.0077618  -0.01425781
 -0.00972744 -0.10314275 -0.05123274  0.22612308 -0.09491103 -0.05535539
  0.01434193]
[-0.02609169 -0.03240958 -0.01762503 -0.10557353 -0.0739248   0.02367918
  0.02413921  0.15596925  0.06272233  0.08164374  0.102888    0.00910495
  0.03314475]
[ 0.08666722  0.0389372   0.03239598 -0.02765887  0.05654048 -0.00208977
 -0.00791568 -0.0110166  -0.00125118 -0.13652986  0.00127009  0.03906274
  0.01453339]
[ 0.12778787  0.02613957  0.01011575  0.06883756 -0.12750103 -0.00093591
 -0.00079762 -0.03952538 -0.00441806 -0.10600062 -0.02414006  0.0104925
 -0.05112168]
[ 0.00025959  0.01916001  0.01137462  0.07558828  0.10358713 -0.00954538
 -0.00296564 -0.05033984 -0.01547774 -0.16996653 -0.01240942  0.04291134
 -0.05736556]
[ 0.06867341  0.02070768 -0.0271455  -0.01166207 -0.06258646 -0.00697513
 -0.01141039 -0.07072431 -0.03590265  0.0650736  -0.0650759  -0.02305701
  0.01493278]
[ 3.84630524e-02  2.93356124e-02  1.10194823e-02 -1.25238642e-01
  1.11068636e-01 -7.25729205e-03 -1.78711377e-02  5.77979442e-03
 -1.88219473e-02  3.97976339e-02 -9.61126760e-03  9.08126682e-03
  1.00775324e-04]
[ 0.04251409  0.01930623  0.00858404 -0.0092444  -0.01817849 -0.01149853
 -0.01251592 -0.07525714 -0.04173559  0.06146326 -0.071926   -0.03273555
 -0.01952698]
[ 0.08106613  0.02445718  0.04228506 -0.03681367  0.06543285  0.01178285
  0.00510843  0.11306031  0.04892358 -0.26675418  0.10638756  0.03776493
 -0.0462895 ]
[-2.6288336e-02 -2.8819328e-02 -4.7490478e-02 -3.1310685e-02
 -1.1468232e-01  7.3749153e-03  5.8217958e-04  2.3049716e-02
  8.2856352e-03  1.8611079e-01  1.4893594e-04 -3.8971025e-02
  6.2250156e-02]
[ 0.01582615  0.035064   -0.01426956  0.00066837  0.07242913 -0.03274838
 -0.02936187 -0.19457403 -0.10106088  0.17053397 -0.16640732 -0.00460127
 -0.03673793]
[-0.04324309 -0.01604847 -0.03806296  0.01784147 -0.03938869 -0.00579809
 -0.00399441 -0.04706664 -0.02548003  0.14462772 -0.04721681 -0.03184507
  0.00323834]
[-0.09744303 -0.01176533 -0.01960715  0.07034323  0.11113273 -0.00463936
  0.01020533 -0.0295566  -0.00941031 -0.06426156 -0.00229331  0.01623514
 -0.01515251]
[-0.10216798 -0.02067008  0.01068297  0.10961776  0.09411331  0.00798376
  0.01761551  0.03074129  0.03275605 -0.18391563  0.05970815  0.00200503
  0.03623972]
[-0.11702109 -0.03056089 -0.0363333  -0.01719373  0.0295393  -0.00485281
 -0.00053447 -0.02061439 -0.01833969  0.20754832 -0.0326308  -0.0302364
  0.02015875]
[-0.0442875  -0.03018073  0.01509128 -0.02196813  0.03011727  0.02328438
  0.01714697  0.16750315  0.08142479 -0.1640577   0.15249163  0.04365032
  0.02304505]
[-0.00321092 -0.03884777 -0.03709893 -0.07213008 -0.19576477  0.02611311
  0.03233035  0.13450372  0.05766715  0.16018417  0.07650895 -0.02073871
  0.0380456 ]
[ 0.0062472   0.0185134   0.01609949 -0.13265003  0.13127334 -0.00483992
 -0.01723297  0.02888277 -0.00946581  0.03909832  0.00985362  0.00805596
  0.00990205]
[ 0.105457    0.04673689  0.03171176  0.09554696  0.00742113 -0.02354045
 -0.0279873  -0.15824446 -0.06164344 -0.10194784 -0.10873225  0.00485502
 -0.05182024]
[ 0.01672736  0.00721241  0.00749953  0.0268271   0.01175682 -0.00543034
 -0.01203432 -0.02471524 -0.01320588 -0.05389253 -0.01523357 -0.0307272
 -0.0292797 ]
[ 0.00959466  0.03040526  0.02490715  0.04017671  0.17649595 -0.01468376
 -0.02212727 -0.0613455  -0.02143356 -0.17608987 -0.0158631   0.05641001
 -0.01139419]
[-0.02382594  0.01107169 -0.00795135  0.01525594  0.04091041 -0.02174048
 -0.0175013  -0.13072692 -0.06674758  0.14432456 -0.11372786 -0.02090782
 -0.02378471]
[ 0.08230325  0.02992182 -0.00699183 -0.02922067 -0.04953723 -0.0110869
 -0.01324327 -0.06658897 -0.04404741  0.07910085 -0.07545114 -0.04209139
 -0.05928542]
[ 0.1354601   0.08929483  0.06627996 -0.11526507  0.25033888 -0.03310134
 -0.05488687 -0.11611207 -0.07714889 -0.10079406 -0.08932009  0.0645602
 -0.06947427]
[-0.13309194 -0.0357357  -0.01927327 -0.03390718  0.06801336 -0.00128205
 -0.0006583   0.01298138 -0.0003204   0.16880389  0.00174293 -0.00772525
  0.04734814]
[-0.05403858 -0.034605   -0.03902323  0.04569259 -0.10939738  0.00721197
  0.01532875  0.00956875  0.01246295  0.10950002  0.00267538 -0.01840575
  0.02176075]
[ 0.09096102  0.03175396  0.01739966  0.0543653  -0.0479953  -0.01208123
 -0.0157293  -0.09732522 -0.04170388 -0.05162202 -0.07475346 -0.03594503
 -0.03063432]
[-0.06478837 -0.01904771  0.00784975 -0.11201494  0.08555103  0.00797612
  0.00847415  0.10100226  0.02959849  0.05981451  0.06888855  0.02812723
  0.01057415]
[ 0.11715955  0.02275174  0.01955714  0.06699573 -0.14187843  0.00310425
 -0.00255364 -0.04015913 -0.00249438 -0.10012642 -0.02752084 -0.04102609
  0.0233555 ]
[-0.01060377 -0.01665217 -0.0366192   0.07412732 -0.13900013  0.00265278
  0.01480247 -0.03600348 -0.01031426  0.07898775 -0.03674931 -0.05549075
 -0.0121745 ]
[ 0.03655677  0.01196894  0.01337718 -0.13442986  0.05962123  0.00346885
 -0.00947452  0.08590849  0.01258229  0.00193138  0.0502737  -0.0051316
 -0.03957901]
[-0.0717532  -0.0012465   0.01601208 -0.00575288  0.1545061  -0.01206693
 -0.01321986 -0.02235552 -0.02043388 -0.01130818 -0.01057692  0.01363268
 -0.04413582]
[-0.03169809 -0.00252003  0.01498719  0.01490146  0.06450827 -0.00281879
 -0.0014467  -0.00254902  0.00284525 -0.01914715  0.00936836  0.02691637
  0.01085886]
[ 0.13757491  0.05723985  0.00927894 -0.12359485  0.02977608 -0.02333213
 -0.03931307 -0.09207819 -0.0705106   0.11375866 -0.10366732 -0.00229753
 -0.08007806]
[ 0.09828443  0.0310345  -0.00246126 -0.14861447  0.00901433 -0.00385288
 -0.01631571  0.01438919 -0.01333919  0.0953617  -0.0107895   0.03631344
 -0.00292545]
[-0.09559991 -0.05733358 -0.05226695  0.04554404 -0.15202159  0.0145624
  0.02126448  0.04755833  0.0300515   0.16953547  0.02638135 -0.04623659
  0.04720099]
[ 0.13016361  0.01617889  0.03996552  0.07798656 -0.15454853  0.01581006
  0.00798468  0.04205136  0.04651203 -0.21387856  0.05136051  0.00101615
  0.03069293]
[ 0.1472894   0.03956087  0.01040613 -0.03653571 -0.1328658  -0.01371206
 -0.02201597 -0.10495133 -0.05447677  0.13082494 -0.1102343  -0.01766981
 -0.02620995]
[ 0.04445746 -0.00409526  0.01585002  0.16269271 -0.14500473  0.0109009
  0.01941207 -0.0046273   0.02861552 -0.18518837  0.0189811  -0.03331743
 -0.00154556]
[-0.00118798  0.00922697  0.01060217 -0.13500868  0.05741706 -0.00259912
 -0.00269659  0.01995943 -0.00893481  0.14587031 -0.0095549   0.02630276
  0.01291013]
[-0.1279284  -0.03059478  0.00239057 -0.06452248  0.12831768  0.01103013
  0.01517275  0.09573197  0.04049673  0.01752204  0.07918274  0.0330848
  0.06265859]
[ 0.12731892  0.02737013  0.04623619  0.0007841  -0.04083201  0.01045752
 -0.00427776  0.0614889   0.04056109 -0.21559672  0.06564725  0.03559141
  0.01037908]
[-0.06235778 -0.04429791 -0.00476221  0.02300458 -0.06883435  0.02081341
  0.01601948  0.11014278  0.06146974 -0.03612484  0.09656257 -0.01747308
  0.06638291]
[-0.09463184 -0.01079577 -0.01042422  0.00683608  0.09859759 -0.01170217
 -0.00387762 -0.06410213 -0.03010221  0.11582959 -0.04886359  0.01681829
  0.03108454]
[-0.13057637 -0.04066027 -0.05410538  0.111782   -0.02644325 -0.00389325
  0.00201446 -0.0707223  -0.0160334   0.12514582 -0.04833817 -0.04534651
  0.0652085 ]
[-0.0236849  -0.00811029 -0.03002748 -0.02899615 -0.02206702 -0.00138375
  0.00066022 -0.00363656 -0.01518033  0.10294405 -0.02174848 -0.04360212
 -0.02656365]
[-0.10338002 -0.01825378  0.0120105   0.03389085  0.11203082 -0.00204782
  0.01374404  0.00718419  0.0062719  -0.0320126   0.01895045  0.03560716
 -0.01816463]
[-0.05775986 -0.02543588  0.01243531 -0.05205002  0.04931898  0.0142131
  0.00604103  0.1181196   0.05326362 -0.0318391   0.09735933  0.01576133
  0.04427544]
[ 5.4785591e-02  1.0578703e-02 -7.4128744e-05 -2.0346214e-01
 -1.8820902e-02  7.9857288e-03  1.8449244e-03  9.1715887e-02
  1.5976328e-02  1.7491700e-01  3.1756934e-02  2.8184097e-02
  6.1409296e-03]
[ 0.05599602  0.00601645 -0.00808754 -0.12870543 -0.04684618  0.00828904
  0.00042785  0.06794731  0.0180127   0.11039039  0.03125003  0.02678879
  0.02786896]
[-0.02128726 -0.0035247  -0.02381256 -0.02069774 -0.00280041 -0.00851248
 -0.0019487  -0.04496868 -0.03136085  0.11742993 -0.04974576 -0.00712561
 -0.03546137]
[ 0.00665744 -0.00387861 -0.00796082  0.06647244 -0.06396184  0.00253857
  0.0111162  -0.02192633 -0.00227991 -0.04493495 -0.01060684 -0.02958641
 -0.00182889]
[-0.04251278  0.01952382  0.03422846  0.01970343  0.21114522 -0.01913606
 -0.02033056 -0.07038119 -0.03380718 -0.09127603 -0.03165514  0.0580807
 -0.02893576]
[ 0.072455   -0.0017149  -0.03280753  0.01178154 -0.19663942  0.00776817
  0.01170671 -0.00290003 -0.00032073  0.07875446 -0.02100656 -0.05225282
 -0.00211298]
[ 0.03382409 -0.01250399 -0.00919111 -0.09929615 -0.10184507  0.00963058
  0.00074468  0.07357375  0.02267727  0.13442783  0.03137024 -0.00427612
  0.00869606]
[ 0.01335094  0.02269064  0.01864574 -0.03006984  0.12234715 -0.00448901
 -0.01679362 -0.00404249 -0.00251538 -0.08898359  0.00826758  0.01839681
  0.02964612]
[-0.05090053 -0.00750296  0.00047363 -0.04803251  0.07757613 -0.00022983
 -0.00433451  0.0225922   0.00630673  0.05772001  0.01546748  0.02072999
  0.03698442]
[ 0.00937915 -0.04071372 -0.00882421  0.03385095 -0.20690922  0.03182103
  0.03198037  0.14859705  0.08248802 -0.06141853  0.11594905 -0.04284102
  0.04217128]
[ 7.4220747e-02  3.0349838e-02  1.0799487e-02 -1.1562557e-01
 -5.3547297e-05 -1.3647562e-02 -3.4183919e-02 -5.5899248e-02
 -4.6455353e-02  1.6633552e-01 -7.7319250e-02 -3.5030730e-02
  4.2815856e-03]
[-0.14541906 -0.00920651  0.00902294 -0.0353864   0.24808323 -0.01464964
 -0.00070196 -0.0259689  -0.02674138  0.04721456 -0.01355776  0.05113256
 -0.03203442]
[ 0.16718231  0.0491258   0.02052316 -0.11678321 -0.06865508 -0.00899276
 -0.02679431 -0.03086715 -0.03789583  0.06881535 -0.05887065 -0.04044041
 -0.05394511]
[-0.1037446  -0.01361245  0.00408253 -0.05402355  0.14519626 -0.00526814
 -0.00745233  0.00301821 -0.00691814  0.08731944  0.00260869  0.02068677
  0.04527365]
[ 0.07483464  0.01024706  0.02046261  0.15171906 -0.14559957  0.00501831
  0.00906945 -0.05464746  0.00758676 -0.15576491 -0.02196095 -0.02395023
  0.03375896]
[-0.03240405 -0.02086659 -0.01914598  0.04359869 -0.07773828  0.00420395
  0.01358703 -0.01510129  0.00385053  0.06048073 -0.01074694 -0.00337251
  0.04047381]
[-0.03192584 -0.0272141  -0.05860627 -0.00696843 -0.15158786  0.00226695
  0.01842016 -0.02279627 -0.01396719  0.25081348 -0.0469307  -0.02409732
 -0.00289536]
[ 0.07967659  0.03030306  0.03488921  0.02904559 -0.00307175 -0.00405777
  0.00025949 -0.02998619 -0.00667094 -0.10355982 -0.01470518  0.03353991
 -0.03816503]
[ 0.00317359  0.01422404  0.03732176 -0.0310846   0.11770076  0.00031146
  0.00284178  0.04404051  0.01224867 -0.15495117  0.04475355  0.04195842
 -0.05884594]
[ 0.05472253 -0.00152969 -0.01914423 -0.09476198 -0.12063958  0.00417312
 -0.01264232  0.02063669 -0.00403768  0.17315456 -0.01664594 -0.05492258
  0.03797612]
[ 0.07578649  0.0285265   0.04770712  0.00345801  0.03305454  0.00450652
 -0.00518731  0.03437379  0.02237015 -0.19540523  0.0387254   0.00538359
 -0.00534292]
[-0.08381169  0.02228028  0.00641358  0.12660104  0.23688352 -0.02869481
 -0.00975467 -0.16261789 -0.0663699  -0.1175804  -0.09135456  0.04781227
 -0.05722463]
[-0.05362299  0.00772831  0.01990375 -0.05168795  0.19065562 -0.00379012
 -0.01016189  0.02524635  0.00246429 -0.07929792  0.03022695  0.02068581
  0.01196967]
[ 0.06750724  0.01020279 -0.00234297 -0.05659661 -0.05659318 -0.00128422
 -0.01060542  0.00737692 -0.00783472  0.05016565 -0.00869116 -0.01118127
 -0.02380528]
[-0.02492265 -0.02516445 -0.01620531  0.00444638 -0.0928745   0.00526741
 -0.00065512  0.02438266  0.01227326  0.11252465  0.00528724 -0.04607292
  0.019089  ]
[ 0.02273522  0.00711235  0.02837911  0.00434696  0.02255123  0.00658052
  0.0045815   0.04170113  0.02372354 -0.1296345   0.04525516  0.01941654
  0.00632556]
[ 0.17672168  0.03922457  0.04235987 -0.09889031 -0.08529626  0.01308579
 -0.00243124  0.0862554   0.03365914 -0.12639606  0.05471789  0.00315726
 -0.004739  ]
[ 0.07598311  0.05495482  0.02029363 -0.12207509  0.18791178 -0.01708849
 -0.02143781 -0.03286273 -0.03944021 -0.04142343 -0.02730269  0.07239619
 -0.06112627]
[-0.05776541 -0.06362988 -0.01723445  0.04659089 -0.20390394  0.03206708
  0.03785903  0.14995442  0.08410055  0.01550904  0.11659858 -0.04334977
  0.0587605 ]
[-0.01557873  0.01866295  0.01216565 -0.0111363   0.12861446 -0.01102574
 -0.00964289 -0.03999717 -0.02535422 -0.04289325 -0.025278    0.02452446
 -0.03070638]
[-0.07937887 -0.02154411  0.00048099  0.01543391  0.08117603  0.01215361
  0.01818158  0.07215827  0.04212818 -0.11257928  0.08095099  0.04322968
  0.05309794]
[ 0.08570154  0.03516689 -0.0101009   0.05864663 -0.07139523 -0.028401
 -0.03616588 -0.20422238 -0.09498873  0.1278628  -0.17344366 -0.05938265
 -0.02829582]
[-0.06513643 -0.0313317  -0.04537197 -0.09269781 -0.02185464  0.01052043
  0.01284852  0.07001937  0.02128969  0.1726886   0.0380002   0.01467095
  0.05519636]
[ 0.08973003 -0.00191789  0.01078258 -0.03439948 -0.12384518  0.0278107
  0.01028066  0.1566823   0.07655187 -0.15953436  0.12274316 -0.03258493
  0.03041714]
[ 0.10269247  0.02688814 -0.00529123 -0.09798336 -0.07131092 -0.00212814
 -0.00784489 -0.00372576 -0.02068152  0.0896101  -0.03464071 -0.02804284
 -0.03711227]
[ 0.11487388  0.04435264  0.04076033 -0.13405184  0.09120011  0.00376482
 -0.01577504  0.08561848  0.01908379 -0.14037535  0.06099341  0.01938101
 -0.03452254]
[ 0.09345471  0.00103166 -0.02738496 -0.10772826 -0.18302818  0.00822316
  0.006147    0.04655328  0.00280247  0.1808441  -0.00460012 -0.03317599
 -0.02593317]
[ 0.13638909  0.057246    0.02438028 -0.07928745  0.04318121 -0.01301064
 -0.02361793 -0.05618813 -0.03956941 -0.03320508 -0.05452865  0.01123593
 -0.03094112]
[ 0.03363858  0.00646938  0.01072018  0.02674326 -0.05695321 -0.00480284
 -0.00202919 -0.03923105 -0.01574731  0.02911523 -0.03704588 -0.01682938
 -0.02774226]
[ 0.12226074  0.03052889 -0.01102054 -0.13252997 -0.09999494 -0.00657001
 -0.01381374 -0.03352723 -0.03882908  0.19016741 -0.06834217 -0.02128908
 -0.02102274]
[-0.03703301  0.0159668  -0.01610365  0.03139292  0.08917149 -0.02850961
 -0.02108375 -0.17086487 -0.08491775  0.13186334 -0.1367395   0.00326349
 -0.0299751 ]
[ 0.03108901  0.01313951  0.02346435 -0.06397124  0.01836552  0.00025863
 -0.00796218  0.0165778   0.00218812  0.03981365  0.00277164  0.00215338
  0.03071485]
[ 0.12811433  0.02322046 -0.01083086  0.02108735 -0.1939985  -0.00310019
 -0.00276224 -0.06689773 -0.03054283  0.07100325 -0.07618129 -0.0653661
 -0.02908021]
[ 0.03334415 -0.01048296  0.01794096  0.08102172 -0.07405763  0.01892258
  0.00646833  0.08391513  0.06094162 -0.2210089   0.09284572 -0.02430034
  0.0518843 ]
[-0.03112406 -0.01432059 -0.02287021  0.0615063  -0.04639977 -0.00085586
  0.00157146 -0.01890525 -0.00868313  0.01131215 -0.01677663 -0.04881366
 -0.03736757]
[ 0.09609938  0.00423071 -0.00837462 -0.10224999 -0.14119576  0.00980694
 -0.00640937  0.05930564  0.01753007  0.10434712  0.01940157 -0.0186727
  0.02205863]
[-0.01548141  0.02419418 -0.01330988  0.07847561  0.09089676 -0.02675154
 -0.02175753 -0.17619066 -0.07235751  0.04440263 -0.12613164  0.02361584
 -0.01004406]
[ 0.11566581  0.03192377  0.02831529 -0.20560834  0.06794681  0.00768245
 -0.01302363  0.14026381  0.03213089 -0.06072025  0.09214552  0.04641328
 -0.05836651]
[-0.04504196  0.00213579 -0.01791709 -0.03265201  0.07991289 -0.01182971
 -0.00805719 -0.05174726 -0.03143872  0.12753329 -0.04766231  0.01725775
  0.0032478 ]
[-0.04119973 -0.02165667 -0.0283597  -0.11287987 -0.00440129  0.00898849
  0.00599986  0.07997127  0.02346445  0.15704021  0.04342843  0.02819522
  0.03205415]
[-0.03449869 -0.02226684 -0.0079943  -0.04405291 -0.03072967  0.01235483
  0.01031607  0.07336891  0.03641965  0.06178044  0.0515631   0.01677608
  0.05400872]
[ 0.07192708  0.00046657  0.01339407  0.01195247 -0.15760417  0.00799418
  0.00534169  0.0270229   0.01358796  0.00338451  0.00299033 -0.05592794
 -0.0338252 ]
[-0.06001575 -0.03106017 -0.02266632 -0.13414784 -0.0280957   0.01395439
  0.01844286  0.10664124  0.03154659  0.2024613   0.05486083  0.01521602
  0.03550823]
[-0.05423646 -0.01041092  0.01631267  0.12106084  0.04366652 -0.00193284
  0.01152932 -0.02696432  0.00611189 -0.13342583  0.00861945  0.03011446
 -0.02093328]
[-0.09923603  0.01137272 -0.03066416 -0.11198942  0.22768818 -0.02534856
 -0.01404263 -0.09426858 -0.07218061  0.22315532 -0.09003408  0.05505265
 -0.02554346]
[-0.06609731  0.00128258 -0.01395311  0.09345356  0.10178113 -0.01124919
 -0.00023796 -0.08766276 -0.02865827 -0.05718061 -0.04208673  0.02136209
  0.01433871]
[-0.06534711 -0.01239318 -0.00860773  0.05245433  0.02809518 -0.00471679
  0.00269654 -0.03905467 -0.01123553  0.03269609 -0.02646405 -0.00438187
  0.00374301]
[ 0.10847849  0.0355919   0.02434341 -0.08258738  0.00933843 -0.00292852
 -0.01824441  0.01245734 -0.00990774 -0.05491087 -0.00400202 -0.02052389
 -0.03525751]
[ 0.09380256  0.0313634   0.01191755 -0.15347522 -0.01051881 -0.01236284
 -0.02235589 -0.03154831 -0.04328826  0.18181035 -0.06296703 -0.00068897
 -0.03787538]
[-0.04632982 -0.01430275 -0.00017361  0.09562057 -0.03179593 -0.0019356
  0.01246458 -0.05253918 -0.00537289  0.00518842 -0.02951163  0.00936878
  0.01945233]
[-0.11417983 -0.06000011 -0.00244868 -0.01767218 -0.0010646   0.03246912
  0.03610994  0.21809517  0.10384245 -0.09879392  0.18353008  0.01006446
  0.03555842]
[ 0.00563348  0.01035804  0.00597406 -0.0603119   0.11021555  0.00411953
 -0.00208559  0.0585229   0.02591899 -0.08524478  0.06023759  0.06740315
  0.02881648]
[-0.03430835  0.0163269   0.01417643  0.08921792  0.13774091 -0.01179812
 -0.00805731 -0.07110342 -0.0246693  -0.15448447 -0.02734507  0.00149392
 -0.01633321]
[-0.11357435 -0.05796763 -0.02284112  0.09707617 -0.06448477  0.02407959
  0.03225851  0.11427938  0.0759564  -0.0767445   0.11144328 -0.00069206
  0.04811494]
[-0.08156384 -0.03604343 -0.03750857  0.03921806 -0.10545046 -0.00027255
  0.01630892 -0.04454152 -0.01528397  0.20932546 -0.05098318 -0.02158481
  0.02111684]
[-0.06470505 -0.02018837 -0.03268803 -0.09114328  0.03035804  0.00093734
  0.00402568  0.04411392 -0.00054466  0.16481772  0.01099681 -0.00859538
 -0.02124247]
[ 0.02031076 -0.00789968  0.02277584  0.01649806 -0.04008238  0.01417342
  0.01990289  0.08121981  0.04343071 -0.14330855  0.07454206  0.01002036
 -0.01444426]
[ 0.15370542  0.05064442  0.02562662 -0.13651265 -0.00203201 -0.00708072
 -0.02977331  0.00406572 -0.0223722   0.01028741 -0.02498786 -0.01080865
 -0.0569569 ]
[ 0.05035429  0.02664373  0.03522118 -0.16422735  0.1045893  -0.0005548
 -0.0133677   0.06382111  0.00298921  0.01637787  0.03185691  0.02066721
 -0.0094581 ]
[ 0.11622461  0.05013995  0.02965254 -0.09257404  0.06771849 -0.00932772
 -0.03158793 -0.02168527 -0.02047673 -0.03894661 -0.02484808  0.01085095
  0.00198711]
[-0.10239951 -0.00143618  0.00670458  0.10855041  0.18942575 -0.0144561
 -0.01496996 -0.07516748 -0.02308904 -0.13544665 -0.02298393  0.01007918
 -0.00034304]
[ 0.0385801   0.03751326  0.03264484 -0.08963282  0.18684559 -0.01265482
 -0.01728412 -0.00061185 -0.02013532 -0.08250365  0.00507441  0.07059848
 -0.0678515 ]
[-0.01043381  0.00401336 -0.00626597 -0.16760333  0.07301095  0.00562288
  0.0036462   0.08876838  0.01404308  0.10938344  0.04099613  0.01843928
 -0.01072644]
[ 0.11812196  0.00451153  0.01577942 -0.06167483 -0.1891348   0.01705416
  0.01065434  0.09588363  0.03585843  0.00599502  0.04812875 -0.05089061
 -0.02761425]
[-0.0255477   0.03087572  0.02224371 -0.13012026  0.24092902 -0.02078312
 -0.01970194 -0.03944186 -0.04703968  0.05754619 -0.04194245  0.06373764
 -0.06513171]
[ 0.15795709  0.06586867  0.0345331  -0.14795955  0.04803324 -0.01549303
 -0.03040572 -0.04659792 -0.04911518  0.03473223 -0.06692538 -0.00878808
 -0.05568983]
[ 0.02150141  0.00945622 -0.00471456  0.18911812 -0.05525107 -0.00718486
 -0.00351294 -0.11540217 -0.02171125 -0.14528377 -0.06009667 -0.02884586
  0.01772347]
[ 0.21905278  0.07297023  0.06856734 -0.10015485  0.02572598 -0.0049427
 -0.02562706  0.01822248 -0.00716925 -0.19598018  0.0092527   0.02803924
 -0.08130892]
[-0.06010349 -0.05952132 -0.00146812  0.14243716 -0.16601422  0.03331145
  0.03504647  0.13857365  0.09831218 -0.17815599  0.13796249 -0.03568452
  0.07307257]
[ 0.10917015  0.02920456  0.00581814  0.16645302 -0.1250795  -0.00772776
 -0.01396242 -0.11690653 -0.02824025 -0.15663189 -0.07490903 -0.06269702
 -0.01756168]
[-0.07507266 -0.01077393  0.01587531 -0.06240169  0.15031491  0.00871848
  0.01690228  0.09844202  0.03692969 -0.08135041  0.08690794  0.04835688
  0.00155292]
[-0.01872752 -0.01754596 -0.01743723 -0.015007   -0.05636014  0.00766193
  0.005156    0.03451333  0.01792449  0.06602794  0.01901808 -0.01662568
  0.03898695]
[ 0.11374414  0.04933124  0.04586202 -0.01928949  0.08182438 -0.01055893
 -0.02804475 -0.03011294 -0.01943413 -0.17915456 -0.01414744 -0.00223813
 -0.04335549]
[-0.00930779 -0.03083854 -0.0188852  -0.10248466 -0.07833996  0.02347916
  0.00784582  0.15840916  0.06379355  0.06632803  0.10832185 -0.02497108
  0.06456871]
[-0.11508888 -0.01971355 -0.02387871  0.09063183  0.07730685 -0.00267952
  0.0083333  -0.0463306  -0.00701341 -0.01649406 -0.01493706 -0.00028415
  0.04972275]
[-0.08874349 -0.03381778 -0.00219079 -0.1496586   0.04983398  0.01569436
  0.0115538   0.13955371  0.04653734  0.14508268  0.08700765  0.00132615
  0.0684778 ]
[-0.01411281  0.00952329  0.01730786  0.03940823  0.10209262 -0.00956586
 -0.01102308 -0.03287456 -0.01308907 -0.10160002 -0.00736178  0.02303929
 -0.03550109]
[ 0.0150374  -0.01295802 -0.00406879  0.10357751 -0.09780414  0.01447183
  0.0152021   0.04381101  0.03799749 -0.16140804  0.05403445 -0.03232771
  0.00925917]
[ 0.01712038 -0.00129641  0.00664586 -0.07970344 -0.01190579  0.00235097
 -0.00222676  0.03650421  0.00882015  0.09516875  0.0162531   0.03048766
  0.01689245]
[-0.0465577  -0.04680112 -0.00841596  0.15086727 -0.17832503  0.0196148
  0.02388778  0.04952782  0.05259816 -0.07503282  0.05570979 -0.05303115
  0.04366015]
[ 0.09900007  0.04861233  0.00042963 -0.06568605  0.03544636 -0.02129296
 -0.02985194 -0.09831234 -0.06842487  0.07513054 -0.09873356 -0.02521596
 -0.07658748]
[-0.17442153 -0.05237657 -0.04174832 -0.08801533  0.08554251  0.0117898
  0.01739158  0.09804516  0.03381337  0.17985699  0.06622727  0.00564002
  0.07933678]
[ 0.13196729  0.06783881  0.03735235 -0.10141877  0.10394359 -0.02208209
 -0.03635008 -0.0932191  -0.06047453 -0.00188963 -0.08622198  0.02622605
 -0.03793375]
[-0.09955868 -0.01538856 -0.00469546  0.01386393  0.13374616  0.00231509
  0.00518198  0.03068163  0.02016476 -0.05117291  0.04266006  0.02936454
  0.03872814]
[-0.06129034 -0.0380674  -0.03153409  0.04487519 -0.1268201   0.00155566
  0.01052548 -0.02019801 -0.00484483  0.17244564 -0.02982715 -0.03424998
  0.00097323]
[ 0.10680447  0.04274846  0.01629604  0.04500413 -0.01021344 -0.01333832
 -0.0148835  -0.09354734 -0.04129837 -0.09933946 -0.06856723 -0.01371552
 -0.05489914]
[ 0.06787749 -0.00284171 -0.02500536  0.03346023 -0.19270371  0.00361641
  0.00557294 -0.02680827 -0.0031857   0.09359227 -0.03583985 -0.02274544
  0.0022893 ]
[-0.03706669 -0.01998365 -0.01792519  0.13483188 -0.06089392  0.00254483
  0.00791636 -0.02857857  0.00586231 -0.07384399 -0.00146094 -0.03343056
  0.00958276]
[ 0.12712657  0.01763711  0.02148866 -0.07399125 -0.10760427  0.02097561
  0.00688601  0.12021258  0.0576394  -0.10101467  0.08607259  0.00588518
  0.03015088]
[-0.13915326 -0.07462388 -0.01914378  0.07831635 -0.1141333   0.03312077
  0.04669119  0.15313278  0.09508143 -0.01269901  0.13322634 -0.01450246
  0.09124146]
[-0.05351526 -0.02071737 -0.00867997 -0.12086006  0.03647692  0.0101193
  0.01878482  0.10151722  0.02875055  0.1192964   0.06287625  0.03885582
  0.00609172]
[-0.05968256 -0.02921215 -0.02907784  0.16233462 -0.07272452  0.0088349
  0.02468112 -0.01239293  0.02170017 -0.09869295  0.0209874  -0.00778222
  0.03314016]
[-0.191683   -0.05943822 -0.02020214  0.10767985  0.10088778  0.01767323
  0.03521856  0.09708219  0.0669829  -0.13459668  0.12047079  0.04644034
  0.06288803]
[-0.0814378   0.00300979  0.02035086  0.00493548  0.18906656 -0.01132078
 -0.00027242 -0.03083962 -0.01783052 -0.04644625 -0.00697547  0.05991729
 -0.0251127 ]
[-0.13733672 -0.03808768 -0.03822074 -0.06285703  0.07853967 -0.00204486
  0.0027159   0.03057087 -0.0057617   0.18604861  0.00865519 -0.01382593
 -0.00678229]
[-0.12885293 -0.02722426  0.00124628 -0.07077441  0.13834295  0.00709763
  0.01350638  0.08698668  0.02730638  0.03552058  0.06282412  0.00592713
  0.01694717]
[ 0.10930906  0.04801102  0.0132167  -0.08249608  0.04916397 -0.01556854
 -0.02779562 -0.07022075 -0.04638219  0.0184733  -0.06393476  0.02864469
 -0.02093245]
[-0.14329575 -0.05165584 -0.05160091  0.04141542 -0.02331298  0.00393454
  0.02396557  0.00369716  0.00339848  0.14534953  0.00250756 -0.00945295
  0.02034307]
[ 0.07822102  0.03294739 -0.0267529  -0.0279384  -0.06204297 -0.0252738
 -0.02709134 -0.1645292  -0.08901358  0.23141839 -0.15945797 -0.03003503
 -0.03720238]
[-0.15887944 -0.05910716 -0.01129361 -0.03484313  0.11503608  0.02995566
  0.03205244  0.21743342  0.10542065 -0.12911822  0.19753245  0.05675289
  0.07354868]
[ 0.12366769  0.03279785  0.00519523 -0.04524511 -0.09665065 -0.00092994
 -0.00430793 -0.02132301 -0.02041576  0.00259182 -0.03845947 -0.03815782
 -0.03894179]
[ 0.10871141  0.03124954  0.06059625 -0.10186195  0.03992441  0.0112928
  0.00592746  0.12367177  0.04238384 -0.18544608  0.09428798  0.03612131
 -0.06732112]
[ 0.14230958  0.0585902  -0.01954544 -0.05171115 -0.03790985 -0.02793888
 -0.03880759 -0.17639197 -0.09714065  0.15543482 -0.16519491 -0.01694496
 -0.04470775]
[ 0.09971978  0.02243903  0.00032071 -0.03643788 -0.0679913  -0.00012525
 -0.01716113 -0.01216554 -0.00912235 -0.01076469 -0.01798289 -0.0301093
  0.02223575]
[ 0.00041215 -0.01139476  0.0307529  -0.04129545  0.01241923  0.01916464
  0.01474863  0.14562157  0.06220766 -0.1431832   0.11910611 -0.00177263
 -0.01050495]
[ 0.17718893  0.0456408   0.03524694 -0.18539779 -0.046845    0.00216319
 -0.01945152  0.06914614  0.00176881  0.02237027  0.01658748 -0.0194768
 -0.05496649]
[-0.05947617 -0.01370327  0.00609666  0.00078572  0.04085517  0.00258693
  0.00867841  0.01092817  0.01238506  0.04067271  0.01375148  0.02546538
  0.05742428]
[-0.00648634  0.00498687 -0.01524392 -0.00520696 -0.00319518 -0.00703909
  0.00115225 -0.05191508 -0.02544933  0.10469139 -0.05063253  0.00285903
  0.00125874]
[ 0.06640898 -0.0132944   0.01105616 -0.00923741 -0.16778837  0.01668739
  0.00695533  0.07854526  0.04795397  0.00896523  0.05620706  0.00604405
  0.04194389]
[ 0.00564106 -0.00249428 -0.03129447  0.08868192 -0.10744473 -0.01324032
 -0.01771688 -0.13788435 -0.05083015  0.13877417 -0.11384539 -0.06213456
  0.04491935]
[-0.03161445  0.00042326  0.00499326  0.19560851  0.01916233 -0.01166408
 -0.00760531 -0.12284568 -0.02325112 -0.14428598 -0.05701032  0.00387704
  0.02020341]
[ 0.09851725  0.02742747  0.00253551  0.02379519 -0.08071938 -0.00616464
 -0.00523438 -0.05376122 -0.02938005 -0.0325265  -0.05087093 -0.03809983
 -0.06569797]
[-0.15820438 -0.05878371 -0.01521414  0.16098967 -0.03413119  0.01204335
  0.03482442  0.02267291  0.03585686 -0.05223785  0.04433564 -0.01717622
  0.03250584]
[ 0.01478112  0.02362516  0.0230681  -0.02975346  0.12139119 -0.00778594
 -0.01378803 -0.00372747 -0.01499148 -0.1019602   0.000655    0.00342819
 -0.06102287]
[-0.00791622 -0.02750689 -0.02284375 -0.12743646 -0.10297668  0.01565478
  0.01887208  0.1107795   0.03373191  0.18657611  0.05371122 -0.00131671
  0.01049082]
[-0.01163573 -0.03557905 -0.04821988 -0.13997346 -0.16420273  0.02079969
  0.01245444  0.11671659  0.03703623  0.26189697  0.04560514 -0.06319124
  0.07635861]
[ 0.18779919  0.04684963  0.02215283 -0.04722238 -0.11320754  0.00343607
 -0.01178008  0.01057051 -0.00203537 -0.09957847 -0.00650872 -0.03536141
 -0.03633955]
[-0.01398176 -0.0195735   0.01954293  0.11040565 -0.06583531  0.01506741
  0.01840457  0.05505643  0.04711546 -0.19151333  0.06647596 -0.02485112
  0.0099627 ]
[ 0.09864164  0.04803937  0.03056845 -0.04603839  0.06654843 -0.01382275
 -0.01869033 -0.0480526  -0.03722849 -0.06644132 -0.04406911  0.00908013
 -0.08280095]
[-0.08332861 -0.00369305 -0.00521292 -0.0337684   0.13184598 -0.01745759
 -0.0135606  -0.07326765 -0.04458844  0.1371705  -0.06094127  0.02915667
 -0.00091447]
[-6.5727457e-02 -1.4180837e-04 -3.3676848e-02  3.7313323e-02
  6.1387550e-02 -1.9526627e-02 -8.7267905e-03 -1.3023411e-01
 -6.1709668e-02  1.5094270e-01 -1.0278989e-01 -3.8895993e-03
  9.1484431e-03]
[-0.214112   -0.06000331 -0.03212509  0.21114874  0.10347979  0.00358637
  0.01540555 -0.01663489  0.0282033  -0.13487585  0.04659539  0.02260308
  0.08180562]
[ 0.02822423  0.054425    0.01639612 -0.01618269  0.1510133  -0.0404646
 -0.03487838 -0.22552688 -0.11414889  0.14203091 -0.1870134   0.03871285
 -0.04791173]
[ 0.04799058  0.04970073  0.02760504  0.08256456  0.15715511 -0.02710162
 -0.02985972 -0.1561127  -0.061808   -0.17236745 -0.09138046  0.0514379
 -0.04692102]
