0.091337904,-0.010071918,0.057342537,0.0110388715,-0.11264956,0.03580588,0.020444706,0.20627789,0.1201373,-0.30593565,0.18920802,0.049897797,0.05004708,
0.079186715,0.034938075,0.044251498,-0.14636557,0.13745868,0.008825189,-0.005683023,0.13375701,0.03902159,-0.18184775,0.10370714,0.03681979,-0.044010732,
-0.023960661,0.014658631,-0.010436151,-0.025520965,0.049040396,-0.022233833,-0.01668596,-0.14022098,-0.072633885,0.22088732,-0.12807806,-0.0081793815,0.024575414,
0.03909678,0.027449897,0.017487062,0.041917756,0.047572784,-0.014708189,-0.011620633,-0.08690448,-0.03765423,-0.061828006,-0.059928607,0.02019427,-0.05096248,
-0.13896869,-0.0065783085,0.0036332475,0.08544891,0.25757188,-0.011504511,0.0052535003,-0.034645423,-0.010060001,-0.1633656,0.01537153,0.07751408,-0.039850388,
-0.09528121,-0.024778822,-0.005620607,0.007861248,0.06383564,0.0031922117,0.019894067,0.03395862,0.016698137,0.02350565,0.033299863,0.044965796,-0.008152299,
-0.1604957,-0.03357679,-0.030956727,0.29607275,0.048147164,-0.0065302504,0.02156311,-0.13424018,-0.01274786,-0.15530486,-0.04411282,0.017158056,0.061250575,
-0.086824976,-0.050823584,-0.06778271,0.09115943,-0.20337385,0.0052250605,0.019765854,-0.037118703,-0.0100492,0.23368526,-0.04993713,-0.09309576,0.015422181,
0.12642786,0.07208708,0.075986356,-0.14457802,0.21638376,-0.014846314,-0.0336009,-0.0013847923,-0.021652903,-0.16268796,0.0002821019,0.08148544,-0.05948385,
-0.21138081,-0.069243975,-0.05728208,-0.005840482,0.050212488,0.01045703,0.026662515,0.062843576,0.032106087,0.18269774,0.05137668,0.023237182,0.083588205,
0.051977128,0.0126018105,0.031805582,-0.026681244,0.012467594,0.012486139,0.0043955105,0.09094061,0.042288452,-0.17153318,0.076387376,0.0013092852,-0.012520257,
-0.024493948,0.0048692957,0.04502061,-0.004045902,0.13317741,0.0095670065,0.0076100472,0.078765094,0.047104236,-0.20018479,0.08891039,0.06092746,0.040376842,
-0.11223263,-0.044107344,-0.023728715,0.13733333,-0.036019698,0.0129286405,0.02480269,0.025895255,0.03659301,-0.07298934,0.04735475,-0.024596483,0.06239881,
0.073578365,-0.01715951,-0.015355655,0.04962245,-0.2535474,0.024743034,0.020748777,0.077916384,0.0534172,-0.03684084,0.05364614,-0.07223724,0.054000195,
-0.15976793,-0.039435808,-0.009284245,0.11666547,0.12545022,0.012393348,0.027120037,0.0565563,0.04857563,-0.18222116,0.090509236,0.03302903,0.06594956,
0.008907619,-0.028343303,-0.0061052577,-0.0007809839,-0.13364552,0.029127866,0.033794213,0.15992503,0.073227204,-0.1032045,0.12169018,-0.04147584,-0.01400083,
-0.09030291,0.012373748,0.010981971,0.103470966,0.19248469,-0.023582583,-0.0066632456,-0.14146142,-0.058822196,-0.07513715,-0.08299669,0.030619333,-0.035575848,
0.056485068,0.0053044045,0.035774343,-0.07016125,-0.017227111,0.018056955,0.013935133,0.13876441,0.052177895,-0.14685075,0.1028397,-0.0128441015,-0.039466392,
0.008931255,0.008428745,0.018948479,-0.048813384,0.06700862,-0.00045438774,-0.0015656496,0.031110903,0.004388634,-0.053793225,0.02458182,0.021913327,-0.03014725,
0.0805198,-0.008521791,-0.006592836,-0.027149383,-0.17641896,0.021229262,0.011497191,0.10550078,0.05220103,-0.025356114,0.07129603,-0.02676688,0.01879383,
-0.0058289967,0.013094477,0.025625978,0.124679804,0.09622903,-0.002016613,0.0040170564,-0.022925222,0.008310833,-0.27243522,0.026031438,0.034890305,-0.01892253,
0.13626577,0.05087897,0.05400186,-0.013338731,0.064435236,-0.003931944,-0.025078582,0.017158471,0.0023614143,-0.2554731,0.026733074,0.0042042136,-0.07326625,
0.111172356,0.021130877,0.00715744,-0.13771737,-0.09543015,-0.0007501012,-0.010601048,0.019591484,-0.014981586,0.14561261,-0.023823949,-0.023908582,-0.033348016,
-0.052402094,-0.016622778,-0.044086117,0.079431854,-0.070239075,-0.009681807,-0.0031536517,-0.105222665,-0.042650357,0.15639454,-0.08947259,-0.06379971,0.026236769,
-0.003917585,-0.024485769,-0.044166934,-0.028998902,-0.15171492,0.006182265,0.0037177713,0.0023548305,0.0040457933,0.21344957,-0.019683465,-0.01746932,0.06217618,
0.066210255,0.026064873,0.06241045,-0.006724593,0.072560534,0.008207613,0.010580145,0.077240326,0.04011743,-0.259674,0.08128871,0.062905945,-0.04589999,
-0.18995558,-0.046863817,-0.0033749095,0.14957288,0.12510487,0.0097147785,0.029207982,0.040742666,0.044466656,-0.16918671,0.076702364,0.019994192,0.03840666,
0.004652645,0.011775139,0.0067468025,0.020419063,0.053896133,-0.008814825,-0.013798314,-0.034967773,-0.02026536,-0.046481777,-0.02260374,-0.015070924,-0.04262869,
0.029561931,0.024584405,-0.03869774,0.016890768,-0.028954031,-0.031636905,-0.034080442,-0.20234634,-0.105693035,0.24993959,-0.18465677,-0.057316642,-0.041927032,
-0.023718882,0.0012720545,0.011178323,-0.1431478,0.08817351,-0.0014227001,0.0026075684,0.05445477,-0.00066146743,0.11332472,0.017930256,0.031492677,-0.039201126,
-0.12547314,-0.04654386,-0.025403176,0.020891283,0.01014966,0.014974247,0.028069347,0.07722651,0.04230294,0.01980743,0.07018584,0.0077613275,0.055725668,
0.035002034,-0.014517768,0.000829827,-0.16822028,-0.07180297,0.01740374,0.00097215123,0.13909224,0.04640433,0.12507953,0.08040282,0.0077171265,0.047840774,
0.09807442,0.04915928,-0.009223579,-0.08582397,0.029825244,-0.025976814,-0.034075677,-0.13266897,-0.08151759,0.16212542,-0.12973076,0.019644992,-0.05356652,
-0.17623228,-0.050331634,-0.0033228828,0.12305445,0.10631321,0.015702303,0.038437206,0.08162999,0.0651674,-0.16413735,0.10983868,0.06492386,0.046285328,
0.08232397,0.036969654,0.036350586,0.06271883,0.021499777,-0.00805622,-0.0037764565,-0.0657777,-0.019823523,-0.17021702,-0.03339846,0.025571745,-0.0351621,
0.052936345,0.048581183,0.036521528,-0.14030029,0.21977021,-0.020803971,-0.03148747,-0.035002925,-0.041944947,-0.010277582,-0.030754417,0.078065515,-0.05532939,
0.019558227,0.017597452,0.013845379,-0.061658196,0.050971556,-0.0030767254,-0.0039426703,-0.00039141296,-0.010585474,0.02225365,-0.011990381,-0.0072838278,-0.002707978,
-0.089145765,-0.038223527,-0.0017200931,-0.0023909595,0.030659666,0.017305136,0.01856056,0.12932806,0.06021854,-0.06895802,0.11087574,0.006409438,0.0022237706,
-0.08178174,-0.00903663,-0.021725563,-0.08200069,0.114205845,-0.0050912383,-0.0067316378,0.0021978267,-0.012053523,0.13815533,-0.009519461,0.023355965,0.030334422,
-0.09398817,0.003908873,0.015386521,0.071372524,0.16532423,-0.015318789,0.00018901388,-0.09249876,-0.030861812,-0.033860695,-0.051089887,0.048606955,0.0051436825,
-0.12253241,-0.044049054,-0.006444885,0.113042325,-0.016041992,0.011908606,0.032721415,0.023959976,0.038297,-0.039023202,0.043184187,0.02818233,0.064368434,
0.044566307,0.010655571,0.026702741,-0.07612632,0.024302436,0.007907902,0.0010721445,0.08367285,0.028126217,-0.08263697,0.0600031,0.014399438,-0.031472683,
-0.08313265,-0.02310044,-0.015297398,-0.08885498,0.048615817,0.0015502973,0.0067052254,0.04209876,0.0009709622,0.16636889,0.013515805,-0.0008179332,0.009916014,
0.0030849327,0.033397306,0.048767366,0.16436167,0.14970747,-0.020210283,-0.018309357,-0.12972479,-0.036580216,-0.26681527,-0.057172418,0.026370484,-0.04294183,
-0.067974076,-0.0071816337,-0.004848681,0.022869403,0.08651519,-0.010134783,-0.012057101,-0.052639123,-0.021101281,0.04929695,-0.031836756,0.019119829,0.026365373,
0.038177792,-0.01773935,-0.023240898,0.05847825,-0.22139971,0.012142359,0.016107436,0.007751056,0.017329644,0.070149645,-0.0066474434,-0.05366933,0.028513785,
0.013420961,0.027738826,0.024902267,0.064461775,0.11312912,-0.018622685,-0.01785085,-0.10527459,-0.0431,-0.11677067,-0.059520043,0.036077835,-0.038781352,
-0.05709538,-0.011235501,0.007867726,0.00823892,0.056229413,-0.006852681,-0.0009961975,-0.015659237,-0.009707347,0.042465042,-0.0116359955,0.023238763,-0.037045423,
0.09695863,0.020531556,0.015257755,0.058489665,-0.12188148,-0.0015428611,0.00011381446,-0.05572946,-0.0113975145,-0.03380384,-0.04331501,-0.0023200193,-0.002614075,
0.023384254,0.025759108,0.010293108,0.06776802,0.03884733,-0.022918748,-0.02599962,-0.1548912,-0.062130667,0.014979154,-0.113978416,0.004169466,-0.008184725,
-0.09298019,0.0036210818,0.027119821,0.090177745,0.20307928,-0.0148700215,0.0018378748,-0.067169234,-0.021063905,-0.13731721,-0.018361492,0.063935086,-0.039033365,
-0.086489946,-0.04938787,-0.048179768,0.115552075,-0.1624714,0.0044844537,0.014032178,-0.04363471,-0.0016664871,0.15173738,-0.034621324,-0.053140465,0.057373352,
0.087379105,0.018180588,-0.0067346483,-0.16208138,-0.07362349,-0.004959314,-0.026016362,-0.0020119136,-0.027752344,0.23045695,-0.048472404,-0.043061264,0.007021167,
-0.015735418,-0.035454698,-0.029602462,0.23872551,-0.2231917,0.019075612,0.034104615,-0.0019323538,0.044242624,-0.16073611,0.029230086,-0.05173274,0.04167954,
0.03572236,-0.002545454,-0.007564055,0.06043779,-0.13335645,-0.0030618059,0.0033725062,-0.057537757,-0.019309858,0.07112503,-0.05272985,-0.037066262,-0.012975945,
0.16161188,0.0352712,0.043030202,-0.04080068,-0.082794026,0.012521338,0.0022049667,0.078038424,0.033978455,-0.19537424,0.05973311,-0.0049902787,-0.04006306,
-0.0025891627,-0.0031572953,-0.0066427877,-0.0062239612,-0.029751934,-0.0017011515,0.007348974,-0.0037322247,-0.010325101,0.06469728,-0.014061457,-0.012801911,-0.04731211,
-0.094501145,-0.012715862,9.371596e-05,0.07164578,0.09705874,-0.00744171,-0.005433222,-0.056571152,-0.018560482,-0.03621367,-0.026076246,-0.023686782,0.039852753,
0.0767471,0.0062455237,0.013691523,-0.082715824,-0.098323345,0.0020416207,-0.008109942,0.03056039,0.0021265713,0.11127987,-0.0019135766,-0.006126822,-0.018499656,
-0.09914304,-0.016934404,0.0023309742,0.11789465,0.10860724,0.004279518,0.016518557,0.0055806423,0.025854854,-0.1773486,0.04669521,0.040445775,0.03946425,
-0.102101415,-0.033794474,-0.03717219,0.020452892,-0.0670967,-0.0030059165,0.008893974,-0.056108948,-0.024387913,0.2445178,-0.06644197,-0.05659264,0.044625215,
-0.056709804,-0.028112797,-0.065429,0.03076893,-0.12618591,-0.009372639,-0.008490596,-0.10529661,-0.047175623,0.304334,-0.10591244,-0.065699995,0.05868863,
0.065317824,0.044910513,0.02885632,0.043029457,0.108526595,-0.015385776,-0.016446145,-0.08642618,-0.03428091,-0.17078088,-0.045207873,0.043049797,-0.0423281,
-0.021947244,9.82045e-06,-0.0051145367,-0.047712043,0.043502823,-0.002383993,-0.0006125439,-0.003918117,-0.005145058,0.08544289,-0.00839591,0.022923272,0.03407128,
-0.080369756,-0.026963178,-0.05101709,-0.06811884,-0.014997874,-0.0016157143,-0.004330647,-0.005206659,-0.01584926,0.25650516,-0.030089658,-0.03437096,0.043824796,
-0.074325055,-0.01810826,0.04506623,-0.0074358173,0.1736028,0.014186391,0.009730462,0.13922049,0.073628195,-0.2378506,0.14815877,0.08992322,0.02849992,
0.07863677,0.013843231,0.0085510975,-0.015926078,-0.06193708,0.003163911,-0.009775172,0.013078519,0.006184692,-0.04149624,0.007670445,-0.011864617,0.008301348,
-0.0034479469,-0.013465326,-0.027990524,0.030390063,-0.13084078,-0.005641495,-0.0068182643,-0.08207714,-0.02932869,0.20085447,-0.079262026,-0.0266197,0.051651336,
-0.12072604,-0.033332862,-0.0015286529,0.1166942,0.05665995,-0.00076005026,0.000964932,-0.024853382,0.011337055,-0.042562492,0.009707793,-0.001697705,0.06758141,
0.061394867,0.00027579788,0.0036773128,-0.04890567,-0.096518576,0.011298767,0.016467022,0.06873353,0.025897952,0.003907314,0.041474734,0.013656357,-0.028805709,
-0.0140917925,-0.00013467454,0.020871421,-0.11566653,0.060667947,0.003122814,0.007931611,0.071152076,0.01145995,0.06724889,0.036709394,0.022865683,-0.03555123,
0.06405552,0.022208799,0.011060995,0.15413749,-0.07070668,-0.0121075,-0.014205089,-0.13793498,-0.03761081,-0.10987355,-0.08626983,-0.022285797,0.007552457,
0.050663896,0.015398413,0.034614228,-0.09364241,0.08475487,0.010515057,-0.00032066004,0.12955292,0.0421251,-0.17556249,0.10457653,0.021349305,-0.0547795,
-0.07573409,-0.025772907,-0.00048452156,-0.028168278,0.034757584,0.010169003,0.0103617925,0.07082891,0.037162922,0.04651054,0.05773506,0.027371762,0.062251206,
-0.0060379,0.01466434,0.028382363,0.07578731,0.07741028,-0.010415503,-0.008992335,-0.065712206,-0.019236483,-0.099097796,-0.030513981,0.006045438,-0.002517668,
0.14723544,0.044098407,0.0152734,-0.01880208,-0.056421347,-0.0015197493,-0.012004084,-0.013970955,-0.013557342,-0.11340144,-0.017778276,-0.030294152,-0.050909024,
-0.033257294,-0.0045437478,0.034440983,-0.08309165,0.13212931,0.009495645,-0.0034638455,0.111537784,0.047942884,-0.08970849,0.09749318,0.05108832,0.041689415,
0.05257504,0.03865598,0.03020444,0.08444117,0.054779943,-0.016671402,-0.0058690626,-0.114533834,-0.044498276,-0.12841369,-0.075683564,0.0127354,-0.065584615,
-0.066976614,-0.022188002,-0.028380055,0.0021369036,-0.018985156,0.0035947387,0.007155355,0.0008601785,0.0026014273,0.10707335,-0.007754778,-0.036291398,0.057128794,
-0.16722263,-0.0382063,-0.003089061,0.09247447,0.1628963,-0.00088125956,0.00894193,0.023229305,0.019253405,-0.107799985,0.054089207,0.031828407,-0.012533247,
-0.1064253,-0.005135334,0.022962099,0.15291205,0.20065564,-0.0018127211,0.016308878,-0.0020211968,0.020312715,-0.31059867,0.05324371,0.062268592,-0.04421032,
0.004747644,0.0062796515,-0.016827228,-0.07499857,0.016006805,-0.0015801397,0.0008543668,-0.00052021176,-0.007547687,0.12599015,-0.015301396,0.02932801,0.027452564,
-0.10750025,-0.024048125,-0.031158915,0.02774768,0.04353419,-0.01206949,-0.004984876,-0.06893866,-0.036225233,0.15887928,-0.060228467,-0.027731692,0.00063542003,
-0.015408097,0.0060418188,0.02198884,-0.03725609,0.101844616,-0.0046033305,-0.005962334,0.013024161,-0.0012614512,-0.03235779,0.014909865,0.029864259,-0.020289062,
-0.07760718,-0.016285954,-0.0035810757,0.1438468,0.06591507,-0.0012719452,0.0069631296,-0.032951735,0.008339106,-0.1544171,0.016134271,0.024140686,0.023215089,
-0.10364221,-0.03916153,0.014329862,0.03692661,0.039613497,0.020009032,0.03234259,0.11293271,0.07039665,-0.10088261,0.11422577,0.0551584,0.06811706,
-0.005270364,-0.01794073,-0.008620131,0.08177508,-0.107081674,0.006908854,0.009293887,-0.0029449293,0.015972955,-0.018057883,0.0047609075,-0.023325227,0.029831782,
-0.12538372,-0.031001223,-0.025772147,-0.060661275,0.08501268,-0.0077307224,0.0019119318,-0.0038408025,-0.019594306,0.20481959,-0.017840689,0.018318774,-0.018102136,
0.0089603,-0.020947926,-0.011594622,0.16666304,-0.13716881,0.011951271,0.012758904,0.0021195381,0.036027204,-0.15634955,0.0340608,-0.0058927825,0.0396087,
0.079672165,-0.0122864405,0.010260363,-0.20002107,-0.14817758,0.022105508,0.010030248,0.17588758,0.05553752,0.14414848,0.09150816,-0.0047179614,-0.0133860605,
-0.09586155,-0.035407502,-0.0058346605,0.08207342,-0.0025914004,0.008792201,0.01672541,0.02189514,0.029808778,-0.037585873,0.037365068,-0.0014220718,0.06597496,
0.036047544,-0.0013574952,0.007210417,-0.02832191,-0.08557611,0.0070706243,0.004437177,0.027047906,0.011777879,0.035854157,0.00814517,-0.021440232,0.0168804,
-0.20530419,-0.05019714,-0.02714089,0.15170193,0.12910746,0.0036018898,0.020361824,-0.0017371897,0.026018025,-0.09240551,0.04303567,0.023409162,0.06697538,
-0.035182215,0.003539029,0.01070175,-0.15133071,0.13654636,0.0033149612,0.0018812093,0.08311658,0.015990414,0.05905202,0.05062961,0.048161957,0.0016222899,
0.042498227,0.0054926975,-0.0111519415,0.005634442,-0.06486287,0.005573253,0.0068676136,0.0015407321,0.0058716834,-0.020663386,0.0027448738,-0.0005614269,0.03177415,
0.13252814,0.048652988,0.038713545,0.060816634,-0.022172833,-0.0090086395,-0.014343192,-0.06930299,-0.024558097,-0.17802553,-0.045119155,-0.019554147,-0.05913433,
0.072362676,0.037101775,0.024385998,0.07223497,0.037648056,-0.014978505,-0.01494097,-0.09011332,-0.038359154,-0.13985078,-0.05488414,0.002120828,-0.075569935,
-0.04882408,-0.02816365,-0.05777956,-0.009341976,-0.13102092,0.0023242924,0.010943352,-0.02258213,-0.017470868,0.24543543,-0.050142724,-0.07656583,0.020474358,
-0.04443768,0.0010413078,0.0077050296,0.12686887,0.08166316,-0.007418026,-0.006788243,-0.063975856,-0.0096365865,-0.14886338,-0.016498718,-0.0049118167,0.021651242,
0.060060613,0.0036264656,-0.021440519,-0.15279941,-0.1040828,0.00464165,-0.012052769,0.038337566,-0.003909301,0.22703317,-0.015716325,-0.047455184,0.03356076,
-0.115394875,-0.04631909,-0.01343242,0.16970941,-0.006046467,0.013099526,0.01812215,0.04346218,0.04906954,-0.1712764,0.074138656,-0.02506437,0.04142759,
0.102412924,0.031029051,0.029606674,-0.101036586,-0.03624531,-0.0017921675,-0.005121162,0.012082271,-0.014008229,0.03726644,-0.01972763,-0.020980932,-0.05192967,
0.14474812,0.0124353,0.034044083,-0.018646168,-0.1817537,0.020380408,0.015260883,0.097630166,0.054704938,-0.110763304,0.07216023,0.010927968,0.0028548331,
-0.09112726,-0.027447207,-0.0046660244,0.021921944,0.042290762,0.007776364,0.021667976,0.04973972,0.026659673,-0.0087703075,0.048903614,0.018875988,0.014725353,
0.028437616,0.0036690396,-0.006025301,0.022316651,-0.086135365,0.0004631832,0.006998885,-0.030431904,-0.011021439,0.03797842,-0.035234585,-0.03482542,-0.006508827,
0.021021256,-0.021072827,-0.02425468,-0.037717648,-0.15378444,0.013227887,0.01064939,0.05286752,0.029100224,0.13210845,0.025262536,0.0040430687,0.051444277,
0.12529448,0.034484588,0.0029993108,-0.08268067,-0.072430216,-0.0035425199,-0.018206196,-0.019244354,-0.016857695,0.08079143,-0.039989214,-0.004867235,0.0011765748,
0.018304229,0.019071108,-0.019454308,-0.07699392,-0.029409837,-0.019877976,-0.021135837,-0.13484997,-0.07994588,0.30351397,-0.14686815,-0.058749575,0.029934712,
-0.0029003294,0.011466001,-0.016852312,-0.0022383023,-0.00789917,-0.020761557,-0.014937061,-0.12925924,-0.069577254,0.18622589,-0.123220704,-0.0205815,-0.04442039,
-0.07628716,-0.003343764,-0.021454733,0.034887873,0.08654035,-0.014722137,-0.011200328,-0.10040866,-0.04426033,0.076255724,-0.073433414,-0.010292976,0.03542677,
0.0713507,0.023411486,0.011605387,-0.026066214,8.660276e-05,0.005723006,-0.0020843048,0.02477568,0.013227662,-0.110324405,0.023974447,0.0055353804,0.025330003,
-0.059069622,-0.020742895,-0.025145473,-0.11082026,0.033757195,0.011835748,0.0088932365,0.09815555,0.029993095,0.10429509,0.05878402,-0.0093954895,0.04326262,
-0.068443924,0.002268152,-0.0004432146,-0.15599807,0.19101042,-0.0075440793,-0.0020473304,0.038546916,-0.010554277,0.12573524,0.014246473,0.07128115,-0.0357782,
0.12421122,0.06819471,0.039245535,-0.026036318,0.13830608,-0.020900311,-0.03990818,-0.09259268,-0.049060702,-0.1606678,-0.061550226,0.02182367,-0.043770067,
0.059736475,0.02914438,0.036499538,-0.0083376225,0.0781451,-0.0003958691,-0.0059522237,0.018805651,0.007397892,-0.18942082,0.030116128,0.022644777,-0.029176256,
0.010195498,0.02637987,-0.013253328,-0.058354754,0.10992468,-0.02045884,-0.033581868,-0.09257961,-0.057338163,0.10222013,-0.08077466,0.001209628,0.002730981,
-0.10815391,-0.022892693,0.0142293,-0.028984813,0.14762047,0.011197198,0.023401974,0.10284227,0.046516847,-0.09235821,0.09757876,0.05742293,0.017491661,
-0.10694266,-0.024642073,-0.0072754156,0.09342234,0.060647912,-0.0035662134,0.0037437282,-0.041069064,-0.002802462,-0.022245811,-0.009986131,0.0040547545,0.040825497,
-0.082309924,-0.06785161,-0.012385453,0.050342217,-0.17592688,0.03319911,0.044274583,0.15622619,0.09233784,0.012467455,0.12749173,-0.005189239,0.07092685,
0.10466255,0.028080042,0.017659307,-0.007852069,-0.07536866,-0.00041963294,-0.00734709,-0.030039309,-0.011336949,-0.042102605,-0.029205628,-0.021048233,0.010500414,
-0.054041926,-0.03695168,-0.021648392,0.13970283,-0.11577163,0.014364503,0.025717603,0.02477589,0.036831126,-0.08204778,0.039888214,-0.032840494,0.031518117,
-0.06013503,-0.026870515,-0.02910986,-0.096747234,-0.036511827,6.8871166e-05,-0.0011239704,0.015853005,-0.009634121,0.2632544,-0.019809518,-0.021751361,0.026047572,
0.0113228,-0.0041324995,0.019611211,0.10484134,-0.016428094,0.0111057125,0.01777108,0.049824264,0.038822185,-0.24892275,0.0693973,-0.0002703497,-0.03128415,
0.04575225,0.002497882,0.0052621374,0.1928786,-0.14409176,0.003696901,0.010555697,-0.064389564,0.0037229022,-0.17058519,-0.02728638,-0.04783465,0.0037601287,
-0.06686573,-0.0494719,-0.024346936,0.12753753,-0.16219956,0.0134824505,0.017429415,0.013180396,0.034203324,0.02688179,0.022008475,-0.037151586,0.07124258,
-0.07708119,-0.02146363,-0.032429345,0.039622504,-0.037154414,-0.0076716864,0.004193615,-0.08293013,-0.03478547,0.17636295,-0.0759703,-0.03606899,0.035050947,
-0.04324706,-0.031398665,-0.034691505,-0.0566396,-0.05480383,0.0103215845,0.00595378,0.072638,0.024068812,0.117468864,0.043701448,-0.0103834355,0.021023575,
0.021026568,0.0016616245,0.019901225,-0.04573582,0.0328256,0.015113122,0.011971527,0.11594418,0.045985725,-0.15915987,0.09727979,-0.005734379,-0.011015238,
-0.12428948,-0.06635847,-0.036103208,-0.13088459,-0.0138647165,0.03239655,0.030360222,0.2305199,0.09421324,0.1105658,0.16937289,0.022323444,0.0808707,
0.026831506,-0.020669365,-0.0026703582,-0.06389697,-0.16188912,0.016647238,0.007627369,0.084397785,0.035491016,0.13301526,0.038553696,-0.04916759,0.05028374,
-0.013074183,0.01921486,0.0014609825,-0.1351288,0.15956555,-0.013554971,-0.016051773,-0.012394507,-0.03232594,0.10369108,-0.024557553,0.051788885,-0.034855627,
-0.048308525,-0.026158696,-0.0127542615,0.02705034,-0.09320703,0.0036632062,0.007564594,-0.0123961745,0.0009913354,0.14284998,-0.024290726,-0.053831663,0.05357181,
-0.093929745,-0.016034028,0.0075756754,0.1422417,0.09897367,0.0022306743,0.012537953,-0.0112748705,0.022907902,-0.19085675,0.036055982,0.042989064,0.035831336,
-0.012565985,-0.044786815,-0.021073313,-0.13330437,-0.157692,0.03658553,0.033410296,0.21846594,0.09294942,0.113036394,0.14261606,-0.015536618,0.0785395,
0.10955989,0.023439882,0.005811107,-0.13567725,-0.060619168,0.0076311803,0.00046842016,0.079325624,0.011511368,0.031942487,0.03183424,-0.009186869,-0.058821976,
0.053112656,0.021882348,0.0314065,-0.026042463,0.063470714,0.0032031692,-0.0005700704,0.054523744,0.017994463,-0.17513311,0.05166212,0.018920181,-0.06042997,
-0.13577251,-0.030207306,-0.0044156583,0.07283129,0.12375076,0.0016297683,0.009582594,0.014885014,0.01952642,-0.07523632,0.040601525,0.030796763,0.035387665,
0.09706101,-0.0069699152,-0.0055726357,-0.046808816,-0.19964686,0.018799502,0.0051493393,0.09425437,0.04517479,0.030976074,0.05496761,-0.025447663,0.02258249,
-0.04264269,-0.006798434,-0.011494495,-0.009955843,0.061159726,0.004207721,0.008440795,0.039726954,0.014387893,-0.05515206,0.03493814,0.0048454683,-0.018890098,
0.067281,0.013803216,-0.019942774,-0.04559957,-0.10646079,-0.007167398,-0.0066828993,-0.051134646,-0.034976628,0.17276208,-0.07081277,-0.023816112,-0.03881757,
-0.061624277,-0.009798959,0.007318053,0.0861482,0.076819435,0.0025459095,0.0018428513,0.0024788033,0.021097325,-0.12736149,0.032712363,0.023985257,0.048778944,
-0.057755917,-0.008274458,0.017682906,-0.0002658155,0.110566035,0.007980239,0.012071619,0.06674836,0.03571069,-0.12329203,0.0723732,0.042071074,0.02202165,
0.039819755,0.017583009,0.015507643,-0.13549888,0.08841764,0.0059339283,-0.008540769,0.095048994,0.026293147,-0.028696146,0.06510533,0.024743598,0.0014089973,
-0.0972309,0.011859462,-0.0034242212,0.1295472,0.18433398,-0.030586196,-0.029149821,-0.19509871,-0.07863501,-0.015437293,-0.12596369,-0.011937076,0.012848415,
-0.18718958,-0.038860258,-0.026123619,-0.042526875,0.1860191,-0.0027347298,0.0072658756,0.02378799,0.002955187,0.11756099,0.027674994,0.054329794,0.04702012,
-0.02483478,-0.030511899,-0.025990447,-0.0837976,-0.10789965,0.010428383,0.014707751,0.07348533,0.02116667,0.19539048,0.026851555,0.0014539626,-0.013204811,
-0.0705499,-0.029481005,0.016688677,0.056364726,0.042249925,0.012161682,0.013118175,0.08701161,0.0492337,-0.16092142,0.09507667,0.018684149,-0.0036201929,
-0.079148255,-0.051406242,-0.026810199,-0.07546691,-0.09251096,0.02317162,0.035791155,0.13642016,0.05883347,0.1530866,0.08907888,0.020249927,0.05007669,
-0.08337404,-0.037165504,-0.015004261,-0.1022104,0.004760897,0.019793855,0.023994386,0.1414287,0.05632738,0.095136635,0.09553063,0.016576933,0.04559135,
0.0592639,0.019974023,0.02593081,-0.07425306,0.0074322713,-0.0044083884,-0.018340372,0.0011320016,-0.010769947,0.031230694,-0.015307402,-0.0058310404,-0.014067484,
0.06690757,0.023963038,0.025382835,0.067245185,-0.013660405,-0.0038356346,-0.004108886,-0.047281515,-0.009975038,-0.14284162,-0.019438017,0.0043707974,-0.011241826,
-0.08668423,-0.03675453,-0.018744616,0.20828359,-0.0733771,0.008187041,0.02685611,-0.03311048,0.02417295,-0.11249856,0.01225446,-0.0056325486,0.05955528,
-0.12563765,-0.021305513,0.009490297,0.08693443,0.1323763,-0.0005219492,0.012839065,-0.0041086897,0.011127691,-0.09915053,0.025887785,0.010669215,0.026775816,
-0.124970615,-0.03958361,-0.03949238,-0.026643783,0.049001638,0.0065586376,0.014040787,0.055979192,0.017341072,0.0912142,0.041002635,-0.008700481,0.020532498,
-0.0107085,0.013058394,-0.043392263,0.024261056,-0.011464984,-0.02585748,-0.030894581,-0.1860548,-0.0889044,0.24030454,-0.16402194,-0.05686921,0.030809509,
-0.1265253,-0.037246555,-0.006185005,0.13142574,0.04506357,0.010823748,0.029510925,0.026589995,0.03944424,-0.123396195,0.058959518,0.03475423,0.061018042,
0.1005632,-0.00014160629,-0.0028948293,-0.017890912,-0.21898837,0.004308514,-0.00390768,-0.01075148,-3.734123e-05,0.13894701,-0.033217583,-0.024692878,0.024269177,
0.1431575,0.034533743,0.030098243,-0.06036153,-0.072810724,0.00029624728,-0.017210769,0.008856409,-0.0036846593,-0.055885036,-0.0072371205,-0.025888447,-0.024074825,
-0.077483945,-0.02535318,-0.025995199,-0.023701426,0.0022311877,0.0023683398,0.0071468498,0.018965611,0.0038914944,0.13136631,0.002238128,-0.018324029,0.01982027,
0.17031574,0.03809291,0.052892607,-0.023125734,-0.0904393,0.0119757615,0.0026934883,0.06568575,0.034378152,-0.20221135,0.05466727,0.009530164,-0.024936114,
-0.09628517,-0.006062589,0.00725163,0.02073881,0.17784953,-0.0042978763,-0.0013346511,0.0012317755,0.0019439893,-0.087573715,0.023326473,0.035335585,0.009087758,
-0.06524017,-0.021746965,-0.013942235,-0.1309647,0.05720906,0.008174618,-0.0030897385,0.09223155,0.02528392,0.14267959,0.054539,0.006470439,0.055479676,
0.063250184,0.018880833,0.004889611,-0.08834343,-0.009181441,0.000135198,-0.0008308185,0.025271637,-0.004620497,0.024819756,0.0014646677,0.01777823,-0.049177382,
0.12835886,0.027310258,-0.0028174967,-0.044660848,-0.18611847,-0.0064649107,-0.0073792404,-0.0773909,-0.042921383,0.18136585,-0.10174939,-0.054133583,-0.01788916,
0.05889289,-0.0049183294,0.029424489,-0.03381371,-0.059536923,0.02367893,0.01834377,0.14946152,0.07179937,-0.18025161,0.12711716,0.026329234,0.003927668,
-0.012271671,-0.017400661,-0.007936798,-0.05194034,-0.06045221,0.010289959,0.012746682,0.069244325,0.022671528,0.067389175,0.035592582,-0.025299171,-0.010836664,
0.107277185,0.024827542,0.033602666,-0.11312805,-0.03494507,0.004953033,-0.0123845115,0.05520334,0.015037505,0.009972136,0.025293378,0.009430665,0.013159623,
-0.029165108,-0.011439037,-0.0056444076,-0.011135782,-0.0205072,0.0003579854,-0.004141836,-0.009422368,-0.002084554,0.084414296,-0.01503896,-0.020286057,0.046610054,
-0.012563909,-0.018755823,-0.00017640759,0.022419529,-0.043101322,0.017942416,0.01794907,0.09462399,0.05170629,-0.115824685,0.08570192,-0.010034326,0.02127016,
-0.24454018,-0.061421763,-0.05305637,0.040083133,0.11628858,-0.0045948564,0.014541245,-0.011910709,-0.010593778,0.18927582,-0.009111033,-0.0153288655,0.012487423,
0.14658369,0.029529003,0.013568523,-0.1315111,-0.09316832,0.0035084498,-0.0135938395,0.046468604,0.003359164,0.052010667,0.0075198524,0.005901263,-0.02980151,
-0.20054473,-0.047650043,-0.039532345,0.07418156,0.11204336,-0.00232995,0.015564304,-0.020957505,-0.0030410383,0.06534094,0.0010345678,0.0121418275,0.035111636,
-0.034924466,0.005082745,-0.0167801,0.013581062,0.08300808,-0.0124382535,-0.014122975,-0.07024161,-0.03023533,0.045624033,-0.04523709,0.031545408,0.019720253,
-0.12758617,-0.016873386,0.007846492,-0.010687364,0.2144574,-0.003198812,0.009446728,0.0357494,0.009247306,-0.078340955,0.051100682,0.07069215,-0.029474571,
-0.047922328,-0.009370586,-0.024934987,0.20941253,-0.024385355,-0.012975552,-0.005575864,-0.14356546,-0.0355145,-0.07391718,-0.078578256,-0.0147775365,0.012710201,
0.036598597,0.018638993,-0.0021900064,-0.1568814,0.033784397,-0.0056952257,-0.022549376,0.0027382644,-0.024044404,0.17988731,-0.03083296,-0.022357304,0.031030282,
0.034698844,0.023985462,0.018467996,0.10271768,0.037158463,-0.0089566875,-0.008020104,-0.07605122,-0.020552002,-0.16111669,-0.0359262,-0.011185389,-0.013512195,
0.13192137,0.032488644,0.013837352,0.013404624,-0.07363924,-0.0030329982,-0.018017214,-0.01991236,-0.012217841,-0.1061284,-0.016685667,-0.03718717,-0.050745137,
-0.13120465,-0.052549966,-0.043783553,0.10579238,-0.036477953,0.012732624,0.038267743,0.0445956,0.035160813,-0.017048297,0.05283116,0.002948965,-0.001134572,
-0.061923653,-0.040418122,-0.014353625,0.084724955,-0.079112254,0.020959454,0.028980885,0.080816336,0.0627686,-0.080982104,0.08513522,0.014823601,0.07213763,
-0.040966276,0.006365369,0.015821405,0.014898353,0.1324707,-0.0005679973,-0.001640499,0.013859266,0.008377557,-0.13723148,0.028616542,0.01484417,0.001383258,
0.09321152,0.016406227,-0.0057043866,0.0040342533,-0.12907599,-0.0018760724,-0.005413077,-0.03576228,-0.0145703275,0.051443163,-0.043308143,-0.02107284,-0.023281947,
0.040144842,-0.005299013,-0.00739226,0.022033343,-0.14348632,0.0018027802,0.0020414717,-0.02001704,-0.0031897747,0.10263938,-0.029114157,-0.022340214,0.004622875,
-0.12511182,-0.03049403,-0.05751011,0.116341434,-0.041504383,-0.017803676,0.005776385,-0.15633465,-0.06573494,0.23420198,-0.13021263,-0.041497983,-0.012792037,
0.13944189,0.036048032,0.031683613,-0.13145454,-0.06288131,-0.00079670886,-0.008278416,0.029692963,-0.008606265,0.054141268,-0.010321204,-0.00483316,-0.06547322,
0.15725327,0.029558184,0.044963058,-0.10398233,-0.04888326,0.019450812,0.0028762994,0.14958069,0.061759964,-0.20021461,0.116406694,0.033657636,-0.025212329,
0.122765474,0.04714907,0.0075351913,-0.05479531,-0.002788301,-0.010036024,-0.022808468,-0.05221829,-0.038164116,-0.020288434,-0.055623982,-0.03482228,-0.03348566,
-0.030439232,-0.04217231,-0.04529072,-0.08177175,-0.17434913,0.0237462,0.024923885,0.11831292,0.048835583,0.20340061,0.05839166,-0.044339906,0.06458432,
-0.08614772,-0.016123727,-0.025150256,-0.076485194,0.08567858,-0.00906924,-0.006743751,-0.007569416,-0.026886268,0.17518659,-0.025771279,-0.01347144,-0.03041988,
0.069452964,0.02855332,0.008886487,-0.04603419,0.013611481,-0.008413944,-0.005534843,-0.034585252,-0.026644044,0.02359641,-0.035268724,0.027204046,-0.042424824,
0.03872722,0.030815799,0.031772576,0.070364125,0.11804793,-0.0068783164,-0.0070967083,-0.021953063,-0.0022083994,-0.25643983,0.015226061,0.04208522,-0.06203733,
0.09156372,0.051548082,0.02373027,-0.17065589,0.084445745,-0.018999549,-0.02924283,-0.0607888,-0.05856531,0.16314268,-0.08401122,0.011221731,-0.0319594,
-0.05906009,-0.032734502,0.016735945,0.032271307,0.039409023,0.026660187,0.02713251,0.17649631,0.09390313,-0.25547788,0.17050627,0.03186448,0.014245116,
-0.0037929204,-0.0032300185,-0.032793462,-0.0018581034,-0.07344194,-0.006872724,0.004297496,-0.05736929,-0.036185253,0.16084851,-0.06900325,-0.04428855,-0.03885742,
0.120777674,0.052663602,0.044014383,-0.06783586,0.11151071,-0.008276008,-0.02222028,0.00944822,-0.010484882,-0.17942026,0.013683064,0.03194456,-0.07465852,
0.06467731,-0.011516168,-0.012843576,-0.07757669,-0.1568603,0.023840677,0.018512735,0.13638729,0.05398123,0.0121279275,0.08528723,-0.03701956,0.0050049084,
0.15285242,0.03891035,-0.002139693,-0.13816984,-0.09125094,-0.0067965738,-0.024131995,-0.021343945,-0.033316202,0.1374809,-0.056883443,-0.02658946,-0.030526955,
-0.035545286,-0.042366512,-0.012263577,-0.09222435,-0.10476072,0.021507414,0.020256734,0.14124534,0.057918623,0.1238561,0.09133763,0.009505189,0.03534759,
-0.06158764,-0.015901126,-0.0049967254,0.027577968,0.017616631,0.0034079172,0.014702554,0.006404925,0.009577737,0.007841098,0.010561859,0.00989363,0.020457873,
0.1177147,0.04564447,0.015798952,-0.091925174,-0.014771971,-0.018986495,-0.032631036,-0.09643869,-0.06433123,0.12956092,-0.10561051,-0.027879702,-0.028101806,
0.15622048,0.037497524,0.01213618,-0.119822,-0.116349146,-0.005603056,-0.025053814,-0.021789415,-0.03047548,0.13216095,-0.05672099,-0.039573908,-0.027156925,
-0.100091495,-0.02834864,-0.07184203,-0.0147074545,-0.0597791,-0.011088719,0.004406997,-0.09516346,-0.055545747,0.3428942,-0.10913625,-0.05167146,0.009070854,
0.060244996,0.022855911,0.040430874,0.09185164,0.015039753,-0.0006461822,-0.0019035938,-0.013850624,0.007608976,-0.23585027,0.015817508,0.0070290742,-0.038134232,
0.111980416,0.0031521094,0.008365265,-0.1051734,-0.16870269,0.018031297,0.008440015,0.108834304,0.038212195,0.04067528,0.057097353,-0.02415651,-0.003709138,
0.10810474,0.05257083,0.022561008,0.0168766,0.01705733,-0.027682774,-0.03849559,-0.1656712,-0.083309434,0.024060523,-0.13839851,-0.038214996,-0.04889806,
-0.06078915,0.0077386396,-0.005282469,0.072047316,0.106682226,-0.022158174,-0.020092119,-0.1339332,-0.057816166,0.052270263,-0.09395283,-0.0057235346,-0.0053071757,
0.0009341501,0.026142664,0.010844392,0.008135785,0.14289787,-0.009664422,-0.0037762295,-0.03303484,-0.021361144,-0.12400804,-0.010739022,0.02828313,-0.05067733,
0.19034113,0.06092707,0.0027612955,0.008328368,-0.10101633,-0.015286521,-0.0239292,-0.117615506,-0.061351657,-0.041396786,-0.10721421,-0.052260984,-0.073561706,
-0.040062483,-0.04284888,-0.00259639,0.12807968,-0.13846147,0.020059394,0.020748511,0.060309403,0.058115613,-0.10965088,0.0723154,-0.025770407,0.072397366,
-0.078072086,-0.028439151,-0.01539322,0.2539343,-0.057548728,0.0052405316,0.02733117,-0.050823726,0.018567119,-0.19839215,0.0056069936,-0.007556587,0.005570849,
0.05367624,-0.005615757,0.019062676,-0.02095453,-0.10763249,0.018217154,0.017005827,0.08615557,0.050622594,-0.04977197,0.066666074,0.022054957,0.046481743,
-0.10996194,-0.025501993,-0.010078411,-0.15108944,0.14543474,0.0057751574,0.003305025,0.10887486,0.025938084,0.12696388,0.069867976,0.03128255,0.01960436,
-0.029442584,-0.010323219,-0.038182393,0.0064892713,-0.03758631,-0.0011893573,0.0022622803,-0.034870844,-0.017354451,0.0978291,-0.034761027,-0.028182646,0.03081634,
-9.1010756e-05,0.012142451,0.009381627,0.026267542,0.049254213,-0.009215152,-0.008460016,-0.04855943,-0.020496488,-0.013899143,-0.03414668,0.007885771,-0.020160984,
-0.10129098,-0.056738175,-0.023910442,0.097884625,-0.112518415,0.015086205,0.025319422,0.05186002,0.04316923,0.031798873,0.05154885,-0.009540882,0.0326977,
0.11418049,0.011109733,0.014107494,0.038986493,-0.16395222,0.01013077,0.004175015,0.023378912,0.022650603,-0.08930687,0.017530836,-0.0295604,-0.0007716536,
-0.018963702,-0.00915016,-0.01825923,-0.11000648,-0.010336999,-0.0023754495,-0.0021775782,0.02101676,-0.016821595,0.19525991,-0.016417937,-0.024700562,-0.03176086,
0.054910675,0.0035578914,0.00072955753,0.010107053,-0.11404099,0.00065115804,-0.004386883,-0.02620513,-0.007809805,0.046845563,-0.031784996,-0.03924211,0.018464979,
-0.098320216,-0.030699866,-0.066275105,0.07058517,-0.07918074,-0.012701991,-0.006947077,-0.12360118,-0.055241007,0.2647965,-0.114675,-0.07569479,0.025985427,
-0.04520943,-0.003259864,-0.018669538,-0.13928549,0.0918312,-0.003076133,-0.013894022,0.026146807,-0.010130539,0.17381072,-0.003539277,-0.011248818,0.046028547,
0.035488274,0.0017451753,-0.027637433,0.037623797,-0.10954258,-0.006268548,-0.008414955,-0.0691346,-0.02788762,0.101318225,-0.065209165,-0.030439494,-0.0074914866,
-0.16789311,-0.049774513,-0.02430012,-0.050345406,0.11095909,0.010091105,0.017016176,0.09690812,0.04104237,0.08945449,0.079987064,0.047791246,0.049818333,
0.18680988,0.05191906,0.011177962,-0.048312794,-0.09319035,-0.009110004,-0.022788247,-0.053820975,-0.033621445,-0.022194184,-0.058938034,-0.00063409354,-0.068550795,
-0.111866325,-0.036963478,-0.029445836,0.111777775,-0.017157376,0.0013799566,0.014939144,-0.03155613,0.005677899,0.029431205,-0.007899153,0.0008439632,0.036723815,
-0.20175037,-0.058681414,-0.0152345365,0.05930554,0.14877701,0.023846162,0.039560486,0.15317671,0.086634465,-0.17649637,0.16174285,0.047791168,0.063887045,
-0.029266065,0.01639574,-0.00047895053,-0.11390254,0.13998207,-0.01911954,-0.025369793,-0.065361045,-0.056055043,0.16835384,-0.072007045,-0.0016798333,-0.0012298229,
-0.045162566,0.014174502,0.02285536,0.03656202,0.1562627,-0.008197491,0.002577693,-0.028586442,-0.015479795,-0.14063561,-0.005713323,0.015324743,-0.05387508,
-0.065432675,0.005581679,-0.026571253,-0.055599604,0.13477576,-0.017815188,-0.017208835,-0.08201667,-0.04777597,0.16458753,-0.07132249,0.0418325,0.0206448,
0.057621572,0.006819584,-0.012421568,-0.08044859,-0.112204835,-0.006581325,-0.01479134,-0.047704775,-0.03522633,0.22980158,-0.07317637,-0.032249216,0.0129393805,
-0.048487075,-0.05125301,-0.016635837,0.0480279,-0.16421416,0.02703585,0.03500522,0.11474176,0.07243462,0.0044456483,0.09503266,-0.0052521345,0.0703892,
-0.09302437,-0.060441375,-0.014118514,0.12819503,-0.14799286,0.025292225,0.035613045,0.09622883,0.07044609,-0.06333593,0.090473995,-0.04019734,0.04244571,
0.097080655,0.0065712994,0.009801005,-0.05185198,-0.100463465,0.016839778,0.0076675885,0.09963997,0.04779245,-0.0863392,0.0759139,0.025746152,0.0031764864,
-0.06393503,-0.031058796,0.00801591,-0.029470528,0.026839912,0.02517987,0.03398028,0.17313655,0.078956194,-0.12768514,0.14531079,0.021810886,-0.00014123571,
-0.15721825,-0.03329194,-0.012920395,0.019730471,0.12672561,-0.002847224,-0.003650333,-0.0016935639,0.0017531633,0.071866386,0.0077871075,-0.006723574,0.05914526,
0.07861719,0.03912592,0.030062443,-0.02978608,0.06977771,-0.0055916696,-0.016816726,-0.020084228,-0.010749712,-0.11061559,-0.011027896,0.0096255345,0.0027751816,
-0.039500017,0.00061038946,0.012902453,-0.04087686,0.10835908,0.0023923432,0.0048349705,0.04551381,0.01662097,-0.04499399,0.040205028,0.034396634,-0.00215201,
-0.06785847,-0.026483404,-0.01563695,0.16901414,-0.035961334,0.0064508654,0.021973923,-0.012103609,0.022740921,-0.12984253,0.023513453,-0.0011859495,0.009997238,
0.12242817,0.0384629,0.009119865,-0.11020504,-0.04164884,-0.0024279612,-0.017220844,0.00031624362,-0.016315218,0.056319524,-0.029826377,-0.031126937,-0.014755468,
0.110774845,0.008656613,0.031113356,-0.1486406,-0.104229555,0.020688077,0.011833995,0.15985161,0.055198915,-0.014444043,0.095656715,-0.000109630666,-0.038573783,
0.05747974,0.023681656,0.040602136,-0.00089157675,0.083450794,0.012819238,0.009053703,0.100041516,0.05317948,-0.2897601,0.10535536,0.051279016,-0.016706342,
-0.12537666,-0.00297257,-0.034858484,0.026371542,0.16645348,-0.02232276,-0.01643088,-0.1293076,-0.06452234,0.12903686,-0.09789855,-0.008565632,0.022150664,
-0.14881162,-0.03056735,-0.037648987,0.17911737,0.05050705,-0.009111346,0.0043010735,-0.109201215,-0.025356222,0.00017119783,-0.057740998,-0.03543532,0.052483764,
0.02163051,0.025478946,-0.0077859573,-0.12684864,0.11318182,-0.013900464,-0.029850934,-0.036959503,-0.03540624,0.12805873,-0.043556713,0.043968976,0.018306617,
-0.057524443,-0.033650003,0.0056350306,-0.010440935,0.01178397,0.02083245,0.020392451,0.13416195,0.07040147,-0.09281165,0.124550544,0.047177482,0.056162663,
-0.03935104,0.0021215694,0.010178942,-0.08516221,0.16125168,-0.0017203087,-0.003655912,0.06038845,0.013086642,-0.040662255,0.05283194,0.07072293,-0.042023644,
0.09109969,0.027218731,-0.02010402,0.047233876,-0.1331125,-0.018976413,-0.02375438,-0.17090887,-0.07562697,0.14632498,-0.15182936,-0.06008219,0.0057226694,
0.16078246,0.050767194,0.01585187,-0.12424382,-0.03563536,-0.007342488,-0.015808804,-0.020280669,-0.028409885,0.045562744,-0.041650515,0.02722978,-0.05128582,
0.24580696,0.07652615,0.07613166,-0.12487866,-0.026903523,0.0024261244,-0.016100358,0.050296206,0.0070128753,-0.18569891,0.021113984,0.005433538,-0.07558301,
0.114980824,0.005510073,-0.031404387,-0.113285415,-0.24235015,0.007137193,0.0009607221,0.025497515,-0.010950843,0.2490242,-0.03723997,-0.08341352,-0.027614255,
0.012968372,-0.03638072,-0.01585784,-0.106544465,-0.12309354,0.03284751,0.024538316,0.21911757,0.09342706,0.0013441958,0.15847586,0.011763573,0.021675188,
-0.11623561,-0.03712081,0.0004076038,0.025405848,0.0462724,0.011469095,0.023886858,0.08168538,0.038564473,-0.025524085,0.07249069,-0.0010871678,-0.002304733,
0.018907558,-0.008369258,0.01942949,-0.090219654,0.0071119857,0.023690837,0.010983821,0.1725118,0.075620115,-0.115641646,0.13624142,0.019575274,0.033114776,
0.22770062,0.06696515,0.040742993,-0.16617215,-0.05326454,-0.0067065675,-0.035987165,-0.0002810077,-0.024998683,0.012727565,-0.033900965,-0.0036962237,-0.04449693,
-0.107994765,-0.032206684,-0.038251348,0.1805904,-0.045880206,-0.0021291622,0.019751998,-0.09265932,-0.012744066,0.0070698364,-0.047409043,-0.008083532,0.048703123,
0.047449715,0.028736524,0.042753156,-0.04845671,0.109413125,0.0016880105,-0.0027759813,0.05253657,0.01363361,-0.17533392,0.04903086,0.017185979,-0.0456754,
0.059861712,0.008190313,0.026000729,0.00769258,-0.052925065,0.0117089525,0.0009898517,0.053672735,0.032261416,-0.13237964,0.04762042,-0.022443153,0.02766795,
-0.23699433,-0.05619114,-0.049544018,0.0042239586,0.13955322,-0.00040109674,0.019885799,0.00264136,0.0025769372,0.18563388,0.0068924143,0.028505512,0.075920515,
-0.034706004,-0.016985297,0.0016066949,-0.13100976,0.035552334,0.009989401,0.0088865515,0.108242385,0.03447355,0.0956718,0.067556545,0.04734602,0.0061033224,
-0.14260802,-0.031738885,-0.017643718,-0.019120011,0.10477729,-0.00089960976,0.0077947923,0.004855922,4.7060057e-05,0.11417969,0.0053439806,0.020442015,0.058777593,
0.18524048,0.053971905,0.04470047,-0.105875425,0.016309874,0.005048199,-0.01952647,0.08203354,0.020959074,-0.21516545,0.06279451,0.016495384,-0.0682727,
-0.11739335,-0.03612573,-0.052564353,0.13076924,-0.09246014,-0.011801608,0.01178156,-0.14646369,-0.051535424,0.23822516,-0.1192623,-0.04386201,0.043233488,
0.0109533295,0.03201167,-0.002036137,-0.05046641,0.1142378,-0.026019432,-0.023318794,-0.12733425,-0.073107176,0.11829444,-0.11170966,0.037546933,-0.047415588,
0.110806495,0.060333084,0.05813746,-0.067947306,0.1414913,-0.01878156,-0.030836739,-0.05664639,-0.03831911,-0.10944739,-0.04243305,0.054522473,-0.06555231,
0.028058488,-0.0044455454,-0.002652593,-0.14752863,-0.052595742,0.009064354,0.010754793,0.0823835,0.01576087,0.15116718,0.03156388,0.010261136,-0.005360712,
-0.08834332,-0.0037891744,0.016222328,0.021412576,0.19998726,-0.0026989013,-0.005340694,0.012956841,0.012116559,-0.14400831,0.041338433,0.0414734,0.035649773,
0.15677422,0.060038045,0.012179293,-0.12440872,0.00024840733,-0.014291116,-0.023767788,-0.066974536,-0.052225474,0.071592815,-0.07913519,0.0118854875,-0.032860026,
0.15510869,0.09217133,0.037001763,0.060155295,0.14224273,-0.039581433,-0.051892716,-0.22494587,-0.104955554,-0.16467871,-0.1597665,0.0122989295,-0.095684774,
0.0063526873,0.023316113,0.013447751,0.012440938,0.124555536,-0.012108208,-0.019304462,-0.04295888,-0.024214692,-0.09584753,-0.020418277,0.015736582,-0.03911477,
-0.06602654,-0.03714091,-0.025064372,0.07394422,-0.12338147,0.0050016185,0.016878916,-0.015825696,0.0057770293,0.12067079,-0.01890281,-0.028935434,0.022716727,
0.04626625,0.013479083,0.028766587,0.028243735,2.3980883e-05,-0.00018480732,0.0062856236,-0.0006445845,0.0058119153,-0.12412751,0.01172017,0.03628419,-0.042429466,
-0.045447633,-0.031575464,-0.0058954433,0.025288355,-0.051229727,0.027363423,0.029747503,0.14192073,0.07416219,-0.13780169,0.122205,-0.029526282,0.041007668,
0.12524584,0.04453353,0.040009983,-0.019331152,-0.011600597,-0.0041594175,-0.014361791,-0.027998712,-0.0146341,-0.109181724,-0.02633463,-0.025858259,-0.014909762,
-0.0043137465,0.0070838146,-0.010801147,-0.049550373,0.0695269,-0.0040082023,-0.0009239864,0.009121382,-0.009184588,0.009223516,0.0046188976,0.021878297,-0.038901683,
0.015189071,0.01352255,0.0022704743,0.143141,-0.0008851018,-0.0070760543,-0.0076315533,-0.09211381,-0.016287306,-0.13696995,-0.042562436,-0.006622107,0.02535617,
0.15669769,0.035977513,0.009916899,0.006499026,-0.1371495,-3.0200768e-05,-0.008402439,-0.040606212,-0.014650023,-0.061165266,-0.037541248,-0.025073566,-0.0051329224,
-0.026251888,-0.014975368,-0.012747273,0.012677039,-0.03357292,0.0057283742,0.008465821,0.024122508,0.015161895,0.029260494,0.019090917,-0.001885988,0.016096307,
-0.12075083,-0.04684562,-0.015909566,0.055909134,-0.018107282,0.018570129,0.026587745,0.08557666,0.055016577,-0.0109563,0.07766825,-0.02221395,0.07087085,
0.030726017,0.02802684,0.030444192,-0.12322376,0.1311995,-0.009742901,-0.018332127,0.0072095157,-0.020676753,0.01427163,-0.0065213875,0.032995865,-0.043007895,
-0.13052002,-0.007875593,-0.014551511,0.10947655,0.1552054,-0.01708569,-0.0006121013,-0.10574913,-0.042119656,-0.015757313,-0.06184923,0.0052629863,-0.026051456,
-0.036982216,0.013852502,-0.0024247814,0.08735805,0.1013318,-0.022414759,-0.01583469,-0.13063161,-0.056549374,-0.01568597,-0.088129655,0.011869876,-0.056838643,
-0.13619846,-0.013514475,0.0009619511,0.039554246,0.16714925,-0.011447963,2.0790429e-05,-0.057749562,-0.023720328,0.020630928,-0.032810543,0.010594914,0.01703794,
-0.04098753,0.008322911,0.03335503,-0.03362795,0.20814393,0.0024464533,0.0058096065,0.06865313,0.029875647,-0.19663005,0.082187906,0.08880446,-0.010711214,
0.13219027,0.03685049,-0.009702042,-0.1836327,-0.044516474,-0.008895463,-0.026489306,-0.008654253,-0.037047964,0.18392318,-0.04978783,0.0044525736,-0.04533164,
-0.043991618,-0.0014185924,0.0063923574,0.026187327,0.11863026,0.0018471528,-0.0047158366,0.029840617,0.019528015,-0.14526203,0.047973577,0.017264854,0.016751708,
-0.06757349,-0.008765137,-0.013136824,-0.051680267,0.10503703,-0.0072805746,-0.010984509,0.0009909447,-0.017373923,0.071843475,-0.006022289,-0.012858151,-0.021719126,
-0.012315994,-0.009789308,-0.058576275,0.064925365,-0.1490098,-0.015570352,-0.0041975304,-0.14633437,-0.06990506,0.264911,-0.14112152,-0.07853017,-0.024128955,
-0.007926389,0.0073984065,-0.016483804,-0.11661033,0.0356209,-0.009165725,-0.0057753404,-0.022315614,-0.035338916,0.20164146,-0.048405092,0.0101037165,-0.029958425,
0.05861998,-0.008185282,-0.0013118142,0.108707234,-0.17276148,0.018643856,0.024823925,0.044747904,0.044342358,-0.16589122,0.04977237,-0.02828576,0.012467574,
-0.035527963,-0.034438137,-0.006811662,-0.13261594,-0.053471375,0.026687952,0.028478151,0.180922,0.07350268,0.09184346,0.121886626,0.022833386,0.05562095,
-0.102736846,-0.060878117,-0.052322753,-0.10176519,-0.107687786,0.027430596,0.031904235,0.15731254,0.063132614,0.21999072,0.094127744,-0.03678958,0.091153845,
0.014695976,0.010796028,0.011082639,-0.030229907,0.05456999,0.0039546588,-0.0037326245,0.03544227,0.015362121,-0.086274706,0.0325151,0.0006039425,0.018879887,
0.09288,0.016318489,0.061513856,-0.03783843,0.022708805,0.019197972,-0.0010967185,0.1520066,0.07482559,-0.2802712,0.13892713,0.0271344,0.007887571,
0.07032022,-0.006679216,0.017213259,0.0005646051,-0.11586765,0.020471841,0.013135839,0.10700471,0.061638117,-0.12870552,0.09285299,0.01687559,0.02562722,
-0.006991887,-0.0020720137,-0.020971289,0.14786483,-0.05268888,-0.0036905396,0.009806326,-0.086200595,-0.015643481,-0.08274936,-0.04181779,0.00559817,0.008528385,
-0.09807664,-0.017179823,-0.037392214,-0.04974271,0.08012308,-0.014519376,-0.012590769,-0.059375573,-0.041565932,0.22783639,-0.0622758,0.005037437,0.004908217,
0.063835844,-0.016111616,0.008997954,-0.12805504,-0.11523217,0.037063275,0.02690302,0.24019791,0.10327972,-0.06737068,0.17355564,-0.004514438,0.042943627,
-0.05742989,-0.02589176,-0.02621773,0.07504438,-0.09501328,-0.0046092435,0.007833175,-0.07664629,-0.024149386,0.15635727,-0.06499131,-0.021524202,0.03212808,
0.063285656,-0.007576802,-0.0260019,-0.07834507,-0.19692595,0.0137515515,0.012130619,0.053929668,0.016090557,0.17026713,0.0030945528,-0.05399725,0.019109849,
0.033203155,0.0058692303,0.0010831315,0.089206114,-0.086856976,-0.0005864561,0.0061954255,-0.049953446,-0.012363962,-0.062731706,-0.034876615,-0.04193182,-0.021409975,
-0.15856592,-0.059175264,-0.049740687,0.008813877,-0.022105807,0.008975782,0.0237043,0.03291009,0.02170364,0.1873469,0.022107404,0.012918307,0.07692541,
0.13777053,0.037602726,0.04203658,0.10158107,-0.07576456,-0.0037910556,-0.0058898386,-0.050112862,-0.008001345,-0.22808121,-0.02172173,-0.013870832,-0.06591775,
-0.049137827,-0.0032232553,-0.008966421,0.020028006,0.04497364,-0.018745275,-0.014654931,-0.10531562,-0.048957244,0.14368951,-0.08529498,0.024175571,-0.014216161,
-0.1249864,-0.004645179,-0.024246803,-0.0048451847,0.18642686,-0.025751177,-0.018825905,-0.113537766,-0.0633832,0.16192384,-0.09093849,0.025718985,-0.02844519,
-0.0017289032,0.0050974838,-0.0055687646,-0.17164643,0.06751712,0.0015201998,0.0009377468,0.071960345,0.0026756322,0.1340579,0.025075963,0.021683557,-0.031164143,
-0.15091889,-0.0699312,-0.028909842,0.10936866,-0.08836209,0.016008023,0.024450982,0.0524544,0.045236524,0.049225617,0.05375765,-0.04705678,0.07695994,
0.19671887,0.051387146,0.022827342,-0.15679424,-0.09445427,-0.0027600862,-0.025329372,0.010835175,-0.02257078,0.06329237,-0.031713724,-0.03795818,-0.042469688,
0.0039417115,0.003230201,0.020400656,0.001626093,0.07903659,0.009084094,1.8227554e-05,0.06931579,0.04139502,-0.18399039,0.080607384,0.042009007,0.03995231,
0.1727686,0.08026998,0.04899372,-0.074469015,0.14705184,-0.019099213,-0.03712289,-0.05009804,-0.039754275,-0.19216596,-0.030783024,0.061627075,-0.09578125,
0.19399825,0.039156828,0.026875695,-0.050738603,-0.15238093,0.010208263,0.0054349224,0.050481465,0.020324191,-0.10069827,0.025221089,0.0075378367,-0.051597137,
-0.013615682,0.019035347,-0.025747187,-0.076523036,0.09793109,-0.020482395,-0.03076809,-0.093700476,-0.0650728,0.1666997,-0.09373249,-0.029187178,-0.004682379,
-0.048133463,0.0032395467,0.008851315,0.1508764,0.060953703,-0.014071613,-0.0069463863,-0.11549731,-0.035856407,-0.101785295,-0.06329123,-0.026932484,-0.0034685486,
-0.112748764,-0.02346348,-0.017095482,0.010992751,0.10250228,-0.0052703037,-0.0021225628,-0.009490314,-0.0037830172,0.0616927,-0.00051426806,0.025722072,0.011721831,
-0.101451874,-0.07001989,-0.043621726,-0.0037187946,-0.18512565,0.027751282,0.037872028,0.13418716,0.065940276,0.16989686,0.08460532,-0.047975678,0.051303748,
0.009800093,0.0057685403,0.021486675,0.029561363,0.0705212,0.007037695,-0.0058926865,0.05209593,0.034858316,-0.20078366,0.069354355,0.016319023,0.035093132,
-0.038028456,-0.023015836,-0.010896369,0.06823834,-0.05544181,0.0071893022,0.0028818373,0.01493107,0.022505544,-0.012326095,0.022229025,-0.022974096,0.04767039,
-0.1388623,-0.046648726,-0.0034865234,-0.08732579,0.08841846,0.015161041,0.021582419,0.13673574,0.05635009,0.088672884,0.10517582,0.059222367,0.047293633,
-0.031596333,0.01290313,0.030064397,0.010664339,0.14222418,-0.0049133026,-0.0015222686,-0.0028161057,-0.0026653055,-0.11136997,0.012827934,0.024961531,-0.021259086,
0.022975573,-0.005532585,0.015308174,0.015530943,-0.018886583,0.015956577,0.01588164,0.091359876,0.053603947,-0.17148122,0.09078819,0.035827268,0.013169772,
-0.018295001,0.009319773,0.00024901473,0.010680602,0.03065072,-0.014676993,-0.011491798,-0.09633475,-0.047213018,0.10442111,-0.085024245,-0.02712091,0.0071241744,
-0.06873089,0.007967877,-0.013863114,0.017590532,0.17266972,-0.020044003,-0.016509067,-0.09192906,-0.047498636,0.015174594,-0.05660712,0.041582223,-0.021084996,
0.040915705,0.029240232,0.053561524,0.021223763,0.10301521,-0.010551009,-0.019434625,-0.024358127,-0.014074978,-0.15903015,-0.0064714877,0.0029241415,-0.0679339,
0.032238904,0.02059849,0.032337554,-0.053290375,0.052054554,-0.000878878,-0.009730504,0.011334038,-0.0005913745,-0.021730376,0.0027092386,-0.010153008,0.019494547,
-0.026196215,-0.029357689,-0.030127281,0.008251685,-0.116888344,0.017145343,0.01936371,0.06578924,0.035409227,0.04761341,0.044219747,-0.043055672,0.056604326,
-0.084503666,-0.035270695,-0.0115862135,0.084593356,-0.016035024,0.018049445,0.026127832,0.0756346,0.053229082,-0.1201141,0.08131474,-0.017220605,0.05021435,
0.08649972,0.029063012,-0.02106891,-0.040639535,-0.067648776,-0.020323476,-0.028879218,-0.12477585,-0.07535833,0.17769611,-0.12706542,-0.05034227,-0.04307036,
-0.113229,-0.018832428,0.004856323,0.13748266,0.10211874,1.8078628e-05,0.0113345515,-0.02098132,0.009707005,-0.15709637,0.01805373,-0.0084983,0.018040692,
0.0330757,-0.008840505,-0.020738179,-0.093812875,-0.10652916,0.003346024,0.0015519963,0.031566553,0.00053302344,0.18818869,-0.0066202236,0.0046809637,-0.014406825,
0.14312424,0.027124139,0.0032804098,-0.0974895,-0.14689316,0.0029146755,-0.002060285,0.013016359,-0.010703856,0.08561885,-0.0252558,-0.039813977,-0.034686435,
0.051047128,0.029037308,0.0051459977,-0.01710073,0.07286214,-0.006768111,-0.0063909814,-0.020306094,-0.013135524,-0.09813007,-0.0073774327,0.04858076,-0.051490653,
-0.053879894,-0.009107773,-0.022200845,-0.012526785,0.008337138,-0.01077974,-0.0026876824,-0.07804676,-0.03815437,0.19052559,-0.07369668,-0.0009030372,0.037608434,
-0.09075494,-0.020553425,-0.05244576,0.03800793,-0.007761795,-0.014257812,-0.009727438,-0.10314275,-0.051232737,0.22612308,-0.09491103,-0.05535539,0.014341931,
-0.026091687,-0.03240958,-0.017625032,-0.105573535,-0.0739248,0.02367918,0.02413921,0.15596925,0.062722325,0.08164374,0.102888,0.009104951,0.033144753,
0.086667225,0.038937204,0.032395978,-0.027658869,0.056540478,-0.002089769,-0.007915677,-0.0110166,-0.0012511836,-0.13652986,0.001270088,0.03906274,0.014533391,
0.12778787,0.026139574,0.010115747,0.06883756,-0.12750103,-0.0009359107,-0.00079761766,-0.039525382,-0.004418065,-0.106000625,-0.02414006,0.010492497,-0.051121682,
0.00025959226,0.019160012,0.011374624,0.07558828,0.10358713,-0.009545381,-0.002965639,-0.050339844,-0.015477742,-0.16996653,-0.012409417,0.042911343,-0.057365555,
0.06867341,0.020707676,-0.027145505,-0.011662065,-0.06258646,-0.0069751274,-0.011410388,-0.07072431,-0.035902653,0.0650736,-0.065075904,-0.023057008,0.014932783,
0.038463052,0.029335612,0.011019482,-0.12523864,0.111068636,-0.007257292,-0.017871138,0.0057797944,-0.018821947,0.039797634,-0.009611268,0.009081267,0.00010077532,
0.042514093,0.019306226,0.008584043,-0.009244405,-0.018178489,-0.011498527,-0.012515923,-0.07525714,-0.041735593,0.06146326,-0.071926,-0.032735553,-0.019526977,
0.08106613,0.024457177,0.04228506,-0.036813673,0.065432854,0.011782852,0.005108431,0.11306031,0.04892358,-0.26675418,0.10638756,0.037764926,-0.046289496,
-0.026288336,-0.028819328,-0.047490478,-0.031310685,-0.11468232,0.0073749153,0.0005821796,0.023049716,0.008285635,0.1861108,0.00014893594,-0.038971025,0.062250156,
0.015826147,0.035063997,-0.014269557,0.0006683665,0.07242913,-0.032748375,-0.029361866,-0.19457403,-0.10106088,0.17053397,-0.16640732,-0.0046012686,-0.036737934,
-0.04324309,-0.016048472,-0.038062956,0.017841468,-0.039388694,-0.005798092,-0.003994413,-0.047066636,-0.025480034,0.14462772,-0.047216814,-0.03184507,0.003238339,
-0.09744303,-0.011765329,-0.019607155,0.070343226,0.111132726,-0.0046393564,0.010205329,-0.029556597,-0.009410311,-0.06426156,-0.0022933132,0.016235141,-0.015152509,
-0.10216798,-0.020670077,0.010682972,0.10961776,0.09411331,0.007983756,0.017615506,0.030741286,0.032756053,-0.18391563,0.059708152,0.002005034,0.036239717,
-0.11702109,-0.030560892,-0.036333296,-0.01719373,0.029539298,-0.0048528095,-0.0005344745,-0.02061439,-0.018339692,0.20754832,-0.0326308,-0.030236399,0.020158753,
-0.044287495,-0.030180728,0.015091276,-0.021968132,0.030117266,0.023284385,0.017146973,0.16750315,0.08142479,-0.1640577,0.15249163,0.043650318,0.023045046,
-0.003210923,-0.038847774,-0.037098926,-0.072130084,-0.19576477,0.026113106,0.032330345,0.13450372,0.05766715,0.16018417,0.076508954,-0.02073871,0.038045604,
0.0062471973,0.018513402,0.016099488,-0.13265003,0.13127334,-0.0048399214,-0.017232975,0.028882772,-0.009465813,0.039098322,0.009853621,0.008055962,0.009902045,
0.105457,0.046736892,0.031711765,0.09554696,0.007421129,-0.02354045,-0.027987301,-0.15824446,-0.06164344,-0.101947844,-0.108732246,0.004855016,-0.05182024,
0.016727356,0.0072124097,0.0074995286,0.026827095,0.011756822,-0.0054303403,-0.01203432,-0.024715243,-0.01320588,-0.053892527,-0.0152335735,-0.030727198,-0.029279698,
0.009594659,0.030405255,0.024907155,0.04017671,0.17649595,-0.014683757,-0.02212727,-0.061345495,-0.021433558,-0.17608987,-0.015863096,0.056410007,-0.011394189,
-0.023825938,0.011071694,-0.007951346,0.0152559355,0.040910408,-0.02174048,-0.017501304,-0.13072692,-0.066747576,0.14432456,-0.11372786,-0.02090782,-0.02378471,
0.08230325,0.029921822,-0.0069918334,-0.029220669,-0.049537227,-0.0110869,-0.013243266,-0.06658897,-0.04404741,0.07910085,-0.075451136,-0.04209139,-0.059285425,
0.1354601,0.08929483,0.066279955,-0.11526507,0.25033888,-0.03310134,-0.054886874,-0.11611207,-0.07714889,-0.10079406,-0.089320086,0.0645602,-0.06947427,
-0.13309194,-0.0357357,-0.019273272,-0.03390718,0.06801336,-0.0012820523,-0.00065830036,0.012981383,-0.00032040424,0.16880389,0.0017429334,-0.007725247,0.04734814,
-0.05403858,-0.034604996,-0.039023228,0.045692585,-0.10939738,0.0072119744,0.015328755,0.009568753,0.01246295,0.10950002,0.0026753764,-0.018405752,0.021760747,
0.090961024,0.031753957,0.017399661,0.054365303,-0.047995295,-0.012081228,-0.015729303,-0.09732522,-0.04170388,-0.051622022,-0.074753456,-0.035945028,-0.030634325,
-0.06478837,-0.01904771,0.007849755,-0.11201494,0.08555103,0.007976123,0.008474152,0.10100226,0.029598495,0.059814505,0.06888855,0.028127227,0.010574145,
0.117159545,0.022751736,0.019557144,0.066995725,-0.14187843,0.003104254,-0.0025536434,-0.04015913,-0.00249438,-0.10012642,-0.027520843,-0.041026086,0.023355504,
-0.010603774,-0.016652167,-0.0366192,0.07412732,-0.13900013,0.0026527818,0.014802467,-0.03600348,-0.010314263,0.078987755,-0.036749315,-0.05549075,-0.012174501,
0.03655677,0.011968936,0.013377181,-0.13442986,0.059621233,0.0034688506,-0.00947452,0.085908495,0.012582293,0.001931383,0.050273698,-0.0051315967,-0.03957901,
-0.0717532,-0.0012464974,0.01601208,-0.005752878,0.1545061,-0.012066931,-0.013219856,-0.022355521,-0.020433884,-0.011308183,-0.010576921,0.013632678,-0.044135824,
-0.03169809,-0.0025200257,0.01498719,0.014901462,0.06450827,-0.0028187865,-0.0014466991,-0.0025490213,0.0028452533,-0.019147146,0.009368357,0.026916374,0.010858856,
0.13757491,0.057239853,0.009278936,-0.12359485,0.029776078,-0.023332128,-0.039313074,-0.092078194,-0.0705106,0.11375866,-0.10366732,-0.0022975316,-0.08007806,
0.09828443,0.0310345,-0.002461263,-0.14861447,0.009014328,-0.0038528813,-0.016315706,0.014389188,-0.013339185,0.0953617,-0.0107895,0.03631344,-0.0029254511,
-0.09559991,-0.057333585,-0.052266948,0.04554404,-0.15202159,0.014562398,0.021264482,0.047558334,0.030051501,0.16953547,0.026381353,-0.04623659,0.04720099,
0.13016361,0.016178895,0.03996552,0.07798656,-0.15454853,0.015810063,0.007984682,0.042051356,0.046512026,-0.21387856,0.051360507,0.0010161477,0.030692931,
0.1472894,0.039560873,0.010406135,-0.03653571,-0.1328658,-0.013712064,-0.022015972,-0.10495133,-0.054476768,0.13082494,-0.1102343,-0.017669808,-0.026209949,
0.04445746,-0.004095262,0.01585002,0.16269271,-0.14500473,0.010900902,0.019412072,-0.0046273023,0.028615518,-0.18518837,0.018981095,-0.033317428,-0.0015455552,
-0.0011879815,0.009226972,0.010602169,-0.13500868,0.057417057,-0.0025991248,-0.0026965896,0.019959431,-0.00893481,0.14587031,-0.0095549,0.026302764,0.012910134,
-0.1279284,-0.030594775,0.0023905726,-0.064522475,0.12831768,0.011030129,0.015172751,0.095731966,0.040496726,0.017522044,0.079182744,0.033084802,0.06265859,
0.12731892,0.027370125,0.046236195,0.00078410225,-0.04083201,0.0104575185,-0.0042777555,0.061488904,0.040561087,-0.21559672,0.06564725,0.03559141,0.010379075,
-0.06235778,-0.04429791,-0.0047622095,0.023004584,-0.06883435,0.020813411,0.016019478,0.11014278,0.061469737,-0.036124837,0.09656257,-0.017473081,0.066382915,
-0.09463184,-0.010795766,-0.010424215,0.006836081,0.09859759,-0.011702166,-0.003877616,-0.06410213,-0.030102212,0.115829594,-0.04886359,0.01681829,0.031084538,
-0.13057637,-0.040660266,-0.054105382,0.111782,-0.026443247,-0.0038932543,0.0020144635,-0.0707223,-0.016033398,0.12514582,-0.04833817,-0.045346506,0.0652085,
-0.023684904,-0.00811029,-0.030027475,-0.028996145,-0.02206702,-0.0013837547,0.00066021533,-0.0036365562,-0.015180334,0.10294405,-0.021748481,-0.043602116,-0.026563648,
-0.103380024,-0.018253779,0.012010504,0.03389085,0.11203082,-0.0020478175,0.013744043,0.0071841897,0.006271903,-0.032012604,0.018950455,0.035607163,-0.01816463,
-0.05775986,-0.025435878,0.012435311,-0.052050017,0.049318984,0.014213102,0.006041034,0.1181196,0.05326362,-0.031839103,0.09735933,0.015761333,0.04427544,
0.05478559,0.010578703,-7.4128744e-05,-0.20346214,-0.018820902,0.007985729,0.0018449244,0.09171589,0.015976328,0.174917,0.031756934,0.028184097,0.0061409296,
0.055996016,0.006016454,-0.008087535,-0.12870543,-0.046846177,0.008289036,0.00042785337,0.067947306,0.018012702,0.110390395,0.03125003,0.02678879,0.027868964,
-0.02128726,-0.0035246979,-0.023812557,-0.020697745,-0.0028004085,-0.008512479,-0.0019486999,-0.044968676,-0.03136085,0.117429934,-0.049745765,-0.0071256086,-0.03546137,
0.006657443,-0.0038786053,-0.007960819,0.06647244,-0.06396184,0.0025385746,0.011116196,-0.021926334,-0.00227991,-0.04493495,-0.010606839,-0.029586408,-0.0018288855,
-0.042512782,0.01952382,0.034228463,0.01970343,0.21114522,-0.01913606,-0.020330561,-0.070381194,-0.03380718,-0.091276035,-0.031655144,0.058080703,-0.028935764,
0.072455004,-0.0017149007,-0.032807525,0.011781544,-0.19663942,0.0077681704,0.011706713,-0.00290003,-0.00032072884,0.07875446,-0.02100656,-0.05225282,-0.0021129833,
0.033824094,-0.012503992,-0.009191105,-0.09929615,-0.10184507,0.009630581,0.0007446824,0.07357375,0.02267727,0.13442783,0.031370245,-0.004276116,0.008696062,
0.013350945,0.022690643,0.018645737,-0.03006984,0.12234715,-0.0044890065,-0.016793622,-0.0040424885,-0.0025153826,-0.08898359,0.008267579,0.018396813,0.029646115,
-0.05090053,-0.0075029647,0.00047362963,-0.048032507,0.07757613,-0.00022982917,-0.0043345056,0.022592198,0.0063067265,0.057720013,0.015467483,0.020729987,0.036984418,
0.009379154,-0.040713724,-0.00882421,0.033850953,-0.20690922,0.03182103,0.031980366,0.14859705,0.082488015,-0.06141853,0.11594905,-0.042841025,0.042171285,
0.07422075,0.030349838,0.010799487,-0.11562557,-5.3547297e-05,-0.013647562,-0.03418392,-0.055899248,-0.046455353,0.16633552,-0.07731925,-0.03503073,0.0042815856,
-0.14541906,-0.009206509,0.009022937,-0.0353864,0.24808323,-0.014649638,-0.00070195674,-0.0259689,-0.026741376,0.047214556,-0.013557756,0.05113256,-0.03203442,
0.16718231,0.0491258,0.020523155,-0.11678321,-0.06865508,-0.0089927595,-0.026794305,-0.030867146,-0.037895832,0.06881535,-0.058870655,-0.040440414,-0.053945113,
-0.103744596,-0.013612446,0.0040825284,-0.05402355,0.14519626,-0.0052681384,-0.0074523315,0.0030182148,-0.0069181393,0.08731944,0.002608691,0.020686766,0.04527365,
0.07483464,0.010247062,0.020462612,0.15171906,-0.14559957,0.0050183116,0.0090694465,-0.054647457,0.0075867586,-0.15576491,-0.021960948,-0.02395023,0.03375896,
-0.032404047,-0.020866586,-0.019145977,0.043598685,-0.07773828,0.004203953,0.013587028,-0.0151012875,0.0038505301,0.060480725,-0.01074694,-0.0033725125,0.040473808,
-0.03192584,-0.027214104,-0.05860627,-0.006968435,-0.15158786,0.0022669518,0.01842016,-0.02279627,-0.013967188,0.25081348,-0.0469307,-0.024097318,-0.0028953594,
0.07967659,0.030303065,0.034889206,0.029045595,-0.003071751,-0.0040577664,0.0002594907,-0.029986192,-0.0066709407,-0.10355982,-0.01470518,0.033539906,-0.038165033,
0.003173585,0.014224039,0.037321765,-0.031084603,0.117700756,0.00031145828,0.0028417849,0.04404051,0.0122486735,-0.15495117,0.04475355,0.041958418,-0.058845937,
0.054722525,-0.0015296938,-0.019144233,-0.09476198,-0.120639585,0.0041731177,-0.012642321,0.020636689,-0.004037678,0.17315456,-0.016645936,-0.054922577,0.037976123,
0.075786486,0.028526498,0.047707118,0.003458012,0.033054538,0.0045065195,-0.005187314,0.034373786,0.022370152,-0.19540523,0.038725402,0.005383587,-0.005342924,
-0.083811685,0.02228028,0.0064135753,0.12660104,0.23688352,-0.028694812,-0.009754674,-0.16261789,-0.0663699,-0.1175804,-0.091354564,0.047812272,-0.05722463,
-0.053622995,0.0077283145,0.019903746,-0.05168795,0.19065562,-0.0037901152,-0.010161891,0.025246352,0.0024642854,-0.07929792,0.030226948,0.020685809,0.011969671,
0.06750724,0.010202789,-0.0023429692,-0.05659661,-0.056593176,-0.001284217,-0.010605417,0.0073769204,-0.00783472,0.050165646,-0.008691155,-0.011181267,-0.023805285,
-0.02492265,-0.025164453,-0.016205315,0.004446382,-0.0928745,0.0052674096,-0.0006551218,0.024382658,0.012273259,0.11252465,0.0052872403,-0.04607292,0.019089002,
0.02273522,0.007112351,0.028379107,0.00434696,0.022551235,0.0065805186,0.004581496,0.041701127,0.023723535,-0.1296345,0.045255158,0.019416537,0.0063255588,
0.17672168,0.039224565,0.042359874,-0.09889031,-0.08529626,0.013085793,-0.0024312404,0.0862554,0.03365914,-0.12639606,0.05471789,0.003157259,-0.004739003,
0.07598311,0.054954823,0.020293627,-0.12207509,0.18791178,-0.017088486,-0.021437813,-0.032862727,-0.039440207,-0.04142343,-0.027302694,0.07239619,-0.061126273,
-0.057765413,-0.06362988,-0.017234452,0.046590894,-0.20390394,0.032067083,0.037859026,0.14995442,0.08410055,0.015509041,0.11659858,-0.043349773,0.0587605,
-0.015578729,0.018662952,0.012165652,-0.011136305,0.12861446,-0.011025743,-0.009642891,-0.039997168,-0.025354221,-0.04289325,-0.025278002,0.024524461,-0.030706376,
-0.079378866,-0.02154411,0.0004809861,0.015433909,0.08117603,0.012153611,0.018181575,0.07215827,0.04212818,-0.11257928,0.08095099,0.04322968,0.05309794,
0.08570154,0.03516689,-0.010100899,0.058646627,-0.07139523,-0.028401,-0.036165882,-0.20422238,-0.094988726,0.1278628,-0.17344366,-0.05938265,-0.028295819,
-0.065136425,-0.031331703,-0.04537197,-0.09269781,-0.021854637,0.010520435,0.012848521,0.07001937,0.021289691,0.1726886,0.038000196,0.014670953,0.055196356,
0.08973003,-0.001917887,0.010782582,-0.034399483,-0.12384518,0.027810704,0.010280659,0.1566823,0.07655187,-0.15953436,0.12274316,-0.032584928,0.03041714,
0.10269247,0.026888136,-0.0052912296,-0.09798336,-0.071310915,-0.0021281422,-0.0078448905,-0.0037257622,-0.02068152,0.0896101,-0.034640715,-0.028042838,-0.037112266,
0.11487388,0.044352636,0.040760335,-0.13405184,0.09120011,0.0037648191,-0.01577504,0.08561848,0.019083789,-0.14037535,0.060993407,0.019381015,-0.03452254,
0.09345471,0.0010316627,-0.027384961,-0.10772826,-0.18302818,0.008223156,0.0061470047,0.04655328,0.0028024684,0.1808441,-0.0046001235,-0.033175994,-0.025933173,
0.13638909,0.057245996,0.024380276,-0.079287454,0.04318121,-0.013010643,-0.02361793,-0.05618813,-0.03956941,-0.03320508,-0.054528654,0.011235925,-0.03094112,
0.03363858,0.0064693787,0.01072018,0.026743256,-0.05695321,-0.0048028445,-0.0020291945,-0.03923105,-0.01574731,0.029115228,-0.037045877,-0.016829379,-0.027742261,
0.12226074,0.030528888,-0.011020537,-0.13252997,-0.09999494,-0.006570009,-0.013813742,-0.033527233,-0.038829084,0.19016741,-0.06834217,-0.02128908,-0.021022744,
-0.037033014,0.0159668,-0.016103648,0.031392924,0.08917149,-0.028509615,-0.021083754,-0.17086487,-0.084917754,0.13186334,-0.1367395,0.00326349,-0.0299751,
0.031089006,0.013139513,0.023464354,-0.06397124,0.018365517,0.0002586304,-0.007962183,0.0165778,0.0021881238,0.039813653,0.0027716425,0.0021533833,0.030714849,
0.12811433,0.023220465,-0.010830862,0.021087352,-0.1939985,-0.0031001873,-0.0027622378,-0.066897735,-0.030542828,0.07100325,-0.076181285,-0.0653661,-0.029080214,
0.033344153,-0.010482957,0.017940965,0.08102172,-0.07405763,0.018922582,0.006468326,0.08391513,0.06094162,-0.2210089,0.09284572,-0.02430034,0.0518843,
-0.03112406,-0.014320593,-0.02287021,0.061506297,-0.04639977,-0.00085586164,0.0015714564,-0.018905247,-0.00868313,0.011312152,-0.016776634,-0.04881366,-0.037367575,
0.096099384,0.0042307125,-0.008374619,-0.10224999,-0.14119576,0.00980694,-0.0064093666,0.059305638,0.017530069,0.104347125,0.01940157,-0.018672701,0.022058634,
-0.015481409,0.024194175,-0.013309885,0.07847561,0.090896755,-0.026751537,-0.02175753,-0.17619066,-0.072357506,0.04440263,-0.12613164,0.02361584,-0.010044055,
0.11566581,0.031923775,0.028315293,-0.20560834,0.06794681,0.007682451,-0.013023628,0.14026381,0.032130893,-0.060720254,0.09214552,0.046413276,-0.058366507,
-0.04504196,0.0021357927,-0.017917095,-0.032652013,0.079912886,-0.011829708,-0.008057188,-0.051747262,-0.031438723,0.12753329,-0.047662314,0.01725775,0.0032478021,
-0.04119973,-0.021656673,-0.028359696,-0.11287987,-0.0044012917,0.008988486,0.0059998604,0.07997127,0.023464454,0.15704021,0.04342843,0.02819522,0.03205415,
-0.034498688,-0.022266844,-0.007994301,-0.044052906,-0.030729666,0.012354835,0.010316074,0.07336891,0.03641965,0.06178044,0.051563095,0.016776085,0.05400872,
0.07192708,0.00046656904,0.013394067,0.011952474,-0.15760417,0.007994178,0.0053416872,0.027022896,0.013587964,0.003384511,0.0029903322,-0.055927936,-0.0338252,
-0.060015753,-0.031060167,-0.022666324,-0.13414784,-0.028095698,0.013954392,0.018442858,0.10664124,0.03154659,0.2024613,0.05486083,0.015216022,0.035508227,
-0.054236457,-0.010410918,0.016312674,0.12106084,0.04366652,-0.0019328444,0.011529317,-0.02696432,0.006111889,-0.13342583,0.008619449,0.030114459,-0.020933278,
-0.099236034,0.011372716,-0.030664157,-0.11198942,0.22768818,-0.025348559,-0.014042631,-0.094268575,-0.07218061,0.22315532,-0.09003408,0.055052653,-0.025543464,
-0.06609731,0.0012825793,-0.013953111,0.093453564,0.10178113,-0.011249192,-0.00023795811,-0.08766276,-0.028658267,-0.057180606,-0.042086728,0.021362092,0.014338711,
-0.065347105,-0.012393178,-0.008607728,0.05245433,0.028095178,-0.004716785,0.002696541,-0.03905467,-0.01123553,0.032696087,-0.026464047,-0.0043818736,0.0037430087,
0.10847849,0.0355919,0.024343409,-0.082587376,0.009338433,-0.002928523,-0.018244406,0.012457337,-0.009907736,-0.054910872,-0.0040020244,-0.020523893,-0.035257515,
0.09380256,0.0313634,0.011917549,-0.15347522,-0.010518808,-0.012362837,-0.022355886,-0.031548314,-0.043288257,0.18181035,-0.06296703,-0.0006889678,-0.037875384,
-0.046329822,-0.014302755,-0.00017361024,0.09562057,-0.031795934,-0.0019355968,0.012464579,-0.052539185,-0.0053728865,0.005188416,-0.029511629,0.00936878,0.019452328,
-0.114179835,-0.060000107,-0.0024486769,-0.017672183,-0.0010645959,0.032469116,0.036109943,0.21809517,0.10384245,-0.09879392,0.18353008,0.010064456,0.03555842,
0.0056334757,0.010358039,0.0059740604,-0.060311902,0.11021555,0.0041195326,-0.0020855928,0.0585229,0.02591899,-0.08524478,0.06023759,0.067403145,0.028816478,
-0.034308348,0.016326899,0.014176428,0.08921792,0.13774091,-0.011798116,-0.008057306,-0.07110342,-0.024669303,-0.15448447,-0.027345074,0.0014939238,-0.016333206,
-0.11357435,-0.057967633,-0.022841118,0.09707617,-0.06448477,0.024079587,0.032258514,0.11427938,0.075956404,-0.076744504,0.11144328,-0.0006920599,0.048114944,
-0.08156384,-0.036043428,-0.037508573,0.039218064,-0.10545046,-0.00027255286,0.01630892,-0.04454152,-0.0152839655,0.20932546,-0.05098318,-0.021584805,0.021116836,
-0.06470505,-0.020188367,-0.03268803,-0.09114328,0.030358037,0.0009373426,0.0040256823,0.04411392,-0.0005446608,0.16481772,0.01099681,-0.008595381,-0.021242466,
0.020310761,-0.007899685,0.022775838,0.016498057,-0.040082384,0.014173422,0.01990289,0.08121981,0.04343071,-0.14330855,0.07454206,0.01002036,-0.014444257,
0.15370542,0.05064442,0.025626622,-0.13651265,-0.002032006,-0.007080717,-0.029773312,0.0040657204,-0.022372201,0.01028741,-0.024987863,-0.010808648,-0.0569569,
0.050354287,0.026643725,0.035221178,-0.16422735,0.1045893,-0.0005548003,-0.0133676985,0.063821115,0.0029892083,0.016377874,0.03185691,0.020667206,-0.009458096,
0.11622461,0.050139952,0.029652543,-0.09257404,0.06771849,-0.009327718,-0.031587932,-0.021685265,-0.020476734,-0.038946606,-0.02484808,0.010850953,0.001987106,
-0.10239951,-0.0014361821,0.0067045763,0.10855041,0.18942575,-0.0144561,-0.014969963,-0.075167485,-0.023089036,-0.13544665,-0.022983927,0.01007918,-0.00034304056,
0.038580097,0.03751326,0.03264484,-0.089632824,0.18684559,-0.012654823,-0.017284116,-0.00061184744,-0.020135317,-0.08250365,0.005074412,0.07059848,-0.0678515,
-0.010433809,0.004013359,-0.0062659737,-0.16760333,0.07301095,0.0056228833,0.0036462033,0.08876838,0.014043075,0.10938344,0.040996134,0.018439278,-0.0107264435,
0.11812196,0.004511534,0.015779424,-0.06167483,-0.1891348,0.017054155,0.010654339,0.09588363,0.03585843,0.0059950175,0.048128754,-0.050890606,-0.027614247,
-0.025547698,0.03087572,0.022243707,-0.13012026,0.24092902,-0.020783117,-0.019701941,-0.03944186,-0.04703968,0.05754619,-0.041942447,0.06373764,-0.06513171,
0.15795709,0.06586867,0.034533102,-0.14795955,0.048033237,-0.015493026,-0.030405717,-0.04659792,-0.04911518,0.03473223,-0.066925384,-0.008788085,-0.05568983,
0.021501407,0.009456225,-0.0047145556,0.18911812,-0.055251073,-0.007184861,-0.0035129364,-0.11540217,-0.021711249,-0.14528377,-0.06009667,-0.028845862,0.017723469,
0.21905278,0.07297023,0.06856734,-0.10015485,0.025725976,-0.004942699,-0.025627058,0.018222483,-0.0071692504,-0.19598018,0.009252699,0.02803924,-0.08130892,
-0.060103495,-0.059521325,-0.0014681177,0.14243716,-0.16601422,0.033311445,0.035046466,0.13857365,0.09831218,-0.17815599,0.13796249,-0.03568452,0.07307257,
0.10917015,0.029204559,0.0058181356,0.16645302,-0.1250795,-0.0077277627,-0.013962419,-0.11690653,-0.028240247,-0.15663189,-0.07490903,-0.06269702,-0.017561683,
-0.07507266,-0.010773932,0.015875308,-0.062401693,0.15031491,0.00871848,0.016902285,0.09844202,0.036929693,-0.08135041,0.08690794,0.04835688,0.0015529218,
-0.01872752,-0.017545955,-0.017437233,-0.015007004,-0.05636014,0.007661934,0.005155997,0.034513332,0.01792449,0.06602794,0.019018076,-0.016625682,0.038986947,
0.11374414,0.049331237,0.045862015,-0.019289492,0.08182438,-0.01055893,-0.028044755,-0.030112937,-0.01943413,-0.17915456,-0.014147438,-0.002238131,-0.043355487,
-0.009307794,-0.030838538,-0.018885203,-0.10248466,-0.078339964,0.023479156,0.007845817,0.15840916,0.06379355,0.06632803,0.108321846,-0.024971083,0.06456871,
-0.11508888,-0.019713545,-0.02387871,0.09063183,0.07730685,-0.0026795228,0.008333298,-0.046330597,-0.0070134085,-0.01649406,-0.014937062,-0.00028414864,0.049722753,
-0.08874349,-0.03381778,-0.0021907927,-0.1496586,0.049833983,0.015694361,0.011553801,0.13955371,0.046537336,0.14508268,0.08700765,0.0013261522,0.0684778,
-0.014112813,0.009523286,0.017307859,0.03940823,0.10209262,-0.009565862,-0.011023085,-0.03287456,-0.013089073,-0.10160002,-0.0073617813,0.023039289,-0.03550109,
0.015037395,-0.012958025,-0.0040687937,0.10357751,-0.097804144,0.014471834,0.015202103,0.04381101,0.03799749,-0.16140804,0.05403445,-0.03232771,0.009259166,
0.017120382,-0.001296407,0.0066458634,-0.079703435,-0.011905792,0.0023509748,-0.0022267606,0.036504213,0.008820146,0.095168754,0.016253095,0.030487657,0.016892448,
-0.046557702,-0.046801124,-0.008415958,0.15086727,-0.17832503,0.019614797,0.023887778,0.049527816,0.05259816,-0.07503282,0.055709794,-0.053031154,0.04366015,
0.099000074,0.048612326,0.0004296307,-0.06568605,0.03544636,-0.021292958,-0.029851943,-0.09831234,-0.06842487,0.075130545,-0.09873356,-0.02521596,-0.07658748,
-0.17442153,-0.052376572,-0.041748323,-0.088015325,0.08554251,0.011789803,0.01739158,0.098045155,0.03381337,0.17985699,0.06622727,0.00564002,0.07933678,
0.13196729,0.06783881,0.037352353,-0.10141877,0.10394359,-0.022082094,-0.036350083,-0.0932191,-0.060474526,-0.0018896272,-0.08622198,0.026226051,-0.03793375,
-0.09955868,-0.015388558,-0.004695458,0.013863933,0.13374616,0.002315095,0.005181982,0.030681625,0.020164758,-0.05117291,0.042660065,0.029364545,0.038728144,
-0.061290342,-0.0380674,-0.031534087,0.04487519,-0.1268201,0.001555658,0.010525478,-0.020198012,-0.0048448276,0.17244564,-0.029827153,-0.034249976,0.00097322575,
0.10680447,0.042748462,0.016296042,0.04500413,-0.010213443,-0.013338319,-0.0148835005,-0.093547344,-0.041298367,-0.09933946,-0.06856723,-0.013715524,-0.054899145,
0.06787749,-0.0028417076,-0.02500536,0.03346023,-0.19270371,0.0036164061,0.0055729365,-0.026808275,-0.0031857044,0.09359227,-0.03583985,-0.022745442,0.002289297,
-0.037066687,-0.019983646,-0.017925186,0.13483188,-0.060893923,0.0025448287,0.007916362,-0.028578574,0.005862308,-0.07384399,-0.0014609429,-0.033430558,0.009582761,
0.12712657,0.017637115,0.021488657,-0.07399125,-0.10760427,0.020975614,0.006886012,0.12021258,0.0576394,-0.101014666,0.086072594,0.005885182,0.030150877,
-0.13915326,-0.07462388,-0.019143783,0.078316346,-0.1141333,0.033120774,0.046691187,0.15313278,0.09508143,-0.012699011,0.13322634,-0.014502462,0.091241464,
-0.053515255,-0.020717366,-0.008679974,-0.120860055,0.03647692,0.0101192985,0.018784823,0.101517215,0.028750552,0.1192964,0.06287625,0.03885582,0.0060917204,
-0.05968256,-0.02921215,-0.029077837,0.16233462,-0.07272452,0.008834902,0.024681116,-0.012392932,0.021700174,-0.09869295,0.020987399,-0.007782223,0.03314016,
-0.191683,-0.05943822,-0.020202141,0.10767985,0.100887775,0.017673232,0.035218555,0.09708219,0.0669829,-0.13459668,0.12047079,0.04644034,0.062888026,
-0.081437804,0.0030097913,0.020350864,0.004935485,0.18906656,-0.011320783,-0.00027241654,-0.030839624,-0.01783052,-0.04644625,-0.0069754664,0.05991729,-0.025112696,
-0.13733672,-0.038087677,-0.03822074,-0.06285703,0.07853967,-0.0020448565,0.002715897,0.030570867,-0.005761703,0.18604861,0.008655194,-0.013825931,-0.0067822905,
-0.12885293,-0.02722426,0.0012462842,-0.070774406,0.13834295,0.007097625,0.013506376,0.086986676,0.027306376,0.035520583,0.062824115,0.005927129,0.016947169,
0.10930906,0.048011016,0.013216697,-0.08249608,0.04916397,-0.015568544,-0.027795618,-0.070220746,-0.04638219,0.018473295,-0.06393476,0.028644687,-0.020932447,
-0.14329575,-0.05165584,-0.051600914,0.04141542,-0.023312982,0.0039345385,0.02396557,0.003697163,0.0033984813,0.14534953,0.0025075644,-0.009452952,0.020343069,
0.078221016,0.032947388,-0.026752904,-0.027938401,-0.062042974,-0.0252738,-0.027091345,-0.1645292,-0.08901358,0.23141839,-0.15945797,-0.030035026,-0.03720238,
-0.15887944,-0.059107162,-0.011293613,-0.03484313,0.11503608,0.029955655,0.03205244,0.21743342,0.10542065,-0.12911822,0.19753245,0.056752887,0.07354868,
0.12366769,0.03279785,0.0051952335,-0.04524511,-0.09665065,-0.00092993764,-0.004307934,-0.021323008,-0.020415759,0.0025918244,-0.03845947,-0.03815782,-0.038941793,
0.108711414,0.031249538,0.060596246,-0.10186195,0.03992441,0.011292799,0.005927455,0.12367177,0.04238384,-0.18544608,0.09428798,0.036121305,-0.06732112,
0.14230958,0.058590204,-0.019545438,-0.051711153,-0.03790985,-0.02793888,-0.038807586,-0.17639197,-0.09714065,0.15543482,-0.16519491,-0.016944956,-0.044707753,
0.09971978,0.022439027,0.00032071155,-0.036437884,-0.0679913,-0.00012524847,-0.017161125,-0.012165542,-0.009122349,-0.010764687,-0.017982885,-0.030109296,0.022235755,
0.00041215448,-0.0113947615,0.030752895,-0.04129545,0.012419234,0.01916464,0.01474863,0.14562157,0.062207658,-0.1431832,0.119106114,-0.0017726315,-0.010504947,
0.17718893,0.045640804,0.035246942,-0.18539779,-0.046844997,0.0021631941,-0.019451516,0.06914614,0.0017688063,0.022370271,0.016587483,-0.019476796,-0.054966487,
-0.05947617,-0.013703267,0.0060966616,0.0007857231,0.040855173,0.0025869298,0.008678408,0.010928165,0.012385058,0.040672712,0.013751481,0.025465377,0.05742428,
-0.0064863362,0.0049868706,-0.015243922,-0.0052069584,-0.0031951761,-0.0070390864,0.0011522484,-0.051915076,-0.025449326,0.104691386,-0.050632533,0.002859031,0.0012587382,
0.06640898,-0.013294398,0.011056163,-0.009237413,-0.16778837,0.01668739,0.0069553326,0.07854526,0.04795397,0.008965234,0.056207057,0.0060440525,0.041943885,
0.005641064,-0.0024942835,-0.031294465,0.08868192,-0.10744473,-0.013240317,-0.01771688,-0.13788435,-0.05083015,0.13877417,-0.113845386,-0.062134564,0.044919346,
-0.031614445,0.00042325805,0.00499326,0.19560851,0.019162325,-0.011664083,-0.0076053087,-0.12284568,-0.023251122,-0.14428598,-0.057010315,0.0038770398,0.020203412,
0.098517254,0.027427467,0.0025355143,0.023795195,-0.08071938,-0.006164637,-0.0052343775,-0.053761218,-0.029380046,-0.032526497,-0.05087093,-0.038099825,-0.06569797,
-0.15820438,-0.05878371,-0.015214138,0.16098967,-0.034131188,0.012043351,0.034824416,0.022672908,0.03585686,-0.052237853,0.04433564,-0.017176224,0.032505836,
0.014781124,0.023625161,0.023068096,-0.029753463,0.12139119,-0.007785944,-0.013788027,-0.0037274687,-0.014991485,-0.1019602,0.0006550013,0.003428186,-0.061022867,
-0.007916219,-0.02750689,-0.022843752,-0.12743646,-0.10297668,0.015654784,0.01887208,0.1107795,0.033731908,0.18657611,0.05371122,-0.0013167054,0.0104908245,
-0.011635725,-0.03557905,-0.048219882,-0.13997346,-0.16420273,0.020799689,0.012454436,0.116716586,0.037036225,0.26189697,0.045605138,-0.06319124,0.07635861,
0.18779919,0.046849627,0.022152826,-0.047222376,-0.11320754,0.003436066,-0.011780081,0.010570509,-0.0020353717,-0.09957847,-0.006508723,-0.03536141,-0.036339555,
-0.0139817605,-0.019573497,0.019542933,0.110405646,-0.06583531,0.0150674125,0.018404573,0.05505643,0.047115456,-0.19151333,0.06647596,-0.024851125,0.009962699,
0.09864164,0.04803937,0.030568453,-0.046038393,0.06654843,-0.013822755,-0.018690327,-0.0480526,-0.037228495,-0.06644132,-0.044069108,0.009080131,-0.082800955,
-0.08332861,-0.0036930472,-0.005212921,-0.033768397,0.13184598,-0.017457586,-0.013560603,-0.073267646,-0.044588435,0.1371705,-0.06094127,0.029156672,-0.00091447093,
-0.06572746,-0.00014180837,-0.033676848,0.037313323,0.06138755,-0.019526627,-0.008726791,-0.1302341,-0.06170967,0.1509427,-0.10278989,-0.0038895993,0.009148443,
-0.214112,-0.060003314,-0.032125086,0.21114874,0.10347979,0.003586372,0.015405549,-0.016634893,0.0282033,-0.13487585,0.04659539,0.022603083,0.081805624,
0.028224232,0.054425,0.016396116,-0.016182693,0.1510133,-0.040464602,-0.034878377,-0.22552688,-0.11414889,0.14203091,-0.1870134,0.038712848,-0.047911726,
0.047990575,0.049700733,0.027605042,0.08256456,0.15715511,-0.027101615,-0.02985972,-0.1561127,-0.061808,-0.17236745,-0.09138046,0.0514379,-0.046921022