-0.04919755458831787
-0.06644552201032639
0.023487132042646408
0.0015113139525055885
0.007327327970415354
0.006224787328392267
0.06337400525808334
0.05956019461154938
-0.06412041932344437
0.03152291104197502
-0.032014768570661545
-0.030547309666872025
0.03011370822787285
0.002781528513878584
0.012735829688608646
-0.012263954617083073
0.025716934353113174
-0.037736617028713226
-0.0170594509691
-0.016232263296842575
-0.00520326429978013
-0.04409725219011307
-0.020019231364130974
0.045303825289011
0.01976446621119976
-0.04347524791955948
0.023822050541639328
0.000426368264015764
0.03732220083475113
-0.02002980001270771
0.014779964461922646
-0.029317649081349373
-0.004468122962862253
0.012172038666903973
-0.010011536069214344
-0.039665285497903824
-0.01357446238398552
-0.006316498853266239
0.0019503651419654489
0.016952525824308395
0.027072547003626823
-0.030841363593935966
0.0037923837080597878
0.006710587535053492
0.014567560516297817
0.019774794578552246
0.0035601183772087097
0.008948161266744137
0.0026276102289557457
0.019925259053707123
0.008397297002375126
0.05459136888384819
-0.013013535179197788
0.039847616106271744
0.021092668175697327
-0.0433732308447361
0.005052248015999794
0.024318689480423927
-0.014113602228462696
0.008946900255978107
0.04548419266939163
0.053002286702394485
-0.013522161170840263
-0.0032910555601119995
0.022372886538505554
-0.03446047008037567
-0.012887039221823215
0.03400854021310806
0.027988873422145844
-0.016735825687646866
-0.02220357023179531
0.024041229858994484
-0.048840802162885666
-0.003788613248616457
0.0033397346269339323
-0.023812834173440933
-0.0347580686211586
0.0027672250289469957
0.018867820501327515
0.017126742750406265
0.0016322317533195019
-0.007972941733896732
0.03560291603207588
-0.013736461289227009
0.01887362450361252
-0.004802463110536337
0.017934586852788925
0.019365835934877396
0.019348688423633575
-0.03699144348502159
0.020528923720121384
-0.002940179780125618
0.03529134392738342
-0.03061273880302906
-0.0017549809999763966
-0.014604771509766579
-0.0033309904392808676
0.03571878373622894
0.014776397496461868
-0.010097627528011799
0.025348123162984848
-0.024125998839735985
-0.032549090683460236
0.005856531206518412
0.01144904550164938
0.0028839041478931904
-0.02060357667505741
0.02390001155436039
0.027497977018356323
0.028201285749673843
-0.022478606551885605
-0.010797620750963688
-0.021248357370495796
-0.03075583465397358
-0.028389371931552887
1.5309526133933105e-05
-0.015379794873297215
0.027779534459114075
0.01274894829839468
-0.009222351014614105
0.027824582532048225
0.015449423342943192
-0.007030562497675419
0.025113390758633614
0.03836086764931679
0.04131265729665756
0.0047051855362951756
-0.03088315762579441
-0.014766889624297619
-0.0031309255864471197
-0.018960928544402122
0.02619820460677147
0.012583283707499504
-0.021211832761764526
-0.03560597822070122
-0.03142915293574333
0.014502367004752159
-0.015891024842858315
-0.003619258524850011
0.006661616265773773
0.003806242486461997
-0.015151679515838623
-0.04374738037586212
0.03993904963135719
0.014238403178751469
0.0050285737961530685
-0.0027353016193956137
0.0024692488368600607
-0.010530630126595497
-0.016973363235592842
-0.004255772568285465
0.04030613601207733
0.014193965122103691
0.014679831452667713
0.04129258543252945
0.01988055184483528
0.005349996034055948
-0.026136893779039383
0.014422879554331303
-0.043863724917173386
-0.00034704827703535557
-0.012723937630653381
-0.019979357719421387
0.007399177644401789
-0.0354599729180336
-0.0019011420663446188
-0.03623387962579727
0.01159696839749813
-0.007697363384068012
0.0481342077255249
-0.03461042791604996
0.04012809321284294
0.010094348341226578
-0.004360242746770382
0.04804465174674988
-0.01742907427251339
0.00318586896173656
-0.015682082623243332
0.03145347908139229
0.010344583541154861
-0.009446782059967518
0.0011804671958088875
0.011932780034840107
0.06952504068613052
-0.03448167070746422
-0.06302943825721741
-0.01858261227607727
0.006583140231668949
0.011744077317416668
-0.014620184898376465
-0.02008920907974243
-0.027495983988046646
-0.023303508758544922
0.023288331925868988
-0.0469975620508194
-0.020930718630552292
-0.022245310246944427
-0.006289293989539146
0.010937424376606941
-0.00946367159485817
-0.01997470296919346
0.05271459370851517
-0.012619218789041042
-0.027004025876522064
0.00444442592561245
0.026724018156528473
-0.012427332811057568
-0.006861955858767033
0.019969161599874496
0.04171979799866676
-0.018080830574035645
-0.017132209613919258
0.021000172942876816
0.002000113483518362
0.03173579275608063
-0.009541734121739864
0.0016863641794770956
0.007945291697978973
0.06251130998134613
-0.00885640550404787
0.020760711282491684
0.005183474160730839
-0.022136572748422623
0.0375087596476078
0.00030944598256610334
-0.00038780647446401417
-0.0026334042195230722
0.011217137798666954
0.009016718715429306
0.01148709375411272
0.02723858691751957
-0.030489109456539154
-0.021636174991726875
0.021496152505278587
-0.0260404534637928
-0.015821674838662148
0.02656376175582409
-0.026422295719385147
-0.04678574576973915
-0.0467631071805954
0.03454600274562836
0.054760806262493134
-0.017098354175686836
-0.014701396226882935
-0.025517815724015236
0.030744241550564766
-0.033858150243759155
-0.06925755739212036
-0.0009329364402219653
-0.030070096254348755
0.006481982301920652
-0.040832944214344025
-0.051331307739019394
0.05352482199668884
-0.03708828240633011
-0.01701550930738449
0.03700651600956917
-0.021140573546290398
0.018501296639442444
-0.06339728832244873
0.07103632390499115
0.005187327973544598
-0.037831854075193405
-0.01917858235538006
-0.007484865374863148
-0.028533020988106728
-0.01196502149105072
-0.00891642551869154
0.03679092973470688
-0.010976501740515232
-0.007000557146966457
-0.023863771930336952
-0.010198943316936493
0.01607244275510311
-0.010626216419041157
0.005641299299895763
0.015168333426117897
-0.028727322816848755
0.03373701125383377
0.022661274299025536
0.022329047322273254
-0.03331340476870537
-0.027002211660146713
-0.009795529767870903
0.0037839021533727646
0.054379772394895554
-0.0008571087964810431
0.0033371266908943653
-0.023658879101276398
0.007272504735738039
-0.017765473574399948
-0.05721674859523773
-0.022725585848093033
0.02846510335803032
0.024348068982362747
-0.04996902495622635
0.04223885387182236
-0.0005862032994627953
0.016714343801140785
0.03470933437347412
-0.011075143702328205
0.02553134225308895
0.027015632018446922
-0.026167964562773705
0.04172365367412567
-0.038964711129665375
-0.02576625905930996
-0.05411011353135109
-0.038432907313108444
0.009149887599050999
0.02958494983613491
0.015372728928923607
0.023889528587460518
-0.021701162680983543
0.014789671637117863
-0.009008629247546196
-0.011997745372354984
-0.02068791352212429
0.018634561449289322
0.012154314666986465
-0.018434401601552963
-0.019799422472715378
0.010548482649028301
0.010542361997067928
0.01411711797118187
0.021065818145871162
-0.0017232568934559822
-0.01852540299296379
-0.018336903303861618
0.025717662647366524
0.04499506950378418
-0.016063857823610306
-0.02871956303715706
-0.005715205799788237
-0.0024997976142913103
0.006664886139333248
-0.02843364141881466
0.00744800316169858
-0.051259055733680725
0.017603810876607895
0.023416979238390923
0.026532115414738655
0.017051713541150093
0.007950924336910248
0.028490327298641205
-0.02506978064775467
-0.001306320307776332
-0.02720652148127556
0.005174363497644663
0.002198491944000125
-0.014263021759688854
0.025905253365635872
-0.00013726891484111547
-0.0476488433778286
0.019713465124368668
0.026988836005330086
0.005305061116814613
-0.01790843904018402
-7.684390584472567e-05
0.031077437102794647
-0.03425062820315361
0.0018979322630912066
-0.002866121241822839
-0.021141601726412773
-0.0323139913380146
0.0357757993042469
-0.01985836960375309
0.0006057093269191682
0.012198079377412796
-0.016419779509305954
-0.0068577430211007595
-0.03956393525004387
0.00488354591652751
0.020452916622161865
0.05212173983454704
0.011815899983048439
0.008126289583742619
-0.01693459413945675
-0.03507537022233009
-0.025242814794182777
0.01589779555797577
0.014019256457686424
-0.00512675428763032
0.01085653342306614
-0.010638768784701824
-0.020375214517116547
-0.005191831383854151
-0.0014258339069783688
-0.009196920320391655
0.005636145360767841
-0.02641161158680916
0.0028873418923467398
0.013643883168697357
0.02184121124446392
0.03242826089262962
-0.01596686989068985
-0.02446076273918152
-0.0011662055039778352
-0.03067074902355671
0.02157958783209324
-0.017730671912431717
-0.009969990700483322
0.014170334674417973
-0.017027391120791435
-0.050570521503686905
-0.041289545595645905
0.013918010517954826
-0.00589793873950839
-0.005495747085660696
0.030808651819825172
0.0038254368118941784
-0.03456399217247963
-0.015224582515656948
-0.05945538356900215
-0.008233929052948952
-0.03021988458931446
0.006745338439941406
-0.011844039894640446
0.03119935654103756
-0.017435645684599876
0.009017972275614738
-0.012182921171188354
0.021922623738646507
-0.01747138984501362
0.025395430624485016
-0.06792071461677551
0.007722544949501753
-0.00786682590842247
-0.004178002011030912
-0.00025358895072713494
-0.006127411499619484
0.013811560347676277
0.008832089602947235
0.020800696685910225
0.020183498039841652
-0.029499519616365433
-0.01842116191983223
0.025679415091872215
-0.013514026999473572
-0.03100660815834999
0.005831198301166296
0.01578059233725071
0.04345277324318886
0.002773807616904378
-0.014058712869882584
-0.03940795361995697
-0.042850445955991745
-0.03641730546951294
0.0173476692289114
-0.03716197982430458
-0.028387783095240593
-0.02236945927143097
-0.0215523112565279
-0.03889267146587372
0.02851003035902977
-0.06241428479552269
0.01409602165222168
0.01767726242542267
-0.022953743115067482
0.005218793172389269
-0.031946513801813126
-0.019054165109992027
0.02815186232328415
-0.01610715501010418
-0.002719863085076213
0.0046944827772676945
-0.013848191127181053
0.029695255681872368
-0.009976075030863285
0.010017301887273788
-0.03128731623291969
-0.0008917496888898313
0.03773698955774307
-0.004731474444270134
0.014465101063251495
0.02684558928012848
-0.04298312962055206
0.01927577517926693
-0.015759943053126335
0.029868580400943756
0.015151613391935825
-0.0010116042103618383
0.018039362505078316
-0.005016378592699766
-0.021333925426006317
0.039598241448402405
0.02056065946817398
-0.01921154372394085
-0.011744128540158272
-0.05883030965924263
0.004598652478307486
-0.01149341557174921
-0.029804712161421776
-0.05318586528301239
0.003160119289532304
0.009924779646098614
-0.011355927214026451
0.0422668494284153
0.03233809769153595
-0.000296345679089427
0.04231845960021019
-0.01753615401685238
-0.008111010305583477
0.001092539052478969
-0.0317794494330883
0.005205910187214613
-0.02417740412056446
0.0156730767339468
0.03291512653231621
0.046009160578250885
0.012879456393420696
-0.0009733741171658039